{"learner":{"attributes":{"best_iteration":"133","best_score":"7.74562974685e-06","scikit_learn":"{\"_estimator_type\": \"classifier\"}"},"feature_names":[],"feature_types":[],"gradient_booster":{"model":{"gbtree_model_param":{"num_parallel_tree":"1","num_trees":"164"},"iteration_indptr":[0,1,2,3,4,5,6,7,8,9,10,11,12,13,14,15,16,17,18,19,20,21,22,23,24,25,26,27,28,29,30,31,32,33,34,35,36,37,38,39,40,41,42,43,44,45,46,47,48,49,50,51,52,53,54,55,56,57,58,59,60,61,62,63,64,65,66,67,68,69,70,71,72,73,74,75,76,77,78,79,80,81,82,83,84,85,86,87,88,89,90,91,92,93,94,95,96,97,98,99,100,101,102,103,104,105,106,107,108,109,110,111,112,113,114,115,116,117,118,119,120,121,122,123,124,125,126,127,128,129,130,131,132,133,134,135,136,137,138,139,140,141,142,143,144,145,146,147,148,149,150,151,152,153,154,155,156,157,158,159,160,161,162,163,164],"tree_info":[0,0,0,0,0,0,0,0,0,0,0,0,0,0,0,0,0,0,0,0,0,0,0,0,0,0,0,0,0,0,0,0,0,0,0,0,0,0,0,0,0,0,0,0,0,0,0,0,0,0,0,0,0,0,0,0,0,0,0,0,0,0,0,0,0,0,0,0,0,0,0,0,0,0,0,0,0,0,0,0,0,0,0,0,0,0,0,0,0,0,0,0,0,0,0,0,0,0,0,0,0,0,0,0,0,0,0,0,0,0,0,0,0,0,0,0,0,0,0,0,0,0,0,0,0,0,0,0,0,0,0,0,0,0,0,0,0,0,0,0,0,0,0,0,0,0,0,0,0,0,0,0,0,0,0,0,0,0,0,0,0,0,0,0],"trees":[{"base_weights":[1.7918729E-3,-1.9999763E-1,1.9825273E0,1.9980601E0,-1.9939895E-1,1.9999647E-1,-1.9518073E-1],"categories":[],"categories_nodes":[],"categories_segments":[],"categories_sizes":[],"default_left":[0,0,0,0,0,0,0],"id":0,"left_children":[1,-1,3,5,-1,-1,-1],"loss_changes":[6.735803E5,0E0,5.27825E3,6.4378125E2,0E0,0E0,0E0],"parents":[2147483647,0,0,2,2,3,3],"right_children":[2,-1,4,6,-1,-1,-1],"split_conditions":[3.2E1,-1.9999763E-1,2.3E1,5.82722E5,-1.9939895E-1,1.9999647E-1,-1.9518073E-1],"split_indices":[69,0,0,2,0,0,0],"split_type":[0,0,0,0,0,0,0],"sum_hessian":[1.698807E5,8.449175E4,8.538895E4,8.50572E4,3.3175E2,8.50167E4,4.05E1],"tree_param":{"num_deleted":"0","num_feature":"78","num_nodes":"7","size_leaf_vector":"1"}},{"base_weights":[-1.4257606E-3,-1.818711E-1,1.8027724E0,1.8170819E0,-1.8137668E-1,1.8187001E-1,-1.7752112E-1],"categories":[],"categories_nodes":[],"categories_segments":[],"categories_sizes":[],"default_left":[0,0,0,0,0,0,0],"id":1,"left_children":[1,-1,3,5,-1,-1,-1],"loss_changes":[5.51968E5,0E0,4.3750625E3,4.9240625E2,0E0,0E0,0E0],"parents":[2147483647,0,0,2,2,3,3],"right_children":[2,-1,4,6,-1,-1,-1],"split_conditions":[3.2E1,-1.818711E-1,2.3E1,5.82722E5,-1.8137668E-1,1.8187001E-1,-1.7752112E-1],"split_indices":[69,0,0,2,0,0,0],"split_type":[0,0,0,0,0,0,0],"sum_hessian":[1.6834544E5,8.386854E4,8.44769E4,8.414447E4,3.3243466E2,8.410707E4,3.7392746E1],"tree_param":{"num_deleted":"0","num_feature":"78","num_nodes":"7","size_leaf_vector":"1"}},{"base_weights":[3.1274866E-4,-1.6825639E-1,1.6677647E0,1.6808661E0,-1.678099E-1,1.6825534E-1,-1.6487144E-1],"categories":[],"categories_nodes":[],"categories_segments":[],"categories_sizes":[],"default_left":[0,0,0,0,0,0,0],"id":2,"left_children":[1,-1,3,5,-1,-1,-1],"loss_changes":[4.6009484E5,0E0,3.6130469E3,4.6365625E2,0E0,0E0,0E0],"parents":[2147483647,0,0,2,2,3,3],"right_children":[2,-1,4,6,-1,-1,-1],"split_conditions":[3.2E1,-1.6825639E-1,2.3E1,5.82722E5,-1.678099E-1,1.6825534E-1,-1.6487144E-1],"split_indices":[69,0,0,2,0,0,0],"split_type":[0,0,0,0,0,0,0],"sum_hessian":[1.6395945E5,8.160229E4,8.2357164E4,8.203643E4,3.207331E2,8.1995375E4,4.105762E1],"tree_param":{"num_deleted":"0","num_feature":"78","num_nodes":"7","size_leaf_vector":"1"}},{"base_weights":[4.957778E-4,-1.5768576E-1,1.5626899E0,1.5753083E0,-1.5728056E-1,1.576847E-1,-1.5439646E-1],"categories":[],"categories_nodes":[],"categories_segments":[],"categories_sizes":[],"default_left":[0,0,0,0,0,0,0],"id":3,"left_children":[1,-1,3,5,-1,-1,-1],"loss_changes":[3.885551E5,0E0,3.1368906E3,3.8114062E2,0E0,0E0,0E0],"parents":[2147483647,0,0,2,2,3,3],"right_children":[2,-1,4,6,-1,-1,-1],"split_conditions":[3.2E1,-1.5768576E-1,2.3E1,5.82722E5,-1.5728056E-1,1.576847E-1,-1.5439646E-1],"split_indices":[69,0,0,2,0,0,0],"split_type":[0,0,0,0,0,0,0],"sum_hessian":[1.5768236E5,7.846049E4,7.922186E4,7.890482E4,3.1704257E2,7.8866414E4,3.840772E1],"tree_param":{"num_deleted":"0","num_feature":"78","num_nodes":"7","size_leaf_vector":"1"}},{"base_weights":[1.0258423E-3,-1.4927018E-1,1.4795213E0,1.4912194E0,-1.4886564E-1,1.492704E-1,-1.4614582E-1],"categories":[],"categories_nodes":[],"categories_segments":[],"categories_sizes":[],"default_left":[0,0,0,0,0,0,0],"id":4,"left_children":[1,-1,3,5,-1,-1,-1],"loss_changes":[3.3221762E5,0E0,2.6272344E3,3.3226562E2,0E0,0E0,0E0],"parents":[2147483647,0,0,2,2,3,3],"right_children":[2,-1,4,6,-1,-1,-1],"split_conditions":[3.2E1,-1.4927018E-1,2.3E1,5.82722E5,-1.4886564E-1,1.492704E-1,-1.4614582E-1],"split_indices":[69,0,0,2,0,0,0],"split_type":[0,0,0,0,0,0,0],"sum_hessian":[1.504269E5,7.4827984E4,7.5598914E4,7.5302625E4,2.9628607E2,7.526528E4,3.7347977E1],"tree_param":{"num_deleted":"0","num_feature":"78","num_nodes":"7","size_leaf_vector":"1"}},{"base_weights":[-1.205679E-3,-1.424379E-1,1.4119687E0,1.4229761E0,-1.4202428E-1,1.4243665E-1,-1.3922471E-1],"categories":[],"categories_nodes":[],"categories_segments":[],"categories_sizes":[],"default_left":[0,0,0,0,0,0,0],"id":5,"left_children":[1,-1,3,5,-1,-1,-1],"loss_changes":[2.8579078E5,0E0,2.2247969E3,2.8E2,0E0,0E0,0E0],"parents":[2147483647,0,0,2,2,3,3],"right_children":[2,-1,4,6,-1,-1,-1],"split_conditions":[3.2E1,-1.424379E-1,2.3E1,3.7507E4,-1.4202428E-1,1.4243665E-1,-1.3922471E-1],"split_indices":[69,0,0,22,0,0,0],"split_type":[0,0,0,0,0,0,0],"sum_hessian":[1.4209819E5,7.0798625E4,7.129956E4,7.102403E4,2.7553625E2,7.098946E4,3.4566116E1],"tree_param":{"num_deleted":"0","num_feature":"78","num_nodes":"7","size_leaf_vector":"1"}},{"base_weights":[-1.1142708E-3,-1.368036E-1,1.356134E0,1.3667258E0,-1.3638237E-1,1.368023E-1,-1.334076E-1],"categories":[],"categories_nodes":[],"categories_segments":[],"categories_sizes":[],"default_left":[0,0,0,0,0,0,0],"id":6,"left_children":[1,-1,3,5,-1,-1,-1],"loss_changes":[2.4803681E5,0E0,1.9345078E3,2.3595312E2,0E0,0E0,0E0],"parents":[2147483647,0,0,2,2,3,3],"right_children":[2,-1,4,6,-1,-1,-1],"split_conditions":[3.2E1,-1.368036E-1,2.3E1,5.82722E5,-1.3638237E-1,1.368023E-1,-1.334076E-1],"split_indices":[69,0,0,2,0,0,0],"split_type":[0,0,0,0,0,0,0],"sum_hessian":[1.336924E5,6.6608836E4,6.708357E4,6.682385E4,2.5971967E2,6.6792266E4,3.1587168E1],"tree_param":{"num_deleted":"0","num_feature":"78","num_nodes":"7","size_leaf_vector":"1"}},{"base_weights":[-2.2984577E-4,-1.320976E-1,1.3093004E0,1.3196266E0,-1.3166521E-1,1.3209622E-1,-1.2884043E-1],"categories":[],"categories_nodes":[],"categories_segments":[],"categories_sizes":[],"default_left":[0,0,0,0,0,0,0],"id":7,"left_children":[1,-1,3,5,-1,-1,-1],"loss_changes":[2.1609319E5,0E0,1.7029141E3,2.1938281E2,0E0,0E0,0E0],"parents":[2147483647,0,0,2,2,3,3],"right_children":[2,-1,4,6,-1,-1,-1],"split_conditions":[3.2E1,-1.320976E-1,2.3E1,5.82722E5,-1.3166521E-1,1.3209622E-1,-1.2884043E-1],"split_indices":[69,0,0,2,0,0,0],"split_type":[0,0,0,0,0,0,0],"sum_hessian":[1.2493934E5,6.2203285E4,6.2736055E4,6.2490816E4,2.4523677E2,6.2459324E4,3.1494942E1],"tree_param":{"num_deleted":"0","num_feature":"78","num_nodes":"7","size_leaf_vector":"1"}},{"base_weights":[1.2136573E-3,-1.2812535E-1,1.2701547E0,1.2800264E0,-1.2766357E-1,-1.244271E-1,1.2812388E-1],"categories":[],"categories_nodes":[],"categories_segments":[],"categories_sizes":[],"default_left":[0,0,0,0,0,0,0],"id":8,"left_children":[1,-1,3,5,-1,-1,-1],"loss_changes":[1.8957614E5,0E0,1.4737656E3,1.8011719E2,0E0,0E0,0E0],"parents":[2147483647,0,0,2,2,3,3],"right_children":[2,-1,4,6,-1,-1,-1],"split_conditions":[3.2E1,-1.2812535E-1,2.3E1,1.2220616E1,-1.2766357E-1,-1.244271E-1,1.2812388E-1],"split_indices":[69,0,0,16,0,0,0],"split_type":[0,0,0,0,0,0,0],"sum_hessian":[1.1648995E5,5.7936188E4,5.8553766E4,5.8328176E4,2.2559134E2,2.7508427E1,5.8300664E4],"tree_param":{"num_deleted":"0","num_feature":"78","num_nodes":"7","size_leaf_vector":"1"}},{"base_weights":[-3.8907936E-4,1.2017721E0,-1.2474308E-1,-1.2450435E-1,1.247271E0,-9.274799E-2,1.2474038E-1],"categories":[],"categories_nodes":[],"categories_segments":[],"categories_sizes":[],"default_left":[0,0,0,0,0,0,0],"id":9,"left_children":[1,3,-1,-1,5,-1,-1],"loss_changes":[1.6220805E5,6.1347344E3,0E0,0E0,1.6796875E1,0E0,0E0],"parents":[2147483647,0,0,1,1,4,4],"right_children":[2,4,-1,-1,6,-1,-1],"split_conditions":[2.3E1,0E0,-1.2474308E-1,-1.2450435E-1,1.4944612E1,-9.274799E-2,1.2474038E-1],"split_indices":[0,67,0,0,16,0,0],"split_type":[0,0,0,0,0,0,0],"sum_hessian":[1.0819835E5,5.509054E4,5.3107812E4,1.0052323E3,5.408531E4,2.8779123E0,5.408243E4],"tree_param":{"num_deleted":"0","num_feature":"78","num_nodes":"7","size_leaf_vector":"1"}},{"base_weights":[-1.3477649E-3,-1.21840715E-1,1.2078624E0,1.2171751E0,-1.2129929E-1,1.2183892E-1,-1.1784708E-1],"categories":[],"categories_nodes":[],"categories_segments":[],"categories_sizes":[],"default_left":[0,0,0,0,0,0,0],"id":10,"left_children":[1,-1,3,5,-1,-1,-1],"loss_changes":[1.470916E5,0E0,1.1317656E3,1.4670312E2,0E0,0E0,0E0],"parents":[2147483647,0,0,2,2,3,3],"right_children":[2,-1,4,6,-1,-1,-1],"split_conditions":[3.2E1,-1.21840715E-1,2.3E1,5.82722E5,-1.2129929E-1,1.2183892E-1,-1.1784708E-1],"split_indices":[69,0,0,2,0,0,0],"split_type":[0,0,0,0,0,0,0],"sum_hessian":[9.994604E4,4.9811348E4,5.013469E4,4.9943066E4,1.9162653E2,4.9918258E4,2.48069E1],"tree_param":{"num_deleted":"0","num_feature":"78","num_nodes":"7","size_leaf_vector":"1"}},{"base_weights":[-5.268856E-4,-1.193349E-1,1.1827196E0,1.1921592E0,-1.1877859E-1,1.1933519E-1,-1.15078084E-1],"categories":[],"categories_nodes":[],"categories_segments":[],"categories_sizes":[],"default_left":[0,0,0,0,0,0,0],"id":11,"left_children":[1,-1,3,5,-1,-1,-1],"loss_changes":[1.3021261E5,0E0,1.0377812E3,1.3028125E2,0E0,0E0,0E0],"parents":[2147483647,0,0,2,2,3,3],"right_children":[2,-1,4,6,-1,-1,-1],"split_conditions":[3.2E1,-1.193349E-1,2.3E1,5.82722E5,-1.1877859E-1,1.1933519E-1,-1.15078084E-1],"split_indices":[69,0,0,2,0,0,0],"split_type":[0,0,0,0,0,0,0],"sum_hessian":[9.2255586E4,4.594189E4,4.6313695E4,4.6130496E4,1.8319853E2,4.6107516E4,2.2981327E1],"tree_param":{"num_deleted":"0","num_feature":"78","num_nodes":"7","size_leaf_vector":"1"}},{"base_weights":[-6.4234E-4,-1.1715948E-1,1.1611139E0,1.170443E0,-1.1656513E-1,1.1715968E-1,-1.1250557E-1],"categories":[],"categories_nodes":[],"categories_segments":[],"categories_sizes":[],"default_left":[0,0,0,0,0,0,0],"id":12,"left_children":[1,-1,3,5,-1,-1,-1],"loss_changes":[1.1563734E5,0E0,9.2759766E2,1.1387109E2,0E0,0E0,0E0],"parents":[2147483647,0,0,2,2,3,3],"right_children":[2,-1,4,6,-1,-1,-1],"split_conditions":[3.2E1,-1.1715948E-1,2.3E1,5.82722E5,-1.1656513E-1,1.1715968E-1,-1.1250557E-1],"split_indices":[69,0,0,2,0,0,0],"split_type":[0,0,0,0,0,0,0],"sum_hessian":[8.500288E4,4.2333883E4,4.2668996E4,4.2499094E4,1.6990395E2,4.2478234E4,2.0859943E1],"tree_param":{"num_deleted":"0","num_feature":"78","num_nodes":"7","size_leaf_vector":"1"}},{"base_weights":[-2.078719E-4,-1.1526189E-1,1.1426972E0,1.1514896E0,-1.1458679E-1,1.1525948E-1,-1.1009591E-1],"categories":[],"categories_nodes":[],"categories_segments":[],"categories_sizes":[],"default_left":[0,0,0,0,0,0,0],"id":13,"left_children":[1,-1,3,5,-1,-1,-1],"loss_changes":[1.0283967E5,0E0,7.901406E2,9.848828E1,0E0,0E0,0E0],"parents":[2147483647,0,0,2,2,3,3],"right_children":[2,-1,4,6,-1,-1,-1],"split_conditions":[3.2E1,-1.1526189E-1,2.3E1,5.82722E5,-1.1458679E-1,1.1525948E-1,-1.1009591E-1],"split_indices":[69,0,0,2,0,0,0],"split_type":[0,0,0,0,0,0,0],"sum_hessian":[7.807859E4,3.8877613E4,3.920098E4,3.9051445E4,1.4953484E2,3.903278E4,1.8663502E1],"tree_param":{"num_deleted":"0","num_feature":"78","num_nodes":"7","size_leaf_vector":"1"}},{"base_weights":[1.4187714E-4,-1.1359984E-1,1.1258982E0,1.1326623E0,-1.1274546E-1,1.1351806E0,-9.671332E-1,-1.09326206E-1,1.1356846E0,-1.10906124E-1,8.334989E-2,1.135738E0,-1.1790602E-2,1.135785E-1,7.5317295E-3],"categories":[],"categories_nodes":[],"categories_segments":[],"categories_sizes":[],"default_left":[0,0,0,0,0,0,0,0,0,0,0,0,0,0,0],"id":14,"left_children":[1,-1,3,5,-1,7,9,-1,11,-1,-1,13,-1,-1,-1],"loss_changes":[9.177013E4,0E0,5.5059766E2,1.9110156E2,0E0,4.1554688E1,1.2062016E1,0E0,2.5390625E0,0E0,0E0,1.6992188E0,0E0,0E0,0E0],"parents":[2147483647,0,0,2,2,3,3,5,5,6,6,8,8,11,11],"right_children":[2,-1,4,6,-1,8,10,-1,12,-1,-1,14,-1,-1,-1],"split_conditions":[3.2E1,-1.1359984E-1,1.962E4,1.11E2,-1.1274546E-1,2.41E2,7.06E2,-1.09326206E-1,5.5E1,-1.10906124E-1,8.334989E-2,1.0436364E2,-1.1790602E-2,1.135785E-1,7.5317295E-3],"split_indices":[69,0,17,30,0,66,11,0,20,0,0,9,0,0,0],"split_type":[0,0,0,0,0,0,0,0,0,0,0,0,0,0,0],"sum_hessian":[7.1748516E4,3.5709562E4,3.6038953E4,3.593159E4,1.073628E2,3.5889008E4,4.258119E1,7.6257615E0,3.5881383E4,3.982612E1,2.7550724E0,3.587995E4,1.43517E0,3.587829E4,1.6598011E0],"tree_param":{"num_deleted":"0","num_feature":"78","num_nodes":"15","size_leaf_vector":"1"}},{"base_weights":[-7.5740165E-5,-1.1213882E-1,1.1114709E0,1.1202122E0,-1.114754E-1,1.1213638E-1,-1.06464736E-1],"categories":[],"categories_nodes":[],"categories_segments":[],"categories_sizes":[],"default_left":[0,0,0,0,0,0,0],"id":15,"left_children":[1,-1,3,5,-1,-1,-1],"loss_changes":[8.1768875E4,0E0,6.423789E2,8.376172E1,0E0,0E0,0E0],"parents":[2147483647,0,0,2,2,3,3],"right_children":[2,-1,4,6,-1,-1,-1],"split_conditions":[3.2E1,-1.1213882E-1,2.3E1,5.82722E5,-1.114754E-1,1.1213638E-1,-1.06464736E-1],"split_indices":[69,0,0,2,0,0,0],"split_type":[0,0,0,0,0,0,0],"sum_hessian":[6.560251E4,3.265779E4,3.2944723E4,3.2816363E4,1.2835704E2,3.2799562E4,1.6801039E1],"tree_param":{"num_deleted":"0","num_feature":"78","num_nodes":"7","size_leaf_vector":"1"}},{"base_weights":[-4.0522395E-4,-1.1085049E-1,1.0984854E0,-1.09820746E-1,1.1051509E0,1.1081399E0,-1.0833712E-1,8.246916E-3,1.1081746E0,1.1082009E-1,2.1728592E-2],"categories":[],"categories_nodes":[],"categories_segments":[],"categories_sizes":[],"default_left":[0,0,0,0,0,0,0,0,0,0,0],"id":16,"left_children":[1,-1,3,-1,5,7,-1,-1,9,-1,-1],"loss_changes":[7.305319E4,0E0,4.4227344E2,0E0,1.9764453E2,9.8046875E-1,0E0,0E0,4.609375E-1,0E0,0E0],"parents":[2147483647,0,0,2,2,4,4,5,5,8,8],"right_children":[2,-1,4,-1,6,8,-1,-1,10,-1,-1],"split_conditions":[3.2E1,-1.1085049E-1,2.9546461E1,-1.09820746E-1,2.41E2,1E0,-1.0833712E-1,8.246916E-3,3.180175E4,1.1082009E-1,2.1728592E-2],"split_indices":[69,0,37,0,67,4,0,0,27,0,0],"split_type":[0,0,0,0,0,0,0,0,0,0,0],"sum_hessian":[5.9991734E4,2.98707E4,3.0121035E4,9.062728E1,3.0030408E4,2.9989945E4,4.046407E1,1.0971254E0,2.9988848E4,2.9987719E4,1.1294626E0],"tree_param":{"num_deleted":"0","num_feature":"78","num_nodes":"11","size_leaf_vector":"1"}},{"base_weights":[-1.289072E-3,-1.0971127E-1,1.0874077E0,1.095961E0,-1.09014414E-1,1.0970845E-1,-1.0294881E-1],"categories":[],"categories_nodes":[],"categories_segments":[],"categories_sizes":[],"default_left":[0,0,0,0,0,0,0],"id":17,"left_children":[1,-1,3,5,-1,-1,-1],"loss_changes":[6.5373082E4,0E0,5.1315625E2,6.6515625E1,0E0,0E0,0E0],"parents":[2147483647,0,0,2,2,3,3],"right_children":[2,-1,4,6,-1,-1,-1],"split_conditions":[3.2E1,-1.0971127E-1,2.3E1,5.82722E5,-1.09014414E-1,1.0970845E-1,-1.0294881E-1],"split_indices":[69,0,0,2,0,0,0],"split_type":[0,0,0,0,0,0,0],"sum_hessian":[5.479432E4,2.7307775E4,2.7486547E4,2.7379498E4,1.0704805E2,2.7365516E4,1.3981821E1],"tree_param":{"num_deleted":"0","num_feature":"78","num_nodes":"7","size_leaf_vector":"1"}},{"base_weights":[-5.7453377E-4,1.0469294E0,-1.08702555E-1,-1.0831364E-1,1.0868543E0,-6.4759366E-2,1.0869813E-1],"categories":[],"categories_nodes":[],"categories_segments":[],"categories_sizes":[],"default_left":[0,0,0,0,0,0,0],"id":18,"left_children":[1,3,-1,-1,5,-1,-1],"loss_changes":[5.6990586E4,2.169373E3,0E0,0E0,6.216797E0,0E0,0E0],"parents":[2147483647,0,0,1,1,4,4],"right_children":[2,4,-1,-1,6,-1,-1],"split_conditions":[2.3E1,8E0,-1.08702555E-1,-1.0831364E-1,1.4944612E1,-6.4759366E-2,1.0869813E-1],"split_indices":[0,36,0,0,16,0,0],"split_type":[0,0,0,0,0,0,0],"sum_hessian":[5.007488E4,2.549442E4,2.4580459E4,4.6858224E2,2.5025838E4,1.4587256E0,2.5024379E4],"tree_param":{"num_deleted":"0","num_feature":"78","num_nodes":"7","size_leaf_vector":"1"}},{"base_weights":[8.0102927E-4,-1.0780441E-1,1.0685183E0,1.0769277E0,-1.0687156E-1,1.0780513E-1,-9.995037E-2],"categories":[],"categories_nodes":[],"categories_segments":[],"categories_sizes":[],"default_left":[0,0,0,0,0,0,0],"id":19,"left_children":[1,-1,3,5,-1,-1,-1],"loss_changes":[5.2617484E4,0E0,4.1376758E2,5.4433594E1,0E0,0E0,0E0],"parents":[2147483647,0,0,2,2,3,3],"right_children":[2,-1,4,6,-1,-1,-1],"split_conditions":[3.2E1,-1.0780441E-1,2.3E1,5.82722E5,-1.0687156E-1,1.0780513E-1,-9.995037E-2],"split_indices":[69,0,0,2,0,0,0],"split_type":[0,0,0,0,0,0,0],"sum_hessian":[4.567681E4,2.2720004E4,2.2956803E4,2.2867322E4,8.948023E1,2.2855436E4,1.188689E1],"tree_param":{"num_deleted":"0","num_feature":"78","num_nodes":"7","size_leaf_vector":"1"}},{"base_weights":[5.760064E-4,-1.0700595E-1,1.0606533E0,1.0690421E0,-1.05973266E-1,-9.774616E-2,1.0700657E-1],"categories":[],"categories_nodes":[],"categories_segments":[],"categories_sizes":[],"default_left":[0,0,0,0,0,0,0],"id":20,"left_children":[1,-1,3,5,-1,-1,-1],"loss_changes":[4.7281742E4,0E0,3.734746E2,4.472461E1,0E0,0E0,0E0],"parents":[2147483647,0,0,2,2,3,3],"right_children":[2,-1,4,6,-1,-1,-1],"split_conditions":[3.2E1,-1.0700595E-1,2.3E1,1.2220616E1,-1.05973266E-1,-9.774616E-2,1.0700657E-1],"split_indices":[69,0,0,16,0,0,0],"split_type":[0,0,0,0,0,0,0],"sum_hessian":[4.165752E4,2.0725545E4,2.0931975E4,2.0849984E4,8.199166E1,9.945994E0,2.0840037E4],"tree_param":{"num_deleted":"0","num_feature":"78","num_nodes":"7","size_leaf_vector":"1"}},{"base_weights":[3.8825918E-4,-1.0629397E-1,1.053269E0,1.0596704E0,-1.04630865E-1,-1.0488776E-1,1.0611382E0,1.062486E0,-9.824166E-2,1.062601E-1,1.01632476E-1,3.9499417E-2,-2.3642693E-2],"categories":[],"categories_nodes":[],"categories_segments":[],"categories_sizes":[],"default_left":[0,0,0,0,0,0,0,0,0,0,0,0,0],"id":21,"left_children":[1,-1,3,5,-1,-1,7,9,-1,-1,11,-1,-1],"loss_changes":[4.2384785E4,0E0,2.5678125E2,5.9802734E1,0E0,0E0,5.3251953E1,1.9804688E0,0E0,0E0,4.2762613E-1,0E0,0E0],"parents":[2147483647,0,0,2,2,3,3,6,6,7,7,10,10],"right_children":[2,-1,4,6,-1,-1,8,10,-1,-1,12,-1,-1],"split_conditions":[3.2E1,-1.0629397E-1,1.962E4,2.41E2,-1.04630865E-1,-1.0488776E-1,6.61E2,4.7E1,-9.824166E-2,1.062601E-1,2E0,3.9499417E-2,-2.3642693E-2],"split_indices":[69,0,17,66,0,0,7,20,0,0,3,0,0],"split_type":[0,0,0,0,0,0,0,0,0,0,0,0,0],"sum_hessian":[3.7856508E4,1.8834807E4,1.9021703E4,1.8964377E4,5.7325504E1,1.2694351E1,1.8951684E4,1.893967E4,1.201282E1,1.89373E4,2.3702378E0,1.1788431E0,1.1913947E0],"tree_param":{"num_deleted":"0","num_feature":"78","num_nodes":"13","size_leaf_vector":"1"}},{"base_weights":[-2.9961567E-4,-1.0565821E-1,1.0470477E0,1.0554693E0,-1.04472876E-1,-9.5185064E-2,1.0565328E-1],"categories":[],"categories_nodes":[],"categories_segments":[],"categories_sizes":[],"default_left":[0,0,0,0,0,0,0],"id":22,"left_children":[1,-1,3,5,-1,-1,-1],"loss_changes":[3.8149223E4,0E0,3.06125E2,3.7822266E1,0E0,0E0,0E0],"parents":[2147483647,0,0,2,2,3,3],"right_children":[2,-1,4,6,-1,-1,-1],"split_conditions":[3.2E1,-1.0565821E-1,2.3E1,1.2220616E1,-1.04472876E-1,-9.5185064E-2,1.0565328E-1],"split_indices":[69,0,0,16,0,0,0],"split_type":[0,0,0,0,0,0,0],"sum_hessian":[3.448178E4,1.7167656E4,1.7314125E4,1.7245191E4,6.893401E1,8.658048E0,1.7236533E4],"tree_param":{"num_deleted":"0","num_feature":"78","num_nodes":"7","size_leaf_vector":"1"}},{"base_weights":[-7.240447E-4,-1.0508968E-1,1.0414172E0,1.0476902E0,-1.03055E-1,1.049929E0,-8.4203744E-1,-8.253019E-2,1.0504165E0,-9.929757E-2,6.1626922E-2,1.050479E0,1.0868385E-2,1.05051436E-1,3.0373499E-2],"categories":[],"categories_nodes":[],"categories_segments":[],"categories_sizes":[],"default_left":[0,0,0,0,0,0,0,0,0,0,0,0,0,0,0],"id":23,"left_children":[1,-1,3,5,-1,7,9,-1,11,-1,-1,13,-1,-1,-1],"loss_changes":[3.4335625E4,0E0,2.057461E2,6.730469E1,0E0,1.5199219E1,4.8233585E0,0E0,8.125E-1,0E0,0E0,9.1796875E-2,0E0,0E0,0E0],"parents":[2147483647,0,0,2,2,3,3,5,5,6,6,8,8,11,11],"right_children":[2,-1,4,6,-1,8,10,-1,12,-1,-1,14,-1,-1,-1],"split_conditions":[3.2E1,-1.0508968E-1,1.962E4,1.11E2,-1.03055E-1,2.41E2,7.06E2,-8.253019E-2,5.5E1,-9.929757E-2,6.1626922E-2,7.1E1,1.0868385E-2,1.05051436E-1,3.0373499E-2],"split_indices":[69,0,17,30,0,66,11,0,20,0,0,30,0,0,0],"split_type":[0,0,0,0,0,0,0,0,0,0,0,0,0,0,0],"sum_hessian":[3.1371113E4,1.5625343E4,1.574577E4,1.5698735E4,4.7033817E1,1.5680603E4,1.8132872E1,3.6349506E0,1.5676968E4,1.672127E1,1.4116019E0,1.567581E4,1.1580704E0,1.5674663E4,1.1466718E0],"tree_param":{"num_deleted":"0","num_feature":"78","num_nodes":"15","size_leaf_vector":"1"}},{"base_weights":[3.0327494E-5,-1.0458064E-1,1.0361887E0,1.0445938E0,-1.031955E-1,1.0457467E-1,-9.320438E-2],"categories":[],"categories_nodes":[],"categories_segments":[],"categories_sizes":[],"default_left":[0,0,0,0,0,0,0],"id":24,"left_children":[1,-1,3,5,-1,-1,-1],"loss_changes":[3.0935578E4,0E0,2.5035059E2,3.3521484E1,0E0,0E0,0E0],"parents":[2147483647,0,0,2,2,3,3],"right_children":[2,-1,4,6,-1,-1,-1],"split_conditions":[3.2E1,-1.0458064E-1,2.3E1,5.82722E5,-1.031955E-1,1.0457467E-1,-9.320438E-2],"split_indices":[69,0,0,2,0,0,0],"split_type":[0,0,0,0,0,0,0],"sum_hessian":[2.8545506E4,1.42064E4,1.4339105E4,1.428156E4,5.7546402E1,1.4273705E4,7.8538766E0],"tree_param":{"num_deleted":"0","num_feature":"78","num_nodes":"7","size_leaf_vector":"1"}},{"base_weights":[-1.4134746E-3,1.0027481E0,-1.0412599E-1,-1.0345955E-1,1.0410494E0,1.041164E-1,-1.7117312E-2],"categories":[],"categories_nodes":[],"categories_segments":[],"categories_sizes":[],"default_left":[0,0,0,0,0,0,0],"id":25,"left_children":[1,3,-1,-1,5,-1,-1],"loss_changes":[2.705511E4,1.029665E3,0E0,0E0,1.9755859E0,0E0,0E0],"parents":[2147483647,0,0,1,1,4,4],"right_children":[2,4,-1,-1,6,-1,-1],"split_conditions":[2.3E1,8E0,-1.0412599E-1,-1.0345955E-1,1.7574643E4,1.041164E-1,-1.7117312E-2],"split_indices":[0,36,0,0,17,0,0],"split_type":[0,0,0,0,0,0,0],"sum_hessian":[2.5908545E4,1.3180449E4,1.2728095E4,2.4273523E2,1.2937714E4,1.2936632E4,1.0818431E0],"tree_param":{"num_deleted":"0","num_feature":"78","num_nodes":"7","size_leaf_vector":"1"}},{"base_weights":[-4.0540408E-4,-1.03715E-1,1.0274261E0,1.0359937E0,-1.01987086E-1,1.0370739E-1,-8.9539126E-2],"categories":[],"categories_nodes":[],"categories_segments":[],"categories_sizes":[],"default_left":[0,0,0,0,0,0,0],"id":26,"left_children":[1,-1,3,5,-1,-1,-1],"loss_changes":[2.5081533E4,0E0,2.0837695E2,2.5486328E1,0E0,0E0,0E0],"parents":[2147483647,0,0,2,2,3,3],"right_children":[2,-1,4,6,-1,-1,-1],"split_conditions":[3.2E1,-1.03715E-1,2.3E1,5.82722E5,-1.01987086E-1,1.0370739E-1,-8.9539126E-2],"split_indices":[69,0,0,2,0,0,0],"split_type":[0,0,0,0,0,0,0],"sum_hessian":[2.3535504E4,1.1716943E4,1.181856E4,1.1769799E4,4.8760754E1,1.1763683E4,6.116335E0],"tree_param":{"num_deleted":"0","num_feature":"78","num_nodes":"7","size_leaf_vector":"1"}},{"base_weights":[-4.7632703E-4,-1.0334726E-1,1.0236146E0,1.032283E0,-1.0145674E-1,1.0333884E-1,-8.834551E-2],"categories":[],"categories_nodes":[],"categories_segments":[],"categories_sizes":[],"default_left":[0,0,0,0,0,0,0],"id":27,"left_children":[1,-1,3,5,-1,-1,-1],"loss_changes":[2.2625148E4,0E0,1.907959E2,2.3563477E1,0E0,0E0,0E0],"parents":[2147483647,0,0,2,2,3,3],"right_children":[2,-1,4,6,-1,-1,-1],"split_conditions":[3.2E1,-1.0334726E-1,2.3E1,5.82722E5,-1.0145674E-1,1.0333884E-1,-8.834551E-2],"split_indices":[69,0,0,2,0,0,0],"split_type":[0,0,0,0,0,0,0],"sum_hessian":[2.138521E4,1.06463125E4,1.0738899E4,1.0693912E4,4.4987263E1,1.0688205E4,5.707238E0],"tree_param":{"num_deleted":"0","num_feature":"78","num_nodes":"7","size_leaf_vector":"1"}},{"base_weights":[-1.9194238E-5,-1.030167E-1,1.0205972E0,-9.9719666E-2,1.0267166E0,1.0295024E0,-9.588447E-2,1.02955535E-1,2.8120507E-2],"categories":[],"categories_nodes":[],"categories_segments":[],"categories_sizes":[],"default_left":[0,0,0,0,0,0,0,0,0],"id":28,"left_children":[1,-1,3,-1,5,7,-1,-1,-1],"loss_changes":[2.0372992E4,0E0,1.21211914E2,0E0,5.466992E1,9.375E-2,0E0,0E0,0E0],"parents":[2147483647,0,0,2,2,4,4,5,5],"right_children":[2,-1,4,-1,6,8,-1,-1,-1],"split_conditions":[3.2E1,-1.030167E-1,2.9546461E1,-9.9719666E-2,2.41E2,2.4859428E4,-9.588447E-2,1.02955535E-1,2.8120507E-2],"split_indices":[69,0,37,0,67,27,0,0,0],"split_type":[0,0,0,0,0,0,0,0,0],"sum_hessian":[1.9375277E4,9.642608E3,9.732669E3,2.893747E1,9.703731E3,9.690616E3,1.3115064E1,9.689555E3,1.0614552E0],"tree_param":{"num_deleted":"0","num_feature":"78","num_nodes":"9","size_leaf_vector":"1"}},{"base_weights":[8.4651045E-5,-1.0271931E-1,1.0173877E0,1.0259427E0,-1.0044732E-1,1.0270896E-1,-8.5704334E-2],"categories":[],"categories_nodes":[],"categories_segments":[],"categories_sizes":[],"default_left":[0,0,0,0,0,0,0],"id":29,"left_children":[1,-1,3,5,-1,-1,-1],"loss_changes":[1.840071E4,0E0,1.5405176E2,1.9904297E1,0E0,0E0,0E0],"parents":[2147483647,0,0,2,2,3,3],"right_children":[2,-1,4,6,-1,-1,-1],"split_conditions":[3.2E1,-1.0271931E-1,2.3E1,5.82722E5,-1.0044732E-1,1.0270896E-1,-8.5704334E-2],"split_indices":[69,0,0,2,0,0,0],"split_type":[0,0,0,0,0,0,0],"sum_hessian":[1.7605445E4,8.759772E3,8.845673E3,8.808893E3,3.6780087E1,8.803985E3,4.907362E0],"tree_param":{"num_deleted":"0","num_feature":"78","num_nodes":"7","size_leaf_vector":"1"}},{"base_weights":[-6.236859E-4,-1.02451526E-1,1.0146499E0,1.0232743E0,-9.990286E-2,1.0243976E-1,-8.372223E-2],"categories":[],"categories_nodes":[],"categories_segments":[],"categories_sizes":[],"default_left":[0,0,0,0,0,0,0],"id":30,"left_children":[1,-1,3,5,-1,-1,-1],"loss_changes":[1.6584225E4,0E0,1.4013867E2,1.752832E1,0E0,0E0,0E0],"parents":[2147483647,0,0,2,2,3,3],"right_children":[2,-1,4,6,-1,-1,-1],"split_conditions":[3.2E1,-1.02451526E-1,2.3E1,5.82722E5,-9.990286E-2,1.0243976E-1,-8.372223E-2],"split_indices":[69,0,0,2,0,0,0],"split_type":[0,0,0,0,0,0,0],"sum_hessian":[1.5951576E4,7.9420757E3,8.0095005E3,7.9758325E3,3.3667778E1,7.971469E3,4.3634644E0],"tree_param":{"num_deleted":"0","num_feature":"78","num_nodes":"7","size_leaf_vector":"1"}},{"base_weights":[3.0982232E-4,-1.0221026E-1,1.012317E0,1.0207965E0,-9.9317186E-2,1.0219725E-1,-8.276635E-2],"categories":[],"categories_nodes":[],"categories_segments":[],"categories_sizes":[],"default_left":[0,0,0,0,0,0,0],"id":31,"left_children":[1,-1,3,5,-1,-1,-1],"loss_changes":[1.4973603E4,0E0,1.2469336E2,1.6589844E1,0E0,0E0,0E0],"parents":[2147483647,0,0,2,2,3,3],"right_children":[2,-1,4,6,-1,-1,-1],"split_conditions":[3.2E1,-1.0221026E-1,2.3E1,5.82722E5,-9.9317186E-2,1.0219725E-1,-8.276635E-2],"split_indices":[69,0,0,2,0,0,0],"split_type":[0,0,0,0,0,0,0],"sum_hessian":[1.4469604E4,7.1977935E3,7.27181E3,7.2416816E3,3.0128365E1,7.2375244E3,4.1572914E0],"tree_param":{"num_deleted":"0","num_feature":"78","num_nodes":"7","size_leaf_vector":"1"}},{"base_weights":[-7.9915347E-4,-1.0199269E-1,1.0100509E0,1.0185888E0,-9.874669E-2,1.0197818E-1,-8.122279E-2],"categories":[],"categories_nodes":[],"categories_segments":[],"categories_sizes":[],"default_left":[0,0,0,0,0,0,0],"id":32,"left_children":[1,-1,3,5,-1,-1,-1],"loss_changes":[1.3502005E4,0E0,1.1322412E2,1.5140137E1,0E0,0E0,0E0],"parents":[2147483647,0,0,2,2,3,3],"right_children":[2,-1,4,6,-1,-1,-1],"split_conditions":[3.2E1,-1.0199269E-1,2.3E1,5.82722E5,-9.874669E-2,1.0197818E-1,-8.122279E-2],"split_indices":[69,0,0,2,0,0,0],"split_type":[0,0,0,0,0,0,0],"sum_hessian":[1.3104386E4,6.52547E3,6.5789155E3,6.5514033E3,2.7512499E1,6.5475796E3,3.8235195E0],"tree_param":{"num_deleted":"0","num_feature":"78","num_nodes":"7","size_leaf_vector":"1"}},{"base_weights":[-6.894884E-4,-1.0179639E-1,1.0078484E0,1.016552E0,-9.828175E-2,-8.0261074E-2,1.01780295E-1],"categories":[],"categories_nodes":[],"categories_segments":[],"categories_sizes":[],"default_left":[0,0,0,0,0,0,0],"id":33,"left_children":[1,-1,3,5,-1,-1,-1],"loss_changes":[1.2203453E4,0E0,1.0448682E2,1.43515625E1,0E0,0E0,0E0],"parents":[2147483647,0,0,2,2,3,3],"right_children":[2,-1,4,6,-1,-1,-1],"split_conditions":[3.2E1,-1.0179639E-1,2.3E1,1.2220616E1,-9.828175E-2,-8.0261074E-2,1.01780295E-1],"split_indices":[69,0,0,16,0,0,0],"split_type":[0,0,0,0,0,0,0],"sum_hessian":[1.189267E4,5.920686E3,5.971984E3,5.946474E3,2.5509743E1,3.6462858E0,5.942828E3],"tree_param":{"num_deleted":"0","num_feature":"78","num_nodes":"7","size_leaf_vector":"1"}},{"base_weights":[-9.282961E-4,-1.0161914E-1,1.0061754E0,1.0148165E0,-9.770133E-2,1.016013E-1,-7.7590995E-2],"categories":[],"categories_nodes":[],"categories_segments":[],"categories_sizes":[],"default_left":[0,0,0,0,0,0,0],"id":34,"left_children":[1,-1,3,5,-1,-1,-1],"loss_changes":[1.1027154E4,0E0,9.377295E1,1.2340332E1,0E0,0E0,0E0],"parents":[2147483647,0,0,2,2,3,3],"right_children":[2,-1,4,6,-1,-1,-1],"split_conditions":[3.2E1,-1.0161914E-1,2.3E1,5.82722E5,-9.770133E-2,1.016013E-1,-7.7590995E-2],"split_indices":[69,0,0,2,0,0,0],"split_type":[0,0,0,0,0,0,0],"sum_hessian":[1.0782765E4,5.369626E3,5.4131387E3,5.390141E3,2.2997494E1,5.386974E3,3.1670258E0],"tree_param":{"num_deleted":"0","num_feature":"78","num_nodes":"7","size_leaf_vector":"1"}},{"base_weights":[-8.4002904E-4,-1.014589E-1,1.0045434E0,1.01336E0,-9.720164E-2,-7.6225094E-2,1.01459585E-1],"categories":[],"categories_nodes":[],"categories_segments":[],"categories_sizes":[],"default_left":[0,0,0,0,0,0,0],"id":35,"left_children":[1,-1,3,5,-1,-1,-1],"loss_changes":[9.946764E3,0E0,8.637256E1,1.1478516E1,0E0,0E0,0E0],"parents":[2147483647,0,0,2,2,3,3],"right_children":[2,-1,4,6,-1,-1,-1],"split_conditions":[3.2E1,-1.014589E-1,2.3E1,1.2220616E1,-9.720164E-2,-7.6225094E-2,1.01459585E-1],"split_indices":[69,0,0,16,0,0,0],"split_type":[0,0,0,0,0,0,0],"sum_hessian":[9.757323E3,4.8584443E3,4.898879E3,4.8776094E3,2.1269634E1,2.9643059E0,4.874645E3],"tree_param":{"num_deleted":"0","num_feature":"78","num_nodes":"7","size_leaf_vector":"1"}},{"base_weights":[-5.4751075E-4,9.757064E-1,-1.0131482E-1,-9.965414E-2,1.0127621E0,2.330039E-2,1.012908E-1],"categories":[],"categories_nodes":[],"categories_segments":[],"categories_sizes":[],"default_left":[0,0,0,0,0,0,0],"id":36,"left_children":[1,3,-1,-1,5,-1,-1],"loss_changes":[8.7582295E3,3.3066943E2,0E0,0E0,2.680664E-1,0E0,0E0],"parents":[2147483647,0,0,1,1,4,4],"right_children":[2,4,-1,-1,6,-1,-1],"split_conditions":[2.3E1,8E0,-1.0131482E-1,-9.965414E-2,4.458315E1,2.330039E-2,1.012908E-1],"split_indices":[0,36,0,0,38,0,0],"split_type":[0,0,0,0,0,0,0],"sum_hessian":[8.857627E3,4.5097695E3,4.3478574E3,8.269191E1,4.427077E3,1.1273402E0,4.42595E3],"tree_param":{"num_deleted":"0","num_feature":"78","num_nodes":"7","size_leaf_vector":"1"}},{"base_weights":[4.3761698E-4,-1.0118287E-1,1.0016458E0,1.0103542E0,-9.590169E-2,1.01158716E-1,-7.211507E-2],"categories":[],"categories_nodes":[],"categories_segments":[],"categories_sizes":[],"default_left":[0,0,0,0,0,0,0],"id":37,"left_children":[1,-1,3,5,-1,-1,-1],"loss_changes":[8.132517E3,0E0,6.984912E1,9.305176E0,0E0,0E0,0E0],"parents":[2147483647,0,0,2,2,3,3],"right_children":[2,-1,4,6,-1,-1,-1],"split_conditions":[3.2E1,-1.0118287E-1,2.3E1,1.962E4,-9.590169E-2,1.01158716E-1,-7.211507E-2],"split_indices":[69,0,0,17,0,0,0],"split_type":[0,0,0,0,0,0,0],"sum_hessian":[8.0222754E3,3.9891028E3,4.0331724E3,4.0158206E3,1.735188E1,4.0133784E3,2.4420564E0],"tree_param":{"num_deleted":"0","num_feature":"78","num_nodes":"7","size_leaf_vector":"1"}},{"base_weights":[2.6489957E-4,-1.0106402E-1,1.0003263E0,1.0090752E0,-9.527562E-2,1.0103724E-1,-7.104685E-2],"categories":[],"categories_nodes":[],"categories_segments":[],"categories_sizes":[],"default_left":[0,0,0,0,0,0,0],"id":38,"left_children":[1,-1,3,5,-1,-1,-1],"loss_changes":[7.3518247E3,0E0,6.3426514E1,8.837158E0,0E0,0E0,0E0],"parents":[2147483647,0,0,2,2,3,3],"right_children":[2,-1,4,6,-1,-1,-1],"split_conditions":[3.2E1,-1.0106402E-1,2.3E1,5.82722E5,-9.527562E-2,1.0103724E-1,-7.104685E-2],"split_indices":[69,0,0,2,0,0,0],"split_type":[0,0,0,0,0,0,0],"sum_hessian":[7.2700713E3,3.6154294E3,3.6546418E3,3.638825E3,1.5816922E1,3.636494E3,2.3309734E0],"tree_param":{"num_deleted":"0","num_feature":"78","num_nodes":"7","size_leaf_vector":"1"}},{"base_weights":[-1.7500926E-4,9.716519E-1,-1.009566E-1,-9.882607E-2,1.0090698E0,2.2808751E-2,1.0092489E-1],"categories":[],"categories_nodes":[],"categories_segments":[],"categories_sizes":[],"default_left":[0,0,0,0,0,0,0],"id":39,"left_children":[1,3,-1,-1,5,-1,-1],"loss_changes":[6.4603545E3,2.4706299E2,0E0,0E0,2.2998047E-1,0E0,0E0],"parents":[2147483647,0,0,1,1,4,4],"right_children":[2,4,-1,-1,6,-1,-1],"split_conditions":[2.3E1,8E0,-1.009566E-1,-9.882607E-2,4.458315E1,2.2808751E-2,1.0092489E-1],"split_indices":[0,36,0,0,38,0,0],"split_type":[0,0,0,0,0,0,0],"sum_hessian":[6.5837925E3,3.3543298E3,3.2294626E3,6.236382E1,3.291966E3,1.0465628E0,3.2909194E3],"tree_param":{"num_deleted":"0","num_feature":"78","num_nodes":"7","size_leaf_vector":"1"}},{"base_weights":[-1.2414189E-3,-1.00858286E-1,9.981229E-1,1.0068501E0,-9.383665E-2,1.0082531E-1,-6.8287164E-2],"categories":[],"categories_nodes":[],"categories_segments":[],"categories_sizes":[],"default_left":[0,0,0,0,0,0,0],"id":40,"left_children":[1,-1,3,5,-1,-1,-1],"loss_changes":[6.003081E3,0E0,5.153418E1,7.7539062E0,0E0,0E0,0E0],"parents":[2147483647,0,0,2,2,3,3],"right_children":[2,-1,4,6,-1,-1,-1],"split_conditions":[3.2E1,-1.00858286E-1,2.3E1,5.82722E5,-9.383665E-2,1.0082531E-1,-6.8287164E-2],"split_indices":[69,0,0,2,0,0,0],"split_type":[0,0,0,0,0,0,0],"sum_hessian":[5.961122E3,2.968708E3,2.992414E3,2.9794666E3,1.2947632E1,2.9773977E3,2.0687926E0],"tree_param":{"num_deleted":"0","num_feature":"78","num_nodes":"7","size_leaf_vector":"1"}},{"base_weights":[-6.818751E-4,9.701713E-1,-1.00769304E-1,-9.818237E-2,1.0075215E-1],"categories":[],"categories_nodes":[],"categories_segments":[],"categories_sizes":[],"default_left":[0,0,0,0,0],"id":41,"left_children":[1,3,-1,-1,-1],"loss_changes":[5.2807925E3,2.0149194E2,0E0,0E0,0E0],"parents":[2147483647,0,0,1,1],"right_children":[2,4,-1,-1,-1],"split_conditions":[2.3E1,8E0,-1.00769304E-1,-9.818237E-2,1.0075215E-1],"split_indices":[0,36,0,0,0],"split_type":[0,0,0,0,0],"sum_hessian":[5.3994614E3,2.749104E3,2.6503572E3,5.114E1,2.697964E3],"tree_param":{"num_deleted":"0","num_feature":"78","num_nodes":"5","size_leaf_vector":"1"}},{"base_weights":[-5.4562057E-4,-1.00688E-1,9.961294E-1,1.0029283E0,-9.001711E-2,1.0057918E-1,-7.8322634E-2],"categories":[],"categories_nodes":[],"categories_segments":[],"categories_sizes":[],"default_left":[0,0,0,0,0,0,0],"id":42,"left_children":[1,-1,3,5,-1,-1,-1],"loss_changes":[4.9069653E3,0E0,3.2592773E1,1.3317139E1,0E0,0E0,0E0],"parents":[2147483647,0,0,2,2,3,3],"right_children":[2,-1,4,6,-1,-1,-1],"split_conditions":[3.2E1,-1.00688E-1,1.962E4,2.41E2,-9.001711E-2,1.0057918E-1,-7.8322634E-2],"split_indices":[69,0,17,67,0,0,0],"split_type":[0,0,0,0,0,0,0],"sum_hessian":[4.890345E3,2.4333757E3,2.4569695E3,2.4486611E3,8.30817E0,2.445178E3,3.4831882E0],"tree_param":{"num_deleted":"0","num_feature":"78","num_nodes":"7","size_leaf_vector":"1"}},{"base_weights":[-7.272506E-4,-5.8893067E-1,9.7481656E-1,-1.00434795E-1,8.096596E-1,-9.424045E-2,9.9242246E-1,9.989241E-1,-9.9011056E-2,9.945774E-1,-6.446695E-2,1.00452125E-1,-6.1941892E-2,1.0049957E-1,8.694838E-1,4.2618382E-1,9.967556E-2,-9.029795E-2,9.624092E-2],"categories":[],"categories_nodes":[],"categories_segments":[],"categories_sizes":[],"default_left":[0,0,0,0,0,0,0,0,0,0,0,0,0,0,0,0,0,0,0],"id":43,"left_children":[1,3,5,-1,7,-1,9,11,-1,13,-1,-1,-1,-1,15,17,-1,-1,-1],"loss_changes":[2.5429849E3,1.607106E3,5.720337E1,0E0,2.1684332E2,0E0,6.470215E0,5.8206177E0,0E0,1.2772217E0,0E0,0E0,0E0,0E0,7.1529465E0,2.3467089E1,0E0,0E0,0E0],"parents":[2147483647,0,0,1,1,2,2,4,4,6,6,7,7,9,9,14,14,15,15],"right_children":[2,4,6,-1,8,-1,10,12,-1,14,-1,-1,-1,-1,16,18,-1,-1,-1],"split_conditions":[5E4,2.6883E4,2.41E2,-1.00434795E-1,2.92E4,-9.424045E-2,2.92E4,6.61E2,-9.9011056E-2,9E0,-6.446695E-2,1.00452125E-1,-6.1941892E-2,1.0049957E-1,2.6883E4,2.8E1,9.967556E-2,-9.029795E-2,9.624092E-2],"split_indices":[38,66,66,0,66,0,66,7,0,19,0,0,0,0,66,36,0,0,0],"split_type":[0,0,0,0,0,0,0,0,0,0,0,0,0,0,0,0,0,0,0],"sum_hessian":[4.429691E3,2.7637102E3,1.6659807E3,2.1310232E3,6.326868E2,1.4681603E1,1.6512991E3,5.7288684E2,5.98E1,1.6495203E3,1.7787912E0,5.712903E2,1.5965593E0,1.5162096E3,1.3331064E2,3.070628E1,1.02604355E2,8.630229E0,2.207605E1],"tree_param":{"num_deleted":"0","num_feature":"78","num_nodes":"19","size_leaf_vector":"1"}},{"base_weights":[3.797228E-4,-1.0054624E-1,9.9439955E-1,1.0035254E0,-9.088356E-2,1.0049732E-1,-5.9640575E-2],"categories":[],"categories_nodes":[],"categories_segments":[],"categories_sizes":[],"default_left":[0,0,0,0,0,0,0],"id":44,"left_children":[1,-1,3,5,-1,-1,-1],"loss_changes":[4.0134946E3,0E0,3.597827E1,5.255127E0,0E0,0E0,0E0],"parents":[2147483647,0,0,2,2,3,3],"right_children":[2,-1,4,6,-1,-1,-1],"split_conditions":[3.2E1,-1.0054624E-1,2.3E1,5.82722E5,-9.088356E-2,1.0049732E-1,-5.9640575E-2],"split_indices":[69,0,0,2,0,0,0],"split_type":[0,0,0,0,0,0,0],"sum_hessian":[4.0121887E3,1.9942294E3,2.0179592E3,2.0088E3,9.159225E0,2.0073553E3,1.4447066E0],"tree_param":{"num_deleted":"0","num_feature":"78","num_nodes":"7","size_leaf_vector":"1"}},{"base_weights":[-1.1211048E-3,-1.00484006E-1,9.936476E-1,1.0027384E0,-8.981658E-2,1.0042975E-1,-5.8975358E-2],"categories":[],"categories_nodes":[],"categories_segments":[],"categories_sizes":[],"default_left":[0,0,0,0,0,0,0],"id":45,"left_children":[1,-1,3,5,-1,-1,-1],"loss_changes":[3.6282893E3,0E0,3.2288452E1,5.1031494E0,0E0,0E0,0E0],"parents":[2147483647,0,0,2,2,3,3],"right_children":[2,-1,4,6,-1,-1,-1],"split_conditions":[3.2E1,-1.00484006E-1,2.3E1,5.82722E5,-8.981658E-2,1.0042975E-1,-5.8975358E-2],"split_indices":[69,0,0,2,0,0,0],"split_type":[0,0,0,0,0,0,0],"sum_hessian":[3.6318557E3,1.80779E3,1.8240656E3,1.8158098E3,8.255662E0,1.8144028E3,1.4070265E0],"tree_param":{"num_deleted":"0","num_feature":"78","num_nodes":"7","size_leaf_vector":"1"}},{"base_weights":[-1.4410965E-3,-1.00426674E-1,9.931598E-1,1.0026702E0,-8.925156E-2,1.0042743E-1,-5.7196677E-2],"categories":[],"categories_nodes":[],"categories_segments":[],"categories_sizes":[],"default_left":[0,0,0,0,0,0,0],"id":46,"left_children":[1,-1,3,5,-1,-1,-1],"loss_changes":[3.282268E3,0E0,3.0523926E1,4.7279053E0,0E0,0E0,0E0],"parents":[2147483647,0,0,2,2,3,3],"right_children":[2,-1,4,6,-1,-1,-1],"split_conditions":[3.2E1,-1.00426674E-1,2.3E1,5.82722E5,-8.925156E-2,1.0042743E-1,-5.7196677E-2],"split_indices":[69,0,0,2,0,0,0],"split_type":[0,0,0,0,0,0,0],"sum_hessian":[3.2887869E3,1.6376176E3,1.6511694E3,1.6433495E3,7.819926E0,1.642039E3,1.310587E0],"tree_param":{"num_deleted":"0","num_feature":"78","num_nodes":"7","size_leaf_vector":"1"}},{"base_weights":[-4.60238E-4,-1.0037353E-1,9.9197024E-1,9.9911433E-1,-8.468095E-2,-9.938183E-2,1.0013987E0,1.0028112E-1,-5.1446047E-2],"categories":[],"categories_nodes":[],"categories_segments":[],"categories_sizes":[],"default_left":[0,0,0,0,0,0,0,0,0],"id":47,"left_children":[1,-1,3,5,-1,-1,7,-1,-1],"loss_changes":[2.9641653E3,0E0,2.0506104E1,7.7841797E0,0E0,0E0,3.7062988E0,0E0,0E0],"parents":[2147483647,0,0,2,2,3,3,6,6],"right_children":[2,-1,4,6,-1,-1,8,-1,-1],"split_conditions":[3.2E1,-1.0037353E-1,1.962E4,2.41E2,-8.468095E-2,-9.938183E-2,2.044E3,1.0028112E-1,-5.1446047E-2],"split_indices":[69,0,17,66,0,0,5,0,0],"split_type":[0,0,0,0,0,0,0,0,0],"sum_hessian":[2.9750237E3,1.4794231E3,1.4956006E3,1.4902672E3,5.3334303E0,1.2092416E0,1.489058E3,1.4880099E3,1.0481066E0],"tree_param":{"num_deleted":"0","num_feature":"78","num_nodes":"9","size_leaf_vector":"1"}},{"base_weights":[-1.961606E-4,9.6459305E-1,-1.00324094E-1,-1.0030142E-1,1.0013828E0,-5.576387E-2,1.00323156E-1],"categories":[],"categories_nodes":[],"categories_segments":[],"categories_sizes":[],"default_left":[0,0,0,0,0,0,0],"id":48,"left_children":[1,3,-1,-1,5,-1,-1],"loss_changes":[2.6085723E3,1.0046399E2,0E0,0E0,4.448242E0,0E0,0E0],"parents":[2147483647,0,0,1,1,4,4],"right_children":[2,4,-1,-1,6,-1,-1],"split_conditions":[2.3E1,1.53E2,-1.00324094E-1,-1.0030142E-1,1.4944612E1,-5.576387E-2,1.00323156E-1],"split_indices":[0,66,0,0,16,0,0],"split_type":[0,0,0,0,0,0,0],"sum_hessian":[2.6935667E3,1.3729849E3,1.3205817E3,2.4718405E1,1.3482665E3,1.2408202E0,1.3470256E3],"tree_param":{"num_deleted":"0","num_feature":"78","num_nodes":"7","size_leaf_vector":"1"}},{"base_weights":[-3.0317303E-4,-1.0027845E-1,9.912059E-1,1.0011182E0,-8.632757E-2,1.0027921E-1,-5.078044E-2],"categories":[],"categories_nodes":[],"categories_segments":[],"categories_sizes":[],"default_left":[0,0,0,0,0,0,0],"id":49,"left_children":[1,-1,3,5,-1,-1,-1],"loss_changes":[2.4271843E3,0E0,2.3431763E1,3.5947266E0,0E0,0E0,0E0],"parents":[2147483647,0,0,2,2,3,3],"right_children":[2,-1,4,6,-1,-1,-1],"split_conditions":[3.2E1,-1.0027845E-1,2.3E1,5.82722E5,-8.632757E-2,1.0027921E-1,-5.078044E-2],"split_indices":[69,0,0,2,0,0,0],"split_type":[0,0,0,0,0,0,0],"sum_hessian":[2.4399106E3,1.2132366E3,1.2266741E3,1.22061E3,6.06411E0,1.2195924E3,1.0175333E0],"tree_param":{"num_deleted":"0","num_feature":"78","num_nodes":"7","size_leaf_vector":"1"}},{"base_weights":[-3.6255448E-4,-1.002353E-1,9.897808E-1,9.996957E-1,-8.50413E-2,1.0014571E-1,-4.690255E-2],"categories":[],"categories_nodes":[],"categories_segments":[],"categories_sizes":[],"default_left":[0,0,0,0,0,0,0],"id":50,"left_children":[1,-1,3,5,-1,-1,-1],"loss_changes":[2.1921375E3,0E0,2.112732E1,3.3303223E0,0E0,0E0,0E0],"parents":[2147483647,0,0,2,2,3,3],"right_children":[2,-1,4,6,-1,-1,-1],"split_conditions":[3.2E1,-1.002353E-1,2.3E1,5.44047E5,-8.50413E-2,1.0014571E-1,-4.690255E-2],"split_indices":[69,0,0,21,0,0,0],"split_type":[0,0,0,0,0,0,0],"sum_hessian":[2.2075615E3,1.0972104E3,1.110351E3,1.1048547E3,5.4961953E0,1.1038491E3,1.0056156E0],"tree_param":{"num_deleted":"0","num_feature":"78","num_nodes":"7","size_leaf_vector":"1"}},{"base_weights":[-1.2563297E-3,9.6325463E-1,-1.0019406E-1,-1.00177996E-1,9.99737E-1,-5.278526E-2,1.0019547E-1],"categories":[],"categories_nodes":[],"categories_segments":[],"categories_sizes":[],"default_left":[0,0,0,0,0,0,0],"id":51,"left_children":[1,3,-1,-1,5,-1,-1],"loss_changes":[1.9287292E3,7.394934E1,0E0,0E0,3.914795E0,0E0,0E0],"parents":[2147483647,0,0,1,1,4,4],"right_children":[2,4,-1,-1,6,-1,-1],"split_conditions":[2.3E1,1.53E2,-1.0019406E-1,-1.00177996E-1,1.4944612E1,-5.278526E-2,1.0019547E-1],"split_indices":[0,66,0,0,16,0,0],"split_type":[0,0,0,0,0,0,0],"sum_hessian":[1.9963292E3,1.0165568E3,9.7977234E2,1.8046883E1,9.9850995E2,1.1038188E0,9.974061E2],"tree_param":{"num_deleted":"0","num_feature":"78","num_nodes":"7","size_leaf_vector":"1"}},{"base_weights":[-9.3065E-4,-1.0015615E-1,9.884036E-1,9.961294E-1,-7.8190856E-2,9.994127E-2,-6.003159E-2],"categories":[],"categories_nodes":[],"categories_segments":[],"categories_sizes":[],"default_left":[0,0,0,0,0,0,0],"id":52,"left_children":[1,-1,3,5,-1,-1,-1],"loss_changes":[1.7955345E3,0E0,1.3252686E1,5.3618164E0,0E0,0E0,0E0],"parents":[2147483647,0,0,2,2,3,3],"right_children":[2,-1,4,6,-1,-1,-1],"split_conditions":[3.2E1,-1.0015615E-1,1.962E4,2.41E2,-7.8190856E-2,9.994127E-2,-6.003159E-2],"split_indices":[69,0,17,67,0,0,0],"split_type":[0,0,0,0,0,0,0],"sum_hessian":[1.8117476E3,9.0072516E2,9.1102234E2,9.0749927E2,3.5230803E0,9.0600995E2,1.4893099E0],"tree_param":{"num_deleted":"0","num_feature":"78","num_nodes":"7","size_leaf_vector":"1"}},{"base_weights":[-1.9619388E-3,-1.0011908E-1,9.888163E-1,9.991848E-1,-8.133339E-2,-3.0138493E-2,1.0011955E-1],"categories":[],"categories_nodes":[],"categories_segments":[],"categories_sizes":[],"default_left":[0,0,0,0,0,0,0],"id":53,"left_children":[1,-1,3,5,-1,-1,-1],"loss_changes":[1.6235471E3,0E0,1.6199158E1,2.4440308E0,0E0,0E0,0E0],"parents":[2147483647,0,0,2,2,3,3],"right_children":[2,-1,4,6,-1,-1,-1],"split_conditions":[3.2E1,-1.0011908E-1,2.3E1,4.458315E1,-8.133339E-2,-3.0138493E-2,1.0011955E-1],"split_indices":[69,0,0,38,0,0,0],"split_type":[0,0,0,0,0,0,0],"sum_hessian":[1.637923E3,8.154785E2,8.224445E2,8.1818274E2,4.2617617E0,1.0331407E0,8.171496E2],"tree_param":{"num_deleted":"0","num_feature":"78","num_nodes":"7","size_leaf_vector":"1"}},{"base_weights":[-3.765639E-4,-1.00082934E-1,9.8665136E-1,9.9727035E-1,-8.018376E-2,-2.907841E-2,9.994938E-2],"categories":[],"categories_nodes":[],"categories_segments":[],"categories_sizes":[],"default_left":[0,0,0,0,0,0,0],"id":54,"left_children":[1,-1,3,5,-1,-1,-1],"loss_changes":[1.4664346E3,0E0,1.4996643E1,2.420166E0,0E0,0E0,0E0],"parents":[2147483647,0,0,2,2,3,3],"right_children":[2,-1,4,6,-1,-1,-1],"split_conditions":[3.2E1,-1.00082934E-1,2.3E1,4.458315E1,-8.018376E-2,-2.907841E-2,9.994938E-2],"split_indices":[69,0,0,38,0,0,0],"split_type":[0,0,0,0,0,0,0],"sum_hessian":[1.4830349E3,7.365018E2,7.465331E2,7.425666E2,3.966507E0,1.0560088E0,7.415106E2],"tree_param":{"num_deleted":"0","num_feature":"78","num_nodes":"7","size_leaf_vector":"1"}},{"base_weights":[8.4870047E-4,-1.0004788E-1,9.8704916E-1,9.9805975E-1,-7.913065E-2,-2.883006E-2,1.00049436E-1],"categories":[],"categories_nodes":[],"categories_segments":[],"categories_sizes":[],"default_left":[0,0,0,0,0,0,0],"id":55,"left_children":[1,-1,3,5,-1,-1,-1],"loss_changes":[1.328428E3,0E0,1.4060303E1,2.399292E0,0E0,0E0,0E0],"parents":[2147483647,0,0,2,2,3,3],"right_children":[2,-1,4,6,-1,-1,-1],"split_conditions":[3.2E1,-1.0004788E-1,2.3E1,4.841521E1,-7.913065E-2,-2.883006E-2,1.00049436E-1],"split_indices":[69,0,0,37,0,0,0],"split_type":[0,0,0,0,0,0,0],"sum_hessian":[1.3432305E3,6.664964E2,6.76734E2,6.730059E2,3.7280917E0,1.0495703E0,6.7195636E2],"tree_param":{"num_deleted":"0","num_feature":"78","num_nodes":"7","size_leaf_vector":"1"}},{"base_weights":[-5.8201916E-4,9.602528E-1,-1.0001214E-1,-9.154346E-2,9.982042E-2],"categories":[],"categories_nodes":[],"categories_segments":[],"categories_sizes":[],"default_left":[0,0,0,0,0],"id":56,"left_children":[1,3,-1,-1,-1],"loss_changes":[1.1691826E3,4.509955E1,0E0,0E0,0E0],"parents":[2147483647,0,0,1,1],"right_children":[2,4,-1,-1,-1],"split_conditions":[2.3E1,8E0,-1.0001214E-1,-9.154346E-2,9.982042E-2],"split_indices":[0,36,0,0,0],"split_type":[0,0,0,0,0],"sum_hessian":[1.2154011E3,6.197187E2,5.9568243E2,1.1831744E1,6.0788696E2],"tree_param":{"num_deleted":"0","num_feature":"78","num_nodes":"5","size_leaf_vector":"1"}},{"base_weights":[-1.3489291E-3,9.606717E-1,-9.99777E-2,-9.125424E-2,9.993862E-2],"categories":[],"categories_nodes":[],"categories_segments":[],"categories_sizes":[],"default_left":[0,0,0,0,0],"id":57,"left_children":[1,3,-1,-1,-1],"loss_changes":[1.0585547E3,4.1615784E1,0E0,0E0,0E0],"parents":[2147483647,0,0,1,1],"right_children":[2,4,-1,-1,-1],"split_conditions":[2.3E1,0E0,-9.99777E-2,-9.125424E-2,9.993862E-2],"split_indices":[0,67,0,0,0],"split_type":[0,0,0,0,0],"sum_hessian":[1.1000775E3,5.6027277E2,5.3980475E2,1.0887872E1,5.493849E2],"tree_param":{"num_deleted":"0","num_feature":"78","num_nodes":"5","size_leaf_vector":"1"}},{"base_weights":[-7.079999E-4,-9.994471E-2,9.855696E-1,9.9670315E-1,-7.385113E-2,9.994594E-2,-1.615525E-2],"categories":[],"categories_nodes":[],"categories_segments":[],"categories_sizes":[],"default_left":[0,0,0,0,0,0,0],"id":58,"left_children":[1,-1,3,5,-1,-1,-1],"loss_changes":[9.826843E2,0E0,1.037088E1,1.7549438E0,0E0,0E0,0E0],"parents":[2147483647,0,0,2,2,3,3],"right_children":[2,-1,4,6,-1,-1,-1],"split_conditions":[3.2E1,-9.994471E-2,2.3E1,2.26304E5,-7.385113E-2,9.994594E-2,-1.615525E-2],"split_indices":[69,0,0,19,0,0,0],"split_type":[0,0,0,0,0,0,0],"sum_hessian":[9.956146E2,4.9467554E2,5.009391E2,4.9814413E2,2.7949598E0,4.9709833E2,1.0458097E0],"tree_param":{"num_deleted":"0","num_feature":"78","num_nodes":"7","size_leaf_vector":"1"}},{"base_weights":[-2.5295557E-3,-9.990989E-2,9.825008E-1,-6.799398E-2,9.917486E-1,9.948243E-1,-1.8626057E-2,9.9788465E-2,5.725385E-1,3.6004295E-3,6.9716826E-2],"categories":[],"categories_nodes":[],"categories_segments":[],"categories_sizes":[],"default_left":[0,0,0,0,0,0,0,0,0,0,0],"id":59,"left_children":[1,-1,3,-1,5,7,-1,-1,9,-1,-1],"loss_changes":[8.871082E2,0E0,7.6614075E0,0E0,1.8243408E0,1.1962891E-2,0E0,0E0,3.4892678E-1,0E0,0E0],"parents":[2147483647,0,0,2,2,4,4,5,5,8,8],"right_children":[2,-1,4,-1,6,8,-1,-1,10,-1,-1],"split_conditions":[3.2E1,-9.990989E-2,2.9546461E1,-6.799398E-2,4E1,2.2E1,-1.8626057E-2,9.9788465E-2,2.5E1,3.6004295E-3,6.9716826E-2],"split_indices":[69,0,37,0,30,20,0,0,20,0,0],"split_type":[0,0,0,0,0,0,0,0,0,0,0],"sum_hessian":[9.016901E2,4.4821268E2,4.5347745E2,2.107446E0,4.5137003E2,4.503497E2,1.020315E0,4.457562E2,4.5935173E0,1.1088369E0,3.4846807E0],"tree_param":{"num_deleted":"0","num_feature":"78","num_nodes":"11","size_leaf_vector":"1"}},{"base_weights":[-1.6468967E-3,-9.987406E-2,9.814843E-1,9.931559E-1,-7.087952E-2,9.9631466E-2,-1.4415378E-2],"categories":[],"categories_nodes":[],"categories_segments":[],"categories_sizes":[],"default_left":[0,0,0,0,0,0,0],"id":60,"left_children":[1,-1,3,5,-1,-1,-1],"loss_changes":[8.032291E2,0E0,8.843536E0,1.617157E0,0E0,0E0,0E0],"parents":[2147483647,0,0,2,2,3,3],"right_children":[2,-1,4,6,-1,-1,-1],"split_conditions":[3.2E1,-9.987406E-2,2.3E1,2.26304E5,-7.087952E-2,9.9631466E-2,-1.4415378E-2],"split_indices":[69,0,0,19,0,0,0],"split_type":[0,0,0,0,0,0,0],"sum_hessian":[8.173926E2,4.058067E2,4.1158588E2,4.091729E2,2.4129548E0,4.0816324E2,1.0096679E0],"tree_param":{"num_deleted":"0","num_feature":"78","num_nodes":"7","size_leaf_vector":"1"}},{"base_weights":[-2.5245422E-3,9.555079E-1,-9.983409E-2,-9.997228E-2,9.9460423E-1,9.9826574E-2,-1.571417E-2],"categories":[],"categories_nodes":[],"categories_segments":[],"categories_sizes":[],"default_left":[0,0,0,0,0,0,0],"id":61,"left_children":[1,3,-1,-1,5,-1,-1],"loss_changes":[7.0688214E2,2.9862E1,0E0,0E0,1.7202759E0,0E0,0E0],"parents":[2147483647,0,0,1,1,4,4],"right_children":[2,4,-1,-1,6,-1,-1],"split_conditions":[2.3E1,1.53E2,-9.983409E-2,-9.997228E-2,2.26304E5,9.9826574E-2,-1.571417E-2],"split_indices":[0,66,0,0,19,0,0],"split_type":[0,0,0,0,0,0,0],"sum_hessian":[7.3894775E2,3.7663947E2,3.623083E2,6.901878E0,3.6973758E2,3.6869873E2,1.0388753E0],"tree_param":{"num_deleted":"0","num_feature":"78","num_nodes":"7","size_leaf_vector":"1"}},{"base_weights":[-2.7098004E-3,-9.979811E-2,9.788906E-1,9.913968E-1,-6.8097435E-2,9.950122E-2,-9.221284E-3],"categories":[],"categories_nodes":[],"categories_segments":[],"categories_sizes":[],"default_left":[0,0,0,0,0,0,0],"id":62,"left_children":[1,-1,3,5,-1,-1,-1],"loss_changes":[6.5582227E2,0E0,7.6908264E0,1.4075012E0,0E0,0E0,0E0],"parents":[2147483647,0,0,2,2,3,3],"right_children":[2,-1,4,6,-1,-1,-1],"split_conditions":[3.2E1,-9.979811E-2,2.3E1,4.37644E5,-6.8097435E-2,9.950122E-2,-9.221284E-3],"split_indices":[69,0,0,2,0,0,0],"split_type":[0,0,0,0,0,0,0],"sum_hessian":[6.692897E2,3.3232233E2,3.3696735E2,3.3484717E2,2.1201658E0,3.3381516E2,1.0320072E0],"tree_param":{"num_deleted":"0","num_feature":"78","num_nodes":"7","size_leaf_vector":"1"}},{"base_weights":[-1.1383145E-3,-9.97572E-2,9.7770804E-1,9.907367E-1,-6.6889584E-2,9.943112E-2,-4.312295E-3],"categories":[],"categories_nodes":[],"categories_segments":[],"categories_sizes":[],"default_left":[0,0,0,0,0,0,0],"id":63,"left_children":[1,-1,3,5,-1,-1,-1],"loss_changes":[5.935776E2,0E0,7.2487183E0,1.1699829E0,0E0,0E0,0E0],"parents":[2147483647,0,0,2,2,3,3],"right_children":[2,-1,4,6,-1,-1,-1],"split_conditions":[3.2E1,-9.97572E-2,2.3E1,1.0358E4,-6.6889584E-2,9.943112E-2,-4.312295E-3],"split_indices":[69,0,0,17,0,0,0],"split_type":[0,0,0,0,0,0,0],"sum_hessian":[6.065757E2,3.0057797E2,3.059977E2,3.0399072E2,2.0069966E0,3.0298145E2,1.0092723E0],"tree_param":{"num_deleted":"0","num_feature":"78","num_nodes":"7","size_leaf_vector":"1"}},{"base_weights":[-1.1780397E-3,9.567813E-1,-9.971141E-2,-8.333127E-2,9.965492E-2],"categories":[],"categories_nodes":[],"categories_segments":[],"categories_sizes":[],"default_left":[0,0,0,0,0],"id":64,"left_children":[1,3,-1,-1,-1],"loss_changes":[5.263629E2,2.084961E1,0E0,0E0,0E0],"parents":[2147483647,0,0,1,1],"right_children":[2,4,-1,-1,-1],"split_conditions":[2.3E1,8E0,-9.971141E-2,-8.333127E-2,9.965492E-2],"split_indices":[0,36,0,0,0],"split_type":[0,0,0,0,0],"sum_hessian":[5.4970483E2,2.802146E2,2.6949026E2,5.6561646E0,2.7455844E2],"tree_param":{"num_deleted":"0","num_feature":"78","num_nodes":"5","size_leaf_vector":"1"}},{"base_weights":[-3.1831448E-3,-9.9668734E-2,9.748716E-1,-5.9411574E-2,9.8638546E-1,9.930974E-1,3.1947494E-1,9.9526644E-2,2.8575638E-2,3.5478254E-3,4.1727237E-2],"categories":[],"categories_nodes":[],"categories_segments":[],"categories_sizes":[],"default_left":[0,0,0,0,0,0,0,0,0,0,0],"id":65,"left_children":[1,-1,3,-1,5,7,9,-1,-1,-1,-1],"loss_changes":[4.8486172E2,0E0,5.1284943E0,0E0,8.017578E-1,9.458923E-2,9.532535E-2,0E0,0E0,0E0,0E0],"parents":[2147483647,0,0,2,2,4,4,5,5,6,6],"right_children":[2,-1,4,-1,6,8,10,-1,-1,-1,-1],"split_conditions":[3.2E1,-9.9668734E-2,2.9546461E1,-5.9411574E-2,2.2E1,9.4333336E1,2.6E1,9.9526644E-2,2.8575638E-2,3.5478254E-3,4.1727237E-2],"split_indices":[69,0,37,0,20,9,19,0,0,0,0],"split_type":[0,0,0,0,0,0,0,0,0,0,0],"sum_hessian":[4.9698227E2,2.4653445E2,2.504478E2,1.45589E0,2.4899191E2,2.4602673E2,2.965178E0,2.4486882E2,1.157918E0,1.1086144E0,1.8565636E0],"tree_param":{"num_deleted":"0","num_feature":"78","num_nodes":"11","size_leaf_vector":"1"}},{"base_weights":[-3.0545564E-4,-9.9620044E-2,9.7690785E-1,9.9145716E-1,-6.2648684E-2,9.962365E-2,-4.2629284E-3],"categories":[],"categories_nodes":[],"categories_segments":[],"categories_sizes":[],"default_left":[0,0,0,0,0,0,0],"id":66,"left_children":[1,-1,3,5,-1,-1,-1],"loss_changes":[4.4082944E2,0E0,5.954666E0,1.1641693E0,0E0,0E0,0E0],"parents":[2147483647,0,0,2,2,3,3],"right_children":[2,-1,4,6,-1,-1,-1],"split_conditions":[3.2E1,-9.9620044E-2,2.3E1,2.0712E4,-6.2648684E-2,9.962365E-2,-4.2629284E-3],"split_indices":[69,0,0,22,0,0,0],"split_type":[0,0,0,0,0,0,0],"sum_hessian":[4.5096817E2,2.2333955E2,2.2762863E2,2.259599E2,1.6687299E0,2.249568E2,1.0030991E0],"tree_param":{"num_deleted":"0","num_feature":"78","num_nodes":"7","size_leaf_vector":"1"}},{"base_weights":[-3.7032E-3,-9.9567376E-2,9.7052836E-1,9.8581326E-1,-6.1515708E-2,9.95193E-2,2.1299142E-2],"categories":[],"categories_nodes":[],"categories_segments":[],"categories_sizes":[],"default_left":[0,0,0,0,0,0,0],"id":67,"left_children":[1,-1,3,5,-1,-1,-1],"loss_changes":[3.963194E2,0E0,5.6210785E0,1.2762604E0,0E0,0E0,0E0],"parents":[2147483647,0,0,2,2,3,3],"right_children":[2,-1,4,6,-1,-1,-1],"split_conditions":[3.2E1,-9.9567376E-2,2.3E1,2.2E1,-6.1515708E-2,9.95193E-2,2.1299142E-2],"split_indices":[69,0,0,20,0,0,0],"split_type":[0,0,0,0,0,0,0],"sum_hessian":[4.0809497E2,2.0219568E2,2.0589929E2,2.0430821E2,1.5910822E0,2.0157397E2,2.7342348E0],"tree_param":{"num_deleted":"0","num_feature":"78","num_nodes":"7","size_leaf_vector":"1"}},{"base_weights":[-2.861375E-3,9.47222E-1,-9.950528E-2,-9.988353E-2,9.8878026E-1,-5.314931E-3,9.950804E-2],"categories":[],"categories_nodes":[],"categories_segments":[],"categories_sizes":[],"default_left":[0,0,0,0,0,0,0],"id":68,"left_children":[1,3,-1,-1,5,-1,-1],"loss_changes":[3.5066864E2,1.6356476E1,0E0,0E0,1.2775269E0,0E0,0E0],"parents":[2147483647,0,0,1,1,4,4],"right_children":[2,4,-1,-1,6,-1,-1],"split_conditions":[2.3E1,1.53E2,-9.950528E-2,-9.988353E-2,4.839908E1,-5.314931E-3,9.950804E-2],"split_indices":[0,66,0,0,38,0,0],"split_type":[0,0,0,0,0,0,0],"sum_hessian":[3.699974E2,1.8903258E2,1.8096481E2,3.4707873E0,1.8556178E2,1.070582E0,1.8449121E2],"tree_param":{"num_deleted":"0","num_feature":"78","num_nodes":"7","size_leaf_vector":"1"}},{"base_weights":[-2.3091475E-3,-9.944813E-2,9.664565E-1,9.8247606E-1,-5.8020998E-2,-2.1920835E-3,9.885949E-2],"categories":[],"categories_nodes":[],"categories_segments":[],"categories_sizes":[],"default_left":[0,0,0,0,0,0,0],"id":69,"left_children":[1,-1,3,5,-1,-1,-1],"loss_changes":[3.2393207E2,0E0,4.794998E0,1.0611725E0,0E0,0E0,0E0],"parents":[2147483647,0,0,2,2,3,3],"right_children":[2,-1,4,6,-1,-1,-1],"split_conditions":[3.2E1,-9.944813E-2,2.3E1,4.839908E1,-5.8020998E-2,-2.1920835E-3,9.885949E-2],"split_indices":[69,0,0,38,0,0,0],"split_type":[0,0,0,0,0,0,0],"sum_hessian":[3.3501428E2,1.654946E2,1.6951967E2,1.6814291E2,1.3767604E0,1.0024915E0,1.6714043E2],"tree_param":{"num_deleted":"0","num_feature":"78","num_nodes":"7","size_leaf_vector":"1"}},{"base_weights":[-3.0994713E-3,-9.938111E-2,9.6430624E-1,9.807881E-1,-5.630952E-2,9.9326454E-2,1.2074132E-1,1.6833425E-3,1.6020061E-2],"categories":[],"categories_nodes":[],"categories_segments":[],"categories_sizes":[],"default_left":[0,0,0,0,0,0,0,0,0],"id":70,"left_children":[1,-1,3,5,-1,-1,7,-1,-1],"loss_changes":[2.9261963E2,0E0,4.4411163E0,1.5238647E0,0E0,0E0,1.0952231E-2,0E0,0E0],"parents":[2147483647,0,0,2,2,3,3,6,6],"right_children":[2,-1,4,6,-1,-1,8,-1,-1],"split_conditions":[3.2E1,-9.938111E-2,2.3E1,2.2E1,-5.630952E-2,9.9326454E-2,2.7E1,1.6833425E-3,1.6020061E-2],"split_indices":[69,0,0,20,0,0,2,0,0],"split_type":[0,0,0,0,0,0,0,0,0],"sum_hessian":[3.0331467E2,1.4983879E2,1.5347588E2,1.5219148E2,1.2843953E0,1.4986258E2,2.328908E0,1.0336379E0,1.2952701E0],"tree_param":{"num_deleted":"0","num_feature":"78","num_nodes":"9","size_leaf_vector":"1"}},{"base_weights":[-3.2630328E-3,-9.930855E-2,9.614088E-1,9.7837836E-1,-5.467548E-2,9.859219E-2,-3.1495665E-3],"categories":[],"categories_nodes":[],"categories_segments":[],"categories_sizes":[],"default_left":[0,0,0,0,0,0,0],"id":71,"left_children":[1,-1,3,5,-1,-1,-1],"loss_changes":[2.645279E2,0E0,4.1256714E0,1.0906982E0,0E0,0E0,0E0],"parents":[2147483647,0,0,2,2,3,3],"right_children":[2,-1,4,6,-1,-1,-1],"split_conditions":[3.2E1,-9.930855E-2,2.3E1,4.27965E5,-5.467548E-2,9.859219E-2,-3.1495665E-3],"split_indices":[69,0,0,21,0,0,0],"split_type":[0,0,0,0,0,0,0],"sum_hessian":[2.75035E2,1.3573338E2,1.3930164E2,1.3809904E2,1.202585E0,1.3709868E2,1.0003775E0],"tree_param":{"num_deleted":"0","num_feature":"78","num_nodes":"7","size_leaf_vector":"1"}},{"base_weights":[-2.9694326E-3,-9.922885E-2,9.5816606E-1,-5.2756455E-2,9.754029E-1,9.8708116E-2,1.2839504E-2],"categories":[],"categories_nodes":[],"categories_segments":[],"categories_sizes":[],"default_left":[0,0,0,0,0,0,0],"id":72,"left_children":[1,-1,3,-1,5,-1,-1],"loss_changes":[2.3904411E2,0E0,3.7801743E0,0E0,1.1235962E0,0E0,0E0],"parents":[2147483647,0,0,2,2,4,4],"right_children":[2,-1,4,-1,6,-1,-1],"split_conditions":[3.2E1,-9.922885E-2,2.9546461E1,-5.2756455E-2,2.2E1,9.8708116E-2,1.2839504E-2],"split_indices":[69,0,37,0,20,0,0],"split_type":[0,0,0,0,0,0,0],"sum_hessian":[2.4939534E2,1.22879845E2,1.26515495E2,1.1114035E0,1.2540409E2,1.2353545E2,1.868639E0],"tree_param":{"num_deleted":"0","num_feature":"78","num_nodes":"7","size_leaf_vector":"1"}},{"base_weights":[-8.4796717E-4,-9.914258E-2,9.624969E-1,-5.2277822E-2,9.812132E-1,9.87386E-2,1.6421003E-2],"categories":[],"categories_nodes":[],"categories_segments":[],"categories_sizes":[],"default_left":[0,0,0,0,0,0,0],"id":73,"left_children":[1,-1,3,-1,5,-1,-1],"loss_changes":[2.1745737E2,0E0,3.7245102E0,0E0,4.149933E-1,0E0,0E0],"parents":[2147483647,0,0,2,2,4,4],"right_children":[2,-1,4,-1,6,-1,-1],"split_conditions":[3.2E1,-9.914258E-2,2.9546461E1,-5.2277822E-2,2.5E1,9.87386E-2,1.6421003E-2],"split_indices":[69,0,37,0,30,0,0],"split_type":[0,0,0,0,0,0,0],"sum_hessian":[2.2587874E2,1.1135089E2,1.1452784E2,1.0900888E0,1.1343775E2,1.1238013E2,1.0576261E0],"tree_param":{"num_deleted":"0","num_feature":"78","num_nodes":"7","size_leaf_vector":"1"}},{"base_weights":[3.674548E-4,-9.904669E-2,9.602851E-1,9.814824E-1,-5.297041E-2,9.90583E-2,2.894815E-3],"categories":[],"categories_nodes":[],"categories_segments":[],"categories_sizes":[],"default_left":[0,0,0,0,0,0,0],"id":74,"left_children":[1,-1,3,5,-1,-1,-1],"loss_changes":[1.9665564E2,0E0,3.836792E0,8.7197113E-1,0E0,0E0,0E0],"parents":[2147483647,0,0,2,2,3,3],"right_children":[2,-1,4,6,-1,-1,-1],"split_conditions":[3.2E1,-9.904669E-2,2.3E1,1.90231E5,-5.297041E-2,9.90583E-2,2.894815E-3],"split_indices":[69,0,0,19,0,0,0],"split_type":[0,0,0,0,0,0,0],"sum_hessian":[2.047623E2,1.0074289E2,1.040194E2,1.02896835E2,1.1225723E0,1.0188348E2,1.0133526E0],"tree_param":{"num_deleted":"0","num_feature":"78","num_nodes":"7","size_leaf_vector":"1"}},{"base_weights":[-4.6690446E-3,-9.894438E-2,9.469755E-1,9.7861207E-1,-2.0826092E-1,9.854693E-2,1.818737E-2,5.431797E-2,-9.1361634E-2],"categories":[],"categories_nodes":[],"categories_segments":[],"categories_sizes":[],"default_left":[0,0,0,0,0,0,0,0,0],"id":75,"left_children":[1,-1,3,5,7,-1,-1,-1,-1],"loss_changes":[1.7618605E2,0E0,3.698166E0,3.3016205E-1,2.2840996E0,0E0,0E0,0E0,0E0],"parents":[2147483647,0,0,2,2,3,3,4,4],"right_children":[2,-1,4,6,8,-1,-1,-1,-1],"split_conditions":[3.2E1,-9.894438E-2,2.2E1,2.4E1,2.2E1,9.854693E-2,1.818737E-2,5.431797E-2,-9.1361634E-2],"split_indices":[69,0,20,30,0,0,0,0,0],"split_type":[0,0,0,0,0,0,0,0,0],"sum_hessian":[1.8600105E2,9.138986E1,9.461119E1,9.223811E1,2.3730779E0,9.121617E1,1.0219404E0,1.2603269E0,1.112751E0],"tree_param":{"num_deleted":"0","num_feature":"78","num_nodes":"9","size_leaf_vector":"1"}},{"base_weights":[-5.433815E-3,-9.8829255E-2,9.4168675E-1,9.749436E-2,-2.0827788E-1,-4.483544E-2,9.598228E-3],"categories":[],"categories_nodes":[],"categories_segments":[],"categories_sizes":[],"default_left":[0,0,0,0,0,0,0],"id":76,"left_children":[1,-1,3,-1,5,-1,-1],"loss_changes":[1.5874869E2,0E0,3.5245438E0,0E0,2.815322E-1,0E0,0E0],"parents":[2147483647,0,0,2,2,4,4],"right_children":[2,-1,4,-1,6,-1,-1],"split_conditions":[3.2E1,-9.8829255E-2,2.2E1,9.749436E-2,4.5454547E4,-4.483544E-2,9.598228E-3],"split_indices":[69,0,20,0,16,0,0],"split_type":[0,0,0,0,0,0,0],"sum_hessian":[1.6853535E2,8.268593E1,8.584942E1,8.3584366E1,2.2650528E0,1.0013492E0,1.2637036E0],"tree_param":{"num_deleted":"0","num_feature":"78","num_nodes":"7","size_leaf_vector":"1"}},{"base_weights":[-6.6433814E-3,9.2663807E-1,-9.87015E-2,-9.977939E-2,9.748876E-1,9.871173E-2,3.8737431E-3],"categories":[],"categories_nodes":[],"categories_segments":[],"categories_sizes":[],"default_left":[0,0,0,0,0,0,0],"id":77,"left_children":[1,3,-1,-1,5,-1,-1],"loss_changes":[1.4183092E2,8.34687E0,0E0,0E0,8.545532E-1,0E0,0E0],"parents":[2147483647,0,0,1,1,4,4],"right_children":[2,4,-1,-1,6,-1,-1],"split_conditions":[2.3E1,1.53E2,-9.87015E-2,-9.977939E-2,1.86626E5,9.871173E-2,3.8737431E-3],"split_indices":[0,66,0,0,24,0,0],"split_type":[0,0,0,0,0,0,0],"sum_hessian":[1.530132E2,7.8417305E1,7.459589E1,1.436652E0,7.698065E1,7.593423E1,1.0464305E0],"tree_param":{"num_deleted":"0","num_feature":"78","num_nodes":"7","size_leaf_vector":"1"}},{"base_weights":[-8.15195E-3,-9.857048E-2,9.3187743E-1,9.686916E-1,-2.2503127E-1,9.79168E-2,1.5853403E-2,-3.392584E-2,-2.7254693E-5],"categories":[],"categories_nodes":[],"categories_segments":[],"categories_sizes":[],"default_left":[0,0,0,0,0,0,0,0,0],"id":78,"left_children":[1,-1,3,5,7,-1,-1,-1,-1],"loss_changes":[1.2934435E2,0E0,3.2742615E0,4.3663788E-1,7.7557966E-2,0E0,0E0,0E0,0E0],"parents":[2147483647,0,0,2,2,3,3,4,4],"right_children":[2,-1,4,6,8,-1,-1,-1,-1],"split_conditions":[3.2E1,-9.857048E-2,2.2E1,2.2E1,6.451613E4,9.79168E-2,1.5853403E-2,-3.392584E-2,-2.7254693E-5],"split_indices":[69,0,20,30,16,0,0,0,0],"split_type":[0,0,0,0,0,0,0,0,0],"sum_hessian":[1.3875604E2,6.7996605E1,7.075943E1,6.87349E1,2.0245314E0,6.765147E1,1.0834355E0,1.0045593E0,1.019972E0],"tree_param":{"num_deleted":"0","num_feature":"78","num_nodes":"9","size_leaf_vector":"1"}},{"base_weights":[-6.8292613E-3,-9.84184E-2,9.2619914E-1,9.6634585E-1,-2.1918468E-1,9.773537E-2,1.6622381E-2,-8.149905E-6,-3.3090506E-2],"categories":[],"categories_nodes":[],"categories_segments":[],"categories_sizes":[],"default_left":[0,0,0,0,0,0,0,0,0],"id":79,"left_children":[1,-1,3,5,7,-1,-1,-1,-1],"loss_changes":[1.16735855E2,0E0,3.2235298E0,3.9649582E-1,7.421723E-2,0E0,0E0,0E0,0E0],"parents":[2147483647,0,0,2,2,3,3,4,4],"right_children":[2,-1,4,6,8,-1,-1,-1,-1],"split_conditions":[3.2E1,-9.84184E-2,2.2E1,2.2E1,3.2E1,9.773537E-2,1.6622381E-2,-8.149905E-6,-3.3090506E-2],"split_indices":[69,0,20,30,19,0,0,0,0],"split_type":[0,0,0,0,0,0,0,0,0],"sum_hessian":[1.260143E2,6.1518425E1,6.449587E1,6.246281E1,2.033063E0,6.139663E1,1.066182E0,1.0245233E0,1.0085398E0],"tree_param":{"num_deleted":"0","num_feature":"78","num_nodes":"9","size_leaf_vector":"1"}},{"base_weights":[-7.6016E-3,-9.825728E-2,9.1934586E-1,9.523988E-1,-5.0388724E-2,9.814174E-2,-8.642994E-3],"categories":[],"categories_nodes":[],"categories_segments":[],"categories_sizes":[],"default_left":[0,0,0,0,0,0,0],"id":80,"left_children":[1,-1,3,5,-1,-1,-1],"loss_changes":[1.0542914E2,0E0,3.293293E0,1.8572044E0,0E0,0E0,0E0],"parents":[2147483647,0,0,2,2,3,3],"right_children":[2,-1,4,6,-1,-1,-1],"split_conditions":[3.2E1,-9.825728E-2,2.3E1,2.2E1,-5.0388724E-2,9.814174E-2,-8.642994E-3],"split_indices":[69,0,0,20,0,0,0],"split_type":[0,0,0,0,0,0,0],"sum_hessian":[1.1465826E2,5.5852314E1,5.8805946E1,5.7794556E1,1.0113909E0,5.6277763E1,1.5167936E0],"tree_param":{"num_deleted":"0","num_feature":"78","num_nodes":"7","size_leaf_vector":"1"}},{"base_weights":[-8.091833E-3,-9.8075695E-2,9.1187286E-1,9.577092E-1,-1.7036562E-1,2.6940692E-2,9.667917E-2,-2.2987162E-3,-2.3557274E-2],"categories":[],"categories_nodes":[],"categories_segments":[],"categories_sizes":[],"default_left":[0,0,0,0,0,0,0,0,0],"id":81,"left_children":[1,-1,3,5,7,-1,-1,-1,-1],"loss_changes":[9.494876E1,0E0,2.868496E0,6.756973E-2,2.4039231E-2,0E0,0E0,0E0,0E0],"parents":[2147483647,0,0,2,2,3,3,4,4],"right_children":[2,-1,4,6,8,-1,-1,-1,-1],"split_conditions":[3.2E1,-9.8075695E-2,2.1E1,5.461944E1,3.1E1,2.6940692E-2,9.667917E-2,-2.2987162E-3,-2.3557274E-2],"split_indices":[69,0,20,37,20,0,0,0,0],"split_type":[0,0,0,0,0,0,0,0,0],"sum_hessian":[1.04110176E2,5.0573486E1,5.3536686E1,5.1471756E1,2.0649326E0,1.0696808E0,5.0402073E1,1.0482489E0,1.0166838E0],"tree_param":{"num_deleted":"0","num_feature":"78","num_nodes":"9","size_leaf_vector":"1"}},{"base_weights":[-6.181707E-3,-9.787732E-2,9.044247E-1,9.5395076E-1,-1.667236E-1,2.6891712E-2,9.633764E-2,-2.6471047E-3,-2.266117E-2],"categories":[],"categories_nodes":[],"categories_segments":[],"categories_sizes":[],"default_left":[0,0,0,0,0,0,0,0,0],"id":82,"left_children":[1,-1,3,5,7,-1,-1,-1,-1],"loss_changes":[8.5755455E1,0E0,2.8121147E0,5.053711E-2,1.9715205E-2,0E0,0E0,0E0,0E0],"parents":[2147483647,0,0,2,2,3,3,4,4],"right_children":[2,-1,4,6,8,-1,-1,-1,-1],"split_conditions":[3.2E1,-9.787732E-2,2.1E1,5.461944E1,3.1E1,2.6891712E-2,9.633764E-2,-2.6471047E-3,-2.266117E-2],"split_indices":[69,0,20,37,20,0,0,0,0],"split_type":[0,0,0,0,0,0,0,0,0],"sum_hessian":[9.4828384E1,4.5817368E1,4.901102E1,4.694965E1,2.06137E0,1.0380282E0,4.591162E1,1.0483164E0,1.0130537E0],"tree_param":{"num_deleted":"0","num_feature":"78","num_nodes":"9","size_leaf_vector":"1"}},{"base_weights":[-6.822513E-3,9.017702E-1,-9.767704E-2,9.728304E-2,-2.8877676E-1,-9.051758E-2,3.6614913E-2],"categories":[],"categories_nodes":[],"categories_segments":[],"categories_sizes":[],"default_left":[0,0,0,0,0,0,0],"id":83,"left_children":[1,3,-1,-1,5,-1,-1],"loss_changes":[7.787646E1,4.141281E0,0E0,0E0,1.6802729E0,0E0,0E0],"parents":[2147483647,0,0,1,1,4,4],"right_children":[2,4,-1,-1,6,-1,-1],"split_conditions":[2.3E1,2.2E1,-9.767704E-2,9.728304E-2,2.6883E4,-9.051758E-2,3.6614913E-2],"split_indices":[0,20,0,0,66,0,0],"split_type":[0,0,0,0,0,0,0],"sum_hessian":[8.63672E1,4.4630318E1,4.1736885E1,4.2289078E1,2.3412385E0,1.0092525E0,1.3319861E0],"tree_param":{"num_deleted":"0","num_feature":"78","num_nodes":"7","size_leaf_vector":"1"}},{"base_weights":[-8.648797E-3,8.953711E-1,-9.7443834E-2,-5.290441E-2,9.490185E-2],"categories":[],"categories_nodes":[],"categories_segments":[],"categories_sizes":[],"default_left":[0,0,0,0,0],"id":84,"left_children":[1,3,-1,-1,-1],"loss_changes":[7.021675E1,3.676773E0,0E0,0E0,0E0],"parents":[2147483647,0,0,1,1],"right_children":[2,4,-1,-1,-1],"split_conditions":[2.3E1,7.063145E1,-9.7443834E-2,-5.290441E-2,9.490185E-2],"split_indices":[0,16,0,0,0],"split_type":[0,0,0,0,0],"sum_hessian":[7.84237E1,4.0544884E1,3.7878815E1,1.149972E0,3.9394913E1],"tree_param":{"num_deleted":"0","num_feature":"78","num_nodes":"5","size_leaf_vector":"1"}},{"base_weights":[-7.1948445E-3,8.919886E-1,-9.7183496E-2,9.69999E-2,-3.1798652E-1,1.226458E-3,-4.9155537E-2],"categories":[],"categories_nodes":[],"categories_segments":[],"categories_sizes":[],"default_left":[0,0,0,0,0,0,0],"id":85,"left_children":[1,3,-1,-1,5,-1,-1],"loss_changes":[6.35207E1,3.8864346E0,0E0,0E0,1.8080163E-1,0E0,0E0],"parents":[2147483647,0,0,1,1,4,4],"right_children":[2,4,-1,-1,6,-1,-1],"split_conditions":[2.3E1,2.2E1,-9.7183496E-2,9.69999E-2,7.7E1,1.226458E-3,-4.9155537E-2],"split_indices":[0,20,0,0,2,0,0],"split_type":[0,0,0,0,0,0,0],"sum_hessian":[7.1232735E1,3.6906178E1,3.4326557E1,3.4857174E1,2.0490046E0,1.0260562E0,1.0229483E0],"tree_param":{"num_deleted":"0","num_feature":"78","num_nodes":"7","size_leaf_vector":"1"}},{"base_weights":[-8.673515E-3,8.826418E-1,-9.690245E-2,9.6383356E-2,-2.8792477E-1,8.456384E-4,-4.4275027E-2],"categories":[],"categories_nodes":[],"categories_segments":[],"categories_sizes":[],"default_left":[0,0,0,0,0,0,0],"id":86,"left_children":[1,3,-1,-1,5,-1,-1],"loss_changes":[5.718363E1,3.5709496E0,0E0,0E0,1.4221632E-1,0E0,0E0],"parents":[2147483647,0,0,1,1,4,4],"right_children":[2,4,-1,-1,6,-1,-1],"split_conditions":[2.3E1,2.2E1,-9.690245E-2,9.6383356E-2,4.4E1,8.456384E-4,-4.4275027E-2],"split_indices":[0,20,0,0,2,0,0],"split_type":[0,0,0,0,0,0,0],"sum_hessian":[6.480601E1,3.365305E1,3.1152956E1,3.1635395E1,2.0176563E0,1.0167266E0,1.0009298E0],"tree_param":{"num_deleted":"0","num_feature":"78","num_nodes":"7","size_leaf_vector":"1"}},{"base_weights":[-9.973445E-3,8.713068E-1,-9.659989E-2,9.573908E-2,-2.8253362E-2],"categories":[],"categories_nodes":[],"categories_segments":[],"categories_sizes":[],"default_left":[0,0,0,0,0],"id":87,"left_children":[1,3,-1,-1,-1],"loss_changes":[5.1490215E1,3.4297085E0,0E0,0E0,0E0],"parents":[2147483647,0,0,1,1],"right_children":[2,4,-1,-1,-1],"split_conditions":[2.3E1,2.2E1,-9.659989E-2,9.573908E-2,-2.8253362E-2],"split_indices":[0,20,0,0,0],"split_type":[0,0,0,0,0],"sum_hessian":[5.911508E1,3.080611E1,2.8308971E1,2.8825775E1,1.9803339E0],"tree_param":{"num_deleted":"0","num_feature":"78","num_nodes":"5","size_leaf_vector":"1"}},{"base_weights":[6.543659E-3,8.951171E-1,-9.6267246E-2,-4.802315E-2,9.636874E-2],"categories":[],"categories_nodes":[],"categories_segments":[],"categories_sizes":[],"default_left":[0,0,0,0,0],"id":88,"left_children":[1,3,-1,-1,-1],"loss_changes":[4.809663E1,3.2101612E0,0E0,0E0,0E0],"parents":[2147483647,0,0,1,1],"right_children":[2,4,-1,-1,-1],"split_conditions":[2.3E1,7.9238048E0,-9.6267246E-2,-4.802315E-2,9.636874E-2],"split_indices":[0,38,0,0,0],"split_type":[0,0,0,0,0],"sum_hessian":[5.384655E1,2.8131842E1,2.5714708E1,1.0508531E0,2.7080988E1],"tree_param":{"num_deleted":"0","num_feature":"78","num_nodes":"5","size_leaf_vector":"1"}},{"base_weights":[-1.308752E-2,-9.590768E-2,8.5624945E-1,9.313696E-2,-1.9788368E-2],"categories":[],"categories_nodes":[],"categories_segments":[],"categories_sizes":[],"default_left":[0,0,0,0,0],"id":89,"left_children":[1,-1,3,-1,-1],"loss_changes":[4.190646E1,0E0,2.287691E0,0E0,0E0],"parents":[2147483647,0,0,2,2],"right_children":[2,-1,4,-1,-1],"split_conditions":[3.2E1,-9.590768E-2,2.1E1,9.313696E-2,-1.9788368E-2],"split_indices":[69,0,20,0,0],"split_type":[0,0,0,0,0],"sum_hessian":[4.8958755E1,2.3396301E1,2.5562456E1,2.3970705E1,1.5917507E0],"tree_param":{"num_deleted":"0","num_feature":"78","num_nodes":"5","size_leaf_vector":"1"}},{"base_weights":[9.451465E-3,8.864958E-1,-9.55166E-2,9.546291E-2,-3.4894213E-2],"categories":[],"categories_nodes":[],"categories_segments":[],"categories_sizes":[],"default_left":[0,0,0,0,0],"id":90,"left_children":[1,3,-1,-1,-1],"loss_changes":[3.9528812E1,2.3926182E0,0E0,0E0,0E0],"parents":[2147483647,0,0,1,1],"right_children":[2,4,-1,-1,-1],"split_conditions":[2.3E1,1.9933666E4,-9.55166E-2,9.546291E-2,-3.4894213E-2],"split_indices":[0,22,0,0,0],"split_type":[0,0,0,0,0],"sum_hessian":[4.4722816E1,2.3467138E1,2.125568E1,2.2456005E1,1.011133E0],"tree_param":{"num_deleted":"0","num_feature":"78","num_nodes":"5","size_leaf_vector":"1"}},{"base_weights":[-1.8452294E-2,8.291582E-1,-9.509814E-2,9.38694E-2,-3.233042E-2],"categories":[],"categories_nodes":[],"categories_segments":[],"categories_sizes":[],"default_left":[0,0,0,0,0],"id":91,"left_children":[1,3,-1,-1,-1],"loss_changes":[3.3818176E1,3.1342773E0,0E0,0E0,0E0],"parents":[2147483647,0,0,1,1],"right_children":[2,4,-1,-1,-1],"split_conditions":[2.3E1,2.2E1,-9.509814E-2,9.38694E-2,-3.233042E-2],"split_indices":[0,20,0,0,0],"split_type":[0,0,0,0,0],"sum_hessian":[4.0787407E1,2.142462E1,1.9362787E1,1.9734447E1,1.6901728E0],"tree_param":{"num_deleted":"0","num_feature":"78","num_nodes":"5","size_leaf_vector":"1"}},{"base_weights":[-1.730397E-2,-9.462834E-2,8.1852114E-1,9.047011E-2,-1.8453924E-2],"categories":[],"categories_nodes":[],"categories_segments":[],"categories_sizes":[],"default_left":[0,0,0,0,0],"id":92,"left_children":[1,-1,3,-1,-1],"loss_changes":[3.0506037E1,0E0,1.9556656E0,0E0,0E0],"parents":[2147483647,0,0,2,2],"right_children":[2,-1,4,-1,-1],"split_conditions":[3.2E1,-9.462834E-2,2.1E1,9.047011E-2,-1.8453924E-2],"split_indices":[69,0,20,0,0],"split_type":[0,0,0,0,0],"sum_hessian":[3.7290855E1,1.759865E1,1.9692207E1,1.8224474E1,1.4677341E0],"tree_param":{"num_deleted":"0","num_feature":"78","num_nodes":"5","size_leaf_vector":"1"}},{"base_weights":[9.976798E-3,8.567051E-1,-9.4142355E-2,9.4177015E-2,-3.1280678E-2],"categories":[],"categories_nodes":[],"categories_segments":[],"categories_sizes":[],"default_left":[0,0,0,0,0],"id":93,"left_children":[1,3,-1,-1,-1],"loss_changes":[2.9155264E1,2.1990318E0,0E0,0E0,0E0],"parents":[2147483647,0,0,1,1],"right_children":[2,4,-1,-1,-1],"split_conditions":[2.3E1,9.789093E3,-9.4142355E-2,9.4177015E-2,-3.1280678E-2],"split_indices":[0,17,0,0,0],"split_type":[0,0,0,0,0],"sum_hessian":[3.4190575E1,1.8143095E1,1.6047482E1,1.7094456E1,1.048641E0],"tree_param":{"num_deleted":"0","num_feature":"78","num_nodes":"5","size_leaf_vector":"1"}},{"base_weights":[-2.3318779E-2,-5.478416E-1,8.732917E-1,-8.913548E-1,7.486465E-2,2.564317E-2,9.075873E-2,-9.2928424E-2,-1.9144913E-2],"categories":[],"categories_nodes":[],"categories_segments":[],"categories_sizes":[],"default_left":[0,0,0,0,0,0,0,0,0],"id":94,"left_children":[1,3,5,7,-1,-1,-1,-1,-1],"loss_changes":[1.5645758E1,1.0002944E1,2.7243614E-2,2.741251E-1,0E0,0E0,0E0,0E0,0E0],"parents":[2147483647,0,0,1,1,2,2,3,3],"right_children":[2,4,6,8,-1,-1,-1,-1,-1],"split_conditions":[5E4,1.6E1,2.2222222E5,2.5E4,7.486465E-2,2.564317E-2,9.075873E-2,-9.2928424E-2,-1.9144913E-2],"split_indices":[38,68,16,38,0,0,0,0,0],"split_type":[0,0,0,0,0,0,0,0,0],"sum_hessian":[3.125084E1,1.9961954E1,1.1288884E1,1.6027773E1,3.9341812E0,1.0410516E0,1.0247832E1,1.4892964E1,1.1348091E0],"tree_param":{"num_deleted":"0","num_feature":"78","num_nodes":"9","size_leaf_vector":"1"}},{"base_weights":[1.4893425E-2,8.481588E-1,-9.3068205E-2,-1.9675124E-2,9.327511E-2],"categories":[],"categories_nodes":[],"categories_segments":[],"categories_sizes":[],"default_left":[0,0,0,0,0],"id":95,"left_children":[1,3,-1,-1,-1],"loss_changes":[2.422471E1,1.6272926E0,0E0,0E0,0E0],"parents":[2147483647,0,0,1,1],"right_children":[2,4,-1,-1,-1],"split_conditions":[2.3E1,5.0767735E1,-9.3068205E-2,-1.9675124E-2,9.327511E-2],"split_indices":[0,38,0,0,0],"split_type":[0,0,0,0,0],"sum_hessian":[2.874348E1,1.5333888E1,1.3409592E1,1.0491073E0,1.42847805E1],"tree_param":{"num_deleted":"0","num_feature":"78","num_nodes":"5","size_leaf_vector":"1"}},{"base_weights":[-2.1328429E-2,7.7278715E-1,-9.243893E-2,9.119876E-2,-3.241226E-2],"categories":[],"categories_nodes":[],"categories_segments":[],"categories_sizes":[],"default_left":[0,0,0,0,0],"id":96,"left_children":[1,3,-1,-1,-1],"loss_changes":[2.0267044E1,2.5939302E0,0E0,0E0,0E0],"parents":[2147483647,0,0,1,1],"right_children":[2,4,-1,-1,-1],"split_conditions":[2.3E1,2.2E1,-9.243893E-2,9.119876E-2,-3.241226E-2],"split_indices":[0,20,0,0,0],"split_type":[0,0,0,0,0],"sum_hessian":[2.6265013E1,1.4052269E1,1.2212745E1,1.261942E1,1.4328489E0],"tree_param":{"num_deleted":"0","num_feature":"78","num_nodes":"5","size_leaf_vector":"1"}},{"base_weights":[-2.3360373E-2,-9.1778435E-2,7.573918E-1,8.663845E-2,-2.0129897E-2],"categories":[],"categories_nodes":[],"categories_segments":[],"categories_sizes":[],"default_left":[0,0,0,0,0],"id":97,"left_children":[1,-1,3,-1,-1],"loss_changes":[1.8234562E1,0E0,1.6329079E0,0E0,0E0],"parents":[2147483647,0,0,2,2],"right_children":[2,-1,4,-1,-1],"split_conditions":[3.2E1,-9.1778435E-2,2.1E1,8.663845E-2,-2.0129897E-2],"split_indices":[69,0,20,0,0],"split_type":[0,0,0,0,0],"sum_hessian":[2.4116497E1,1.11582155E1,1.2958282E1,1.1721912E1,1.2363696E0],"tree_param":{"num_deleted":"0","num_feature":"78","num_nodes":"5","size_leaf_vector":"1"}},{"base_weights":[-2.244594E-2,7.426907E-1,-9.106758E-2,8.914971E-2,-2.6879588E-2],"categories":[],"categories_nodes":[],"categories_segments":[],"categories_sizes":[],"default_left":[0,0,0,0,0],"id":98,"left_children":[1,3,-1,-1,-1],"loss_changes":[1.6445087E1,2.1986966E0,0E0,0E0,0E0],"parents":[2147483647,0,0,1,1],"right_children":[2,4,-1,-1,-1],"split_conditions":[2.3E1,2.2E1,-9.106758E-2,8.914971E-2,-2.6879588E-2],"split_indices":[0,20,0,0,0],"split_type":[0,0,0,0,0],"sum_hessian":[2.220238E1,1.2015699E1,1.0186679E1,1.0578112E1,1.4375882E0],"tree_param":{"num_deleted":"0","num_feature":"78","num_nodes":"5","size_leaf_vector":"1"}},{"base_weights":[2.007925E-2,8.026839E-1,-9.0315074E-2,-1.6364872E-2,9.072933E-2],"categories":[],"categories_nodes":[],"categories_segments":[],"categories_sizes":[],"default_left":[0,0,0,0,0],"id":99,"left_children":[1,3,-1,-1,-1],"loss_changes":[1.6233974E1,1.3763633E0,0E0,0E0,0E0],"parents":[2147483647,0,0,1,1],"right_children":[2,4,-1,-1,-1],"split_conditions":[2.3E1,5.1276398E1,-9.0315074E-2,-1.6364872E-2,9.072933E-2],"split_indices":[0,38,0,0,0],"split_type":[0,0,0,0,0],"sum_hessian":[2.046507E1,1.114675E1,9.31832E0,1.0336841E0,1.0113066E1],"tree_param":{"num_deleted":"0","num_feature":"78","num_nodes":"5","size_leaf_vector":"1"}},{"base_weights":[-3.2037392E-2,-8.952552E-2,7.0139855E-1,8.284723E-2,-2.1283565E-2],"categories":[],"categories_nodes":[],"categories_segments":[],"categories_sizes":[],"default_left":[0,0,0,0,0],"id":100,"left_children":[1,-1,3,-1,-1],"loss_changes":[1.317736E1,0E0,1.486453E0,0E0,0E0],"parents":[2147483647,0,0,2,2],"right_children":[2,-1,4,-1,-1],"split_conditions":[3.2E1,-8.952552E-2,2.1E1,8.284723E-2,-2.1283565E-2],"split_indices":[69,0,20,0,0],"split_type":[0,0,0,0,0],"sum_hessian":[1.882172E1,8.544562E0,1.0277159E1,9.105369E0,1.1717902E0],"tree_param":{"num_deleted":"0","num_feature":"78","num_nodes":"5","size_leaf_vector":"1"}},{"base_weights":[-3.0648384E-2,-8.865845E-2,6.846934E-1,1.8783467E-1,8.102797E-2,5.2418064E-2,-2.0115519E-2],"categories":[],"categories_nodes":[],"categories_segments":[],"categories_sizes":[],"default_left":[0,0,0,0,0,0,0],"id":101,"left_children":[1,-1,3,5,-1,-1,-1],"loss_changes":[1.1876722E1,0E0,5.086436E-1,5.553274E-1,0E0,0E0,0E0],"parents":[2147483647,0,0,2,2,3,3],"right_children":[2,-1,4,6,-1,-1,-1],"split_conditions":[3.2E1,-8.865845E-2,1.752E4,7E0,8.102797E-2,5.2418064E-2,-2.0115519E-2],"split_indices":[69,0,66,17,0,0,0],"split_type":[0,0,0,0,0,0,0],"sum_hessian":[1.7405888E1,7.815242E0,9.590647E0,2.438568E0,7.1520786E0,1.1213942E0,1.317174E0],"tree_param":{"num_deleted":"0","num_feature":"78","num_nodes":"7","size_leaf_vector":"1"}},{"base_weights":[-3.3553753E-2,6.6405404E-1,-8.784095E-2,8.42156E-2,-3.1529196E-2],"categories":[],"categories_nodes":[],"categories_segments":[],"categories_sizes":[],"default_left":[0,0,0,0,0],"id":102,"left_children":[1,3,-1,-1,-1],"loss_changes":[1.0733518E1,2.010188E0,0E0,0E0,0E0],"parents":[2147483647,0,0,1,1],"right_children":[2,4,-1,-1,-1],"split_conditions":[2.3E1,2.1E1,-8.784095E-2,8.42156E-2,-3.1529196E-2],"split_indices":[0,20,0,0,0],"split_type":[0,0,0,0,0],"sum_hessian":[1.6221895E1,9.002459E0,7.2194376E0,7.7357364E0,1.266722E0],"tree_param":{"num_deleted":"0","num_feature":"78","num_nodes":"5","size_leaf_vector":"1"}},{"base_weights":[-3.5219066E-2,6.393083E-1,-8.683248E-2,8.223476E-2,-3.133148E-2],"categories":[],"categories_nodes":[],"categories_segments":[],"categories_sizes":[],"default_left":[0,0,0,0,0],"id":103,"left_children":[1,3,-1,-1,-1],"loss_changes":[9.557012E0,1.9015718E0,0E0,0E0,0E0],"parents":[2147483647,0,0,1,1],"right_children":[2,4,-1,-1,-1],"split_conditions":[2.3E1,2.2E1,-8.683248E-2,8.223476E-2,-3.133148E-2],"split_indices":[0,20,0,0,0],"split_type":[0,0,0,0,0],"sum_hessian":[1.5018939E1,8.427887E0,6.591052E0,7.184243E0,1.2436438E0],"tree_param":{"num_deleted":"0","num_feature":"78","num_nodes":"5","size_leaf_vector":"1"}},{"base_weights":[-2.5835246E-2,-8.5789286E-2,6.40553E-1,7.941129E-2,-2.048518E-2],"categories":[],"categories_nodes":[],"categories_segments":[],"categories_sizes":[],"default_left":[0,0,0,0,0],"id":104,"left_children":[1,-1,3,-1,-1],"loss_changes":[8.788886E0,0E0,1.3081927E0,0E0,0E0],"parents":[2147483647,0,0,2,2],"right_children":[2,-1,4,-1,-1],"split_conditions":[3.2E1,-8.5789286E-2,2.1E1,7.941129E-2,-2.048518E-2],"split_indices":[69,0,20,0,0],"split_type":[0,0,0,0,0],"sum_hessian":[1.3859794E1,6.0359197E0,7.823874E0,6.6725407E0,1.1513331E0],"tree_param":{"num_deleted":"0","num_feature":"78","num_nodes":"5","size_leaf_vector":"1"}},{"base_weights":[-3.0127352E-2,6.1467063E-1,-8.482494E-2,8.095474E-2,-2.3499614E-2],"categories":[],"categories_nodes":[],"categories_segments":[],"categories_sizes":[],"default_left":[0,0,0,0,0],"id":105,"left_children":[1,3,-1,-1,-1],"loss_changes":[7.9021993E0,1.5818408E0,0E0,0E0,0E0],"parents":[2147483647,0,0,1,1],"right_children":[2,4,-1,-1,-1],"split_conditions":[2.3E1,2.1E1,-8.482494E-2,8.095474E-2,-2.3499614E-2],"split_indices":[0,20,0,0,0],"split_type":[0,0,0,0,0],"sum_hessian":[1.2991426E1,7.4043856E0,5.587041E0,6.0613847E0,1.3430011E0],"tree_param":{"num_deleted":"0","num_feature":"78","num_nodes":"5","size_leaf_vector":"1"}},{"base_weights":[3.9155826E-2,7.060622E-1,-8.371016E-2,-1.6209407E-2,8.533148E-2],"categories":[],"categories_nodes":[],"categories_segments":[],"categories_sizes":[],"default_left":[0,0,0,0,0],"id":106,"left_children":[1,3,-1,-1,-1],"loss_changes":[8.270398E0,1.1615767E0,0E0,0E0,0E0],"parents":[2147483647,0,0,1,1],"right_children":[2,4,-1,-1,-1],"split_conditions":[2.3E1,5.2053375E1,-8.371016E-2,-1.6209407E-2,8.533148E-2],"split_indices":[0,38,0,0,0],"split_type":[0,0,0,0,0],"sum_hessian":[1.2140988E1,7.0043287E0,5.1366596E0,1.0011374E0,6.003191E0],"tree_param":{"num_deleted":"0","num_feature":"78","num_nodes":"5","size_leaf_vector":"1"}},{"base_weights":[-3.993277E-2,5.668035E-1,-8.253285E-2,7.7941045E-2,-2.705774E-2],"categories":[],"categories_nodes":[],"categories_segments":[],"categories_sizes":[],"default_left":[0,0,0,0,0],"id":107,"left_children":[1,3,-1,-1,-1],"loss_changes":[6.280403E0,1.5415924E0,0E0,0E0,0E0],"parents":[2147483647,0,0,1,1],"right_children":[2,4,-1,-1,-1],"split_conditions":[2.3E1,2.1E1,-8.253285E-2,7.7941045E-2,-2.705774E-2],"split_indices":[0,20,0,0,0],"split_type":[0,0,0,0,0],"sum_hessian":[1.1197822E1,6.4744678E0,4.723354E0,5.218695E0,1.2557727E0],"tree_param":{"num_deleted":"0","num_feature":"78","num_nodes":"5","size_leaf_vector":"1"}},{"base_weights":[4.1837394E-2,-8.1300825E-2,6.7004067E-1,-4.0546847E-3,7.942855E-2],"categories":[],"categories_nodes":[],"categories_segments":[],"categories_sizes":[],"default_left":[0,0,0,0,0],"id":108,"left_children":[1,-1,3,-1,-1],"loss_changes":[6.7511063E0,0E0,6.6874003E-1,0E0,0E0],"parents":[2147483647,0,0,2,2],"right_children":[2,-1,4,-1,-1],"split_conditions":[3.2E1,-8.1300825E-2,5.8679497E1,-4.0546847E-3,7.942855E-2],"split_indices":[69,0,37,0,0],"split_type":[0,0,0,0,0],"sum_hessian":[1.0557102E1,4.347261E0,6.209841E0,1.0244439E0,5.1853967E0],"tree_param":{"num_deleted":"0","num_feature":"78","num_nodes":"5","size_leaf_vector":"1"}},{"base_weights":[-5.4562606E-2,5.072237E-1,-8.013203E-2,7.842942E-2,-1.8807342E-2],"categories":[],"categories_nodes":[],"categories_segments":[],"categories_sizes":[],"default_left":[0,0,0,0,0],"id":109,"left_children":[1,3,-1,-1,-1],"loss_changes":[4.9447536E0,1.4547864E0,0E0,0E0,0E0],"parents":[2147483647,0,0,1,1],"right_children":[2,4,-1,-1,-1],"split_conditions":[2.3E1,8E0,-8.013203E-2,7.842942E-2,-1.8807342E-2],"split_indices":[0,20,0,0,0],"split_type":[0,0,0,0,0],"sum_hessian":[9.817895E0,5.785914E0,4.0319815E0,4.045725E0,1.7401888E0],"tree_param":{"num_deleted":"0","num_feature":"78","num_nodes":"5","size_leaf_vector":"1"}},{"base_weights":[-5.0227743E-2,-6.3448143E-1,6.5067494E-1,-9.524477E-2,4.784106E-2,1.6874744E-2,7.288802E-2],"categories":[],"categories_nodes":[],"categories_segments":[],"categories_sizes":[],"default_left":[0,0,0,0,0,0,0],"id":110,"left_children":[1,3,5,-1,-1,-1,-1],"loss_changes":[4.564669E0,2.5914845E0,6.932807E-2,0E0,0E0,0E0,0E0],"parents":[2147483647,0,0,1,1,2,2],"right_children":[2,4,6,-1,-1,-1,-1],"split_conditions":[2.6883E4,7.142857E4,5.8818916E1,-9.524477E-2,4.784106E-2,1.6874744E-2,7.288802E-2],"split_indices":[66,38,38,0,0,0,0],"split_type":[0,0,0,0,0,0,0],"sum_hessian":[9.138652E0,5.0357504E0,4.1029015E0,4.028834E0,1.0069162E0,1.0137259E0,3.0891752E0],"tree_param":{"num_deleted":"0","num_feature":"78","num_nodes":"7","size_leaf_vector":"1"}},{"base_weights":[-4.352743E-2,-6.2143934E-1,6.3171256E-1,4.2025145E-2,-9.528955E-2,7.120188E-2,1.6122898E-2],"categories":[],"categories_nodes":[],"categories_segments":[],"categories_sizes":[],"default_left":[0,0,0,0,0,0,0],"id":111,"left_children":[1,3,5,-1,-1,-1,-1],"loss_changes":[4.1241865E0,2.3535917E0,7.055938E-2,0E0,0E0,0E0,0E0],"parents":[2147483647,0,0,1,1,2,2],"right_children":[2,4,6,-1,-1,-1,-1],"split_conditions":[2.6883E4,1.9E1,9.2783E4,4.2025145E-2,-9.528955E-2,7.120188E-2,1.6122898E-2],"split_indices":[66,2,24,0,0,0,0],"split_type":[0,0,0,0,0,0,0],"sum_hessian":[8.562624E0,4.6567593E0,3.9058647E0,1.0594031E0,3.597356E0,2.8978562E0,1.0080084E0],"tree_param":{"num_deleted":"0","num_feature":"78","num_nodes":"7","size_leaf_vector":"1"}},{"base_weights":[-3.2883737E-2,4.7670683E-1,-7.5784855E-2,-1.0892413E-2,6.832161E-2],"categories":[],"categories_nodes":[],"categories_segments":[],"categories_sizes":[],"default_left":[0,0,0,0,0],"id":112,"left_children":[1,3,-1,-1,-1],"loss_changes":[3.7111208E0,7.926153E-1,0E0,0E0,0E0],"parents":[2147483647,0,0,1,1],"right_children":[2,4,-1,-1,-1],"split_conditions":[2.3E1,2.6883E4,-7.5784855E-2,-1.0892413E-2,6.832161E-2],"split_indices":[0,66,0,0,0],"split_type":[0,0,0,0,0],"sum_hessian":[8.067486E0,4.9385405E0,3.1289458E0,1.4106587E0,3.5278816E0],"tree_param":{"num_deleted":"0","num_feature":"78","num_nodes":"5","size_leaf_vector":"1"}},{"base_weights":[-3.3333078E-2,4.6336842E-1,-7.442181E-2,7.0701115E-2,-3.21972E-2],"categories":[],"categories_nodes":[],"categories_segments":[],"categories_sizes":[],"default_left":[0,0,0,0,0],"id":113,"left_children":[1,3,-1,-1,-1],"loss_changes":[3.371053E0,1.3109347E0,0E0,0E0,0E0],"parents":[2147483647,0,0,1,1],"right_children":[2,4,-1,-1,-1],"split_conditions":[2.3E1,2.2E1,-7.442181E-2,7.0701115E-2,-3.21972E-2],"split_indices":[0,20,0,0,0],"split_type":[0,0,0,0,0],"sum_hessian":[7.5704513E0,4.66156E0,2.9088914E0,3.6339183E0,1.0276417E0],"tree_param":{"num_deleted":"0","num_feature":"78","num_nodes":"5","size_leaf_vector":"1"}},{"base_weights":[-4.0612496E-2,-5.9257877E-1,5.983331E-1,-9.383363E-2,3.7304655E-2,1.842041E-2,6.699862E-2],"categories":[],"categories_nodes":[],"categories_segments":[],"categories_sizes":[],"default_left":[0,0,0,0,0,0,0],"id":114,"left_children":[1,3,5,-1,-1,-1,-1],"loss_changes":[3.2278614E0,1.9771695E0,3.4002066E-3,0E0,0E0,0E0,0E0],"parents":[2147483647,0,0,1,1,2,2],"right_children":[2,4,6,-1,-1,-1,-1],"split_conditions":[2.6883E4,1E5,6.200292E1,-9.383363E-2,3.7304655E-2,1.842041E-2,6.699862E-2],"split_indices":[66,16,38,0,0,0,0],"split_type":[0,0,0,0,0,0,0],"sum_hessian":[7.147134E0,3.8734994E0,3.2736344E0,2.8730268E0,1.0004725E0,1.009554E0,2.2640803E0],"tree_param":{"num_deleted":"0","num_feature":"78","num_nodes":"7","size_leaf_vector":"1"}},{"base_weights":[-3.991441E-2,-5.7057995E-1,5.630171E-1,-9.137874E-2,3.3382982E-2,1.3913783E-2,6.56279E-2],"categories":[],"categories_nodes":[],"categories_segments":[],"categories_sizes":[],"default_left":[0,0,0,0,0,0,0],"id":115,"left_children":[1,3,5,-1,-1,-1,-1],"loss_changes":[2.828677E0,1.7530264E0,7.361174E-2,0E0,0E0,0E0,0E0],"parents":[2147483647,0,0,1,1,2,2],"right_children":[2,4,6,-1,-1,-1,-1],"split_conditions":[2.6883E4,5E4,6.121586E1,-9.137874E-2,3.3382982E-2,1.3913783E-2,6.56279E-2],"split_indices":[66,37,38,0,0,0,0],"split_type":[0,0,0,0,0,0,0],"sum_hessian":[6.8368235E0,3.6648715E0,3.1719518E0,2.6491845E0,1.0156872E0,1.0214274E0,2.1505244E0],"tree_param":{"num_deleted":"0","num_feature":"78","num_nodes":"7","size_leaf_vector":"1"}},{"base_weights":[-2.4638347E-2,-5.6422764E-1,5.8871664E-2,-9.468667E-2,7.87834E-3],"categories":[],"categories_nodes":[],"categories_segments":[],"categories_sizes":[],"default_left":[0,0,0,0,0],"id":116,"left_children":[1,3,-1,-1,-1],"loss_changes":[2.7521958E0,1.1573281E0,0E0,0E0,0E0],"parents":[2147483647,0,0,1,1],"right_children":[2,4,-1,-1,-1],"split_conditions":[2.6883E4,2.3E2,5.8871664E-2,-9.468667E-2,7.87834E-3],"split_indices":[66,67,0,0,0],"split_type":[0,0,0,0,0],"sum_hessian":[6.3121448E0,3.4006093E0,2.9115357E0,1.835688E0,1.5649211E0],"tree_param":{"num_deleted":"0","num_feature":"78","num_nodes":"5","size_leaf_vector":"1"}},{"base_weights":[-3.5914905E-2,-5.3442687E-1,5.1518923E-1,-9.129966E-2,8.00494E-3,9.972613E-3,6.247698E-2],"categories":[],"categories_nodes":[],"categories_segments":[],"categories_sizes":[],"default_left":[0,0,0,0,0,0,0],"id":117,"left_children":[1,3,5,-1,-1,-1,-1],"loss_changes":[2.2519653E0,1.0660263E0,1.1644542E-1,0E0,0E0,0E0,0E0],"parents":[2147483647,0,0,1,1,2,2],"right_children":[2,4,6,-1,-1,-1,-1],"split_conditions":[2.6883E4,2.3E2,6.121586E1,-9.129966E-2,8.00494E-3,9.972613E-3,6.247698E-2],"split_indices":[66,67,38,0,0,0,0],"split_type":[0,0,0,0,0,0,0],"sum_hessian":[6.194773E0,3.2684736E0,2.9262996E0,1.7218528E0,1.5466208E0,1.0093869E0,1.9169127E0],"tree_param":{"num_deleted":"0","num_feature":"78","num_nodes":"7","size_leaf_vector":"1"}},{"base_weights":[-4.3561377E-2,-5.3154457E-1,4.963539E-1,-9.292092E-2,7.6793977E-3,9.698817E-3,6.0521316E-2],"categories":[],"categories_nodes":[],"categories_segments":[],"categories_sizes":[],"default_left":[0,0,0,0,0,0,0],"id":118,"left_children":[1,3,5,-1,-1,-1,-1],"loss_changes":[2.086051E0,1.067009E0,1.06527865E-1,0E0,0E0,0E0,0E0],"parents":[2147483647,0,0,1,1,2,2],"right_children":[2,4,6,-1,-1,-1,-1],"split_conditions":[2.6883E4,2.3E2,6.121586E1,-9.292092E-2,7.6793977E-3,9.698817E-3,6.0521316E-2],"split_indices":[66,67,38,0,0,0,0],"split_type":[0,0,0,0,0,0,0],"sum_hessian":[5.9162326E0,3.1157117E0,2.8005211E0,1.565141E0,1.5505707E0,1.00489E0,1.7956312E0],"tree_param":{"num_deleted":"0","num_feature":"78","num_nodes":"7","size_leaf_vector":"1"}},{"base_weights":[-5.7158772E-2,-5.5540264E-1,4.8595473E-1,-1.4272402E-2,-6.4957514E-2,5.942405E-2,1.402688E-2],"categories":[],"categories_nodes":[],"categories_segments":[],"categories_sizes":[],"default_left":[0,0,0,0,0,0,0],"id":119,"left_children":[1,3,5,-1,-1,-1,-1],"loss_changes":[2.051864E0,5.889857E-2,5.4551363E-2,0E0,0E0,0E0,0E0],"parents":[2147483647,0,0,1,1,2,2],"right_children":[2,4,6,-1,-1,-1,-1],"split_conditions":[2.6883E4,3.3E1,2.2E1,-1.4272402E-2,-6.4957514E-2,5.942405E-2,1.402688E-2],"split_indices":[66,2,0,0,0,0,0],"split_type":[0,0,0,0,0,0,0],"sum_hessian":[5.585159E0,2.901104E0,2.6840549E0,1.0064112E0,1.8946928E0,1.4963167E0,1.1877381E0],"tree_param":{"num_deleted":"0","num_feature":"78","num_nodes":"7","size_leaf_vector":"1"}},{"base_weights":[-2.262968E-2,4.4551146E-1,-5.615524E-1,-7.1125425E-4,5.9899684E-2,-7.7699125E-2,-8.343848E-3],"categories":[],"categories_nodes":[],"categories_segments":[],"categories_sizes":[],"default_left":[0,0,0,0,0,0,0],"id":120,"left_children":[1,3,5,-1,-1,-1,-1],"loss_changes":[1.8825406E0,2.835384E-1,2.90542E-1,0E0,0E0,0E0,0E0],"parents":[2147483647,0,0,1,1,2,2],"right_children":[2,4,6,-1,-1,-1,-1],"split_conditions":[1E1,5.8818916E1,1E0,-7.1125425E-4,5.9899684E-2,-7.7699125E-2,-8.343848E-3],"split_indices":[20,38,47,0,0,0,0],"split_type":[0,0,0,0,0,0,0],"sum_hessian":[5.470135E0,3.0200582E0,2.4500773E0,1.0062662E0,2.0137918E0,1.2580711E0,1.1920062E0],"tree_param":{"num_deleted":"0","num_feature":"78","num_nodes":"7","size_leaf_vector":"1"}},{"base_weights":[1.2887631E-1,5.8022267E-1,-6.440898E-2,5.396547E-3,7.145073E-2],"categories":[],"categories_nodes":[],"categories_segments":[],"categories_sizes":[],"default_left":[0,0,0,0,0],"id":121,"left_children":[1,3,-1,-1,-1],"loss_changes":[2.583892E0,2.8126884E-1,0E0,0E0,0E0],"parents":[2147483647,0,0,1,1],"right_children":[2,4,-1,-1,-1],"split_conditions":[2.3E1,5.704462E1,-6.440898E-2,5.396547E-3,7.145073E-2],"split_indices":[0,38,0,0,0],"split_type":[0,0,0,0,0],"sum_hessian":[5.3351464E0,3.5257592E0,1.8093872E0,1.0017616E0,2.5239975E0],"tree_param":{"num_deleted":"0","num_feature":"78","num_nodes":"5","size_leaf_vector":"1"}},{"base_weights":[-2.258367E-2,4.464921E-1,-5.451454E-1,8.4590195E-3,5.913494E-2,-7.5335614E-2,-7.7928747E-3],"categories":[],"categories_nodes":[],"categories_segments":[],"categories_sizes":[],"default_left":[0,0,0,0,0,0,0],"id":122,"left_children":[1,3,5,-1,-1,-1,-1],"loss_changes":[1.7026644E0,1.4326048E-1,2.5903797E-1,0E0,0E0,0E0,0E0],"parents":[2147483647,0,0,1,1,2,2],"right_children":[2,4,6,-1,-1,-1,-1],"split_conditions":[1E1,7.142857E4,1E0,8.4590195E-3,5.913494E-2,-7.5335614E-2,-7.7928747E-3],"split_indices":[20,38,47,0,0,0,0],"split_type":[0,0,0,0,0,0,0],"sum_hessian":[4.953227E0,2.6869056E0,2.2663212E0,1.2208272E0,1.4660785E0,1.1440512E0,1.12227E0],"tree_param":{"num_deleted":"0","num_feature":"78","num_nodes":"7","size_leaf_vector":"1"}},{"base_weights":[-4.7246054E-2,-3.9826235E-1,5.5853743E-2,-6.341701E-2,1.928214E-2],"categories":[],"categories_nodes":[],"categories_segments":[],"categories_sizes":[],"default_left":[0,0,0,0,0],"id":123,"left_children":[1,3,-1,-1,-1],"loss_changes":[1.4884137E0,7.29294E-1,0E0,0E0,0E0],"parents":[2147483647,0,0,1,1],"right_children":[2,4,-1,-1,-1],"split_conditions":[5E4,2.72E2,5.5853743E-2,-6.341701E-2,1.928214E-2],"split_indices":[38,36,0,0,0],"split_type":[0,0,0,0,0],"sum_hessian":[4.9535832E0,3.3531783E0,1.6004053E0,2.34455E0,1.0086284E0],"tree_param":{"num_deleted":"0","num_feature":"78","num_nodes":"5","size_leaf_vector":"1"}},{"base_weights":[-5.3985834E-2,-5.3606635E-1,4.6674944E-2,-9.29666E-2,5.8190394E-3],"categories":[],"categories_nodes":[],"categories_segments":[],"categories_sizes":[],"default_left":[0,0,0,0,0],"id":124,"left_children":[1,3,-1,-1,-1],"loss_changes":[1.66469E0,8.473245E-1,0E0,0E0,0E0],"parents":[2147483647,0,0,1,1],"right_children":[2,4,-1,-1,-1],"split_conditions":[2.6883E4,2.3E2,4.6674944E-2,-9.29666E-2,5.8190394E-3],"split_indices":[66,67,0,0,0],"split_type":[0,0,0,0,0],"sum_hessian":[4.6345677E0,2.3913183E0,2.2432494E0,1.0989937E0,1.2923247E0],"tree_param":{"num_deleted":"0","num_feature":"78","num_nodes":"5","size_leaf_vector":"1"}},{"base_weights":[-4.44014E-2,-4.9155164E-1,4.4289976E-1,-8.634999E-2,5.3559495E-3,5.3009864E-2,1.3180785E-2],"categories":[],"categories_nodes":[],"categories_segments":[],"categories_sizes":[],"default_left":[0,0,0,0,0,0,0],"id":125,"left_children":[1,3,5,-1,-1,-1,-1],"loss_changes":[1.4319929E0,7.3156756E-1,1.6736329E-2,0E0,0E0,0E0,0E0],"parents":[2147483647,0,0,1,1,2,2],"right_children":[2,4,6,-1,-1,-1,-1],"split_conditions":[2.6883E4,2.3E2,2.2E1,-8.634999E-2,5.3559495E-3,5.3009864E-2,1.3180785E-2],"split_indices":[66,67,0,0,0,0,0],"split_type":[0,0,0,0,0,0,0],"sum_hessian":[4.5727506E0,2.3800662E0,2.1926844E0,1.0675557E0,1.3125105E0,1.1627678E0,1.0299166E0],"tree_param":{"num_deleted":"0","num_feature":"78","num_nodes":"7","size_leaf_vector":"1"}},{"base_weights":[1.5902673E-1,-5.760559E-2,5.4398173E-1,6.453105E-2,1.1727874E-2],"categories":[],"categories_nodes":[],"categories_segments":[],"categories_sizes":[],"default_left":[0,0,0,0,0],"id":126,"left_children":[1,-1,3,-1,-1],"loss_changes":[1.8554865E0,0E0,1.01201296E-1,0E0,0E0],"parents":[2147483647,0,0,2,2],"right_children":[2,-1,4,-1,-1],"split_conditions":[3.2E1,-5.760559E-2,4.7153E4,6.453105E-2,1.1727874E-2],"split_indices":[69,0,19,0,0],"split_type":[0,0,0,0,0],"sum_hessian":[4.4497027E0,1.3587351E0,3.0909677E0,2.0838094E0,1.0071582E0],"tree_param":{"num_deleted":"0","num_feature":"78","num_nodes":"5","size_leaf_vector":"1"}},{"base_weights":[-2.7173303E-2,-4.6044827E-1,4.5350302E-2,-7.9668E-2,5.5778357E-3],"categories":[],"categories_nodes":[],"categories_segments":[],"categories_sizes":[],"default_left":[0,0,0,0,0],"id":127,"left_children":[1,3,-1,-1,-1],"loss_changes":[1.2928604E0,6.057239E-1,0E0,0E0,0E0],"parents":[2147483647,0,0,1,1],"right_children":[2,4,-1,-1,-1],"split_conditions":[2.6883E4,2.3E2,4.5350302E-2,-7.9668E-2,5.5778357E-3],"split_indices":[66,67,0,0,0],"split_type":[0,0,0,0,0],"sum_hessian":[4.205127E0,2.2337437E0,1.971383E0,1.0237035E0,1.2100401E0],"tree_param":{"num_deleted":"0","num_feature":"78","num_nodes":"5","size_leaf_vector":"1"}},{"base_weights":[-7.174771E-2,-4.8933204E-2,3.8662022E-1,1.0243322E-2,4.7773745E-2],"categories":[],"categories_nodes":[],"categories_segments":[],"categories_sizes":[],"default_left":[0,0,0,0,0],"id":128,"left_children":[1,-1,3,-1,-1],"loss_changes":[1.1713481E0,0E0,2.8871357E-2,0E0,0E0],"parents":[2147483647,0,0,2,2],"right_children":[2,-1,4,-1,-1],"split_conditions":[2.6883E4,-4.8933204E-2,2.3255814E4,1.0243322E-2,4.7773745E-2],"split_indices":[66,0,38,0,0],"split_type":[0,0,0,0,0],"sum_hessian":[4.131271E0,2.1264608E0,2.00481E0,1.0024484E0,1.0023617E0],"tree_param":{"num_deleted":"0","num_feature":"78","num_nodes":"5","size_leaf_vector":"1"}},{"base_weights":[1.2868877E-1,5.0507545E-1,-5.610572E-2,5.928451E-3,6.430949E-2],"categories":[],"categories_nodes":[],"categories_segments":[],"categories_sizes":[],"default_left":[0,0,0,0,0],"id":129,"left_children":[1,3,-1,-1,-1],"loss_changes":[1.6100864E0,1.9767779E-1,0E0,0E0,0E0],"parents":[2147483647,0,0,1,1],"right_children":[2,4,-1,-1,-1],"split_conditions":[2.3E1,6.949271E1,-5.610572E-2,5.928451E-3,6.430949E-2],"split_indices":[0,37,0,0,0],"split_type":[0,0,0,0,0],"sum_hessian":[4.110374E0,2.832466E0,1.2779081E0,1.0075864E0,1.8248795E0],"tree_param":{"num_deleted":"0","num_feature":"78","num_nodes":"5","size_leaf_vector":"1"}},{"base_weights":[-6.140209E-2,3.657166E-1,-4.980963E-2,5.3651067E-3,5.036316E-2],"categories":[],"categories_nodes":[],"categories_segments":[],"categories_sizes":[],"default_left":[0,0,0,0,0],"id":130,"left_children":[1,3,-1,-1,-1],"loss_changes":[1.1136572E0,1.0645661E-1,0E0,0E0,0E0],"parents":[2147483647,0,0,1,1],"right_children":[2,4,-1,-1,-1],"split_conditions":[8E0,5.882353E4,-4.980963E-2,5.3651067E-3,5.036316E-2],"split_indices":[20,38,0,0,0],"split_type":[0,0,0,0,0],"sum_hessian":[3.994069E0,2.1013398E0,1.8927293E0,1.0697625E0,1.0315775E0],"tree_param":{"num_deleted":"0","num_feature":"78","num_nodes":"5","size_leaf_vector":"1"}},{"base_weights":[-5.8615264E-2,3.4937167E-1,-4.7375716E-2,6.1873808E-3,4.6773903E-2],"categories":[],