{"learner":{"attributes":{"best_iteration":"209","best_score":"6.64127861203e-06","scikit_learn":"{\"_estimator_type\": \"classifier\"}"},"feature_names":[],"feature_types":[],"gradient_booster":{"model":{"gbtree_model_param":{"num_parallel_tree":"1","num_trees":"240"},"iteration_indptr":[0,1,2,3,4,5,6,7,8,9,10,11,12,13,14,15,16,17,18,19,20,21,22,23,24,25,26,27,28,29,30,31,32,33,34,35,36,37,38,39,40,41,42,43,44,45,46,47,48,49,50,51,52,53,54,55,56,57,58,59,60,61,62,63,64,65,66,67,68,69,70,71,72,73,74,75,76,77,78,79,80,81,82,83,84,85,86,87,88,89,90,91,92,93,94,95,96,97,98,99,100,101,102,103,104,105,106,107,108,109,110,111,112,113,114,115,116,117,118,119,120,121,122,123,124,125,126,127,128,129,130,131,132,133,134,135,136,137,138,139,140,141,142,143,144,145,146,147,148,149,150,151,152,153,154,155,156,157,158,159,160,161,162,163,164,165,166,167,168,169,170,171,172,173,174,175,176,177,178,179,180,181,182,183,184,185,186,187,188,189,190,191,192,193,194,195,196,197,198,199,200,201,202,203,204,205,206,207,208,209,210,211,212,213,214,215,216,217,218,219,220,221,222,223,224,225,226,227,228,229,230,231,232,233,234,235,236,237,238,239,240],"tree_info":[0,0,0,0,0,0,0,0,0,0,0,0,0,0,0,0,0,0,0,0,0,0,0,0,0,0,0,0,0,0,0,0,0,0,0,0,0,0,0,0,0,0,0,0,0,0,0,0,0,0,0,0,0,0,0,0,0,0,0,0,0,0,0,0,0,0,0,0,0,0,0,0,0,0,0,0,0,0,0,0,0,0,0,0,0,0,0,0,0,0,0,0,0,0,0,0,0,0,0,0,0,0,0,0,0,0,0,0,0,0,0,0,0,0,0,0,0,0,0,0,0,0,0,0,0,0,0,0,0,0,0,0,0,0,0,0,0,0,0,0,0,0,0,0,0,0,0,0,0,0,0,0,0,0,0,0,0,0,0,0,0,0,0,0,0,0,0,0,0,0,0,0,0,0,0,0,0,0,0,0,0,0,0,0,0,0,0,0,0,0,0,0,0,0,0,0,0,0,0,0,0,0,0,0,0,0,0,0,0,0,0,0,0,0,0,0,0,0,0,0,0,0,0,0,0,0,0,0,0,0,0,0,0,0,0,0,0,0,0,0],"trees":[{"base_weights":[1.162748E-3,-1.9999777E-1,1.9791281E0,1.9976603E0,-1.9952494E-1,1.9999336E-1,-1.9617225E-1],"categories":[],"categories_nodes":[],"categories_segments":[],"categories_sizes":[],"default_left":[0,0,0,0,0,0,0],"id":0,"left_children":[1,-1,3,5,-1,-1,-1],"loss_changes":[7.130741E5,0E0,6.6770312E3,8.155625E2,0E0,0E0,0E0],"parents":[2147483647,0,0,2,2,3,3],"right_children":[2,-1,4,6,-1,-1,-1],"split_conditions":[3.2E1,-1.9999777E-1,5.3E1,5.79464E5,-1.9952494E-1,1.9999336E-1,-1.9617225E-1],"split_indices":[33,0,0,1,0,0,0],"split_type":[0,0,0,0,0,0,0],"sum_hessian":[1.8014973E5,8.955025E4,9.0599484E4,9.0179484E4,4.2E2,9.0128234E4,5.125E1],"tree_param":{"num_deleted":"0","num_feature":"34","num_nodes":"7","size_leaf_vector":"1"}},{"base_weights":[-8.021369E-4,-1.8187122E-1,1.7995461E0,1.8166113E0,-1.8148093E-1,1.818671E-1,-1.7865032E-1],"categories":[],"categories_nodes":[],"categories_segments":[],"categories_sizes":[],"default_left":[0,0,0,0,0,0,0],"id":1,"left_children":[1,-1,3,5,-1,-1,-1],"loss_changes":[5.843431E5,0E0,5.5362188E3,6.6584375E2,0E0,0E0,0E0],"parents":[2147483647,0,0,2,2,3,3],"right_children":[2,-1,4,6,-1,-1,-1],"split_conditions":[3.2E1,-1.8187122E-1,5.3E1,5.79464E5,-1.8148093E-1,1.818671E-1,-1.7865032E-1],"split_indices":[33,0,0,1,0,0,0],"split_type":[0,0,0,0,0,0,0],"sum_hessian":[1.7853945E5,8.883644E4,8.9703016E4,8.928197E4,4.2104562E2,8.923145E4,5.0512466E1],"tree_param":{"num_deleted":"0","num_feature":"34","num_nodes":"7","size_leaf_vector":"1"}},{"base_weights":[1.8114721E-3,-1.682565E-1,1.6645042E0,1.6804891E0,-1.6791372E-1,1.682525E-1,-1.6559471E-1],"categories":[],"categories_nodes":[],"categories_segments":[],"categories_sizes":[],"default_left":[0,0,0,0,0,0,0],"id":2,"left_children":[1,-1,3,5,-1,-1,-1],"loss_changes":[4.8712534E5,0E0,4.6811875E3,5.945469E2,0E0,0E0,0E0],"parents":[2147483647,0,0,2,2,3,3],"right_children":[2,-1,4,6,-1,-1,-1],"split_conditions":[3.2E1,-1.682565E-1,5.3E1,5.79464E5,-1.6791372E-1,1.682525E-1,-1.6559471E-1],"split_indices":[33,0,0,1,0,0,0],"split_type":[0,0,0,0,0,0,0],"sum_hessian":[1.7393405E5,8.640361E4,8.753044E4,8.711447E4,4.1597037E2,8.706184E4,5.262974E1],"tree_param":{"num_deleted":"0","num_feature":"34","num_nodes":"7","size_leaf_vector":"1"}},{"base_weights":[1.4021658E-4,-1.5768586E-1,1.5599743E0,1.5749087E0,-1.5736221E-1,1.5768059E-1,-1.551622E-1],"categories":[],"categories_nodes":[],"categories_segments":[],"categories_sizes":[],"default_left":[0,0,0,0,0,0,0],"id":3,"left_children":[1,-1,3,5,-1,-1,-1],"loss_changes":[4.1132244E5,0E0,3.9365469E3,4.9871875E2,0E0,0E0,0E0],"parents":[2147483647,0,0,2,2,3,3],"right_children":[2,-1,4,6,-1,-1,-1],"split_conditions":[3.2E1,-1.5768586E-1,5.3E1,5.79464E5,-1.5736221E-1,1.5768059E-1,-1.551622E-1],"split_indices":[33,0,0,1,0,0,0],"split_type":[0,0,0,0,0,0,0],"sum_hessian":[1.67212E5,8.314851E4,8.406349E4,8.366525E4,3.9824042E2,8.361501E4,5.0241577E1],"tree_param":{"num_deleted":"0","num_feature":"34","num_nodes":"7","size_leaf_vector":"1"}},{"base_weights":[-1.6883807E-3,-1.4927028E-1,1.4768852E0,1.490998E0,-1.4895408E-1,1.4926738E-1,-1.4659391E-1],"categories":[],"categories_nodes":[],"categories_segments":[],"categories_sizes":[],"default_left":[0,0,0,0,0,0,0],"id":4,"left_children":[1,-1,3,5,-1,-1,-1],"loss_changes":[3.514893E5,0E0,3.3535781E3,3.9698438E2,0E0,0E0,0E0],"parents":[2147483647,0,0,2,2,3,3],"right_children":[2,-1,4,6,-1,-1,-1],"split_conditions":[3.2E1,-1.4927028E-1,5.3E1,5.79464E5,-1.4895408E-1,1.4926738E-1,-1.4659391E-1],"split_indices":[33,0,0,1,0,0,0],"split_type":[0,0,0,0,0,0,0],"sum_hessian":[1.5943438E5,7.938322E4,8.005116E4,7.967261E4,3.7854666E2,7.962798E4,4.463041E1],"tree_param":{"num_deleted":"0","num_feature":"34","num_nodes":"7","size_leaf_vector":"1"}},{"base_weights":[6.200094E-4,-1.4243798E-1,1.4088906E0,1.4225628E0,-1.4212786E-1,1.4243226E-1,-1.4006549E-1],"categories":[],"categories_nodes":[],"categories_segments":[],"categories_sizes":[],"default_left":[0,0,0,0,0,0,0],"id":5,"left_children":[1,-1,3,5,-1,-1,-1],"loss_changes":[3.025307E5,0E0,2.9359375E3,3.7685938E2,0E0,0E0,0E0],"parents":[2147483647,0,0,2,2,3,3],"right_children":[2,-1,4,6,-1,-1,-1],"split_conditions":[3.2E1,-1.4243798E-1,5.3E1,5.79464E5,-1.4212786E-1,1.4243226E-1,-1.4006549E-1],"split_indices":[33,0,0,1,0,0,0],"split_type":[0,0,0,0,0,0,0],"sum_hessian":[1.5075188E5,7.4930875E4,7.582101E4,7.5456984E4,3.6402747E2,7.541048E4,4.6504974E1],"tree_param":{"num_deleted":"0","num_feature":"34","num_nodes":"7","size_leaf_vector":"1"}},{"base_weights":[-3.5978795E-4,-1.3680369E-1,1.3535734E0,1.3662975E0,-1.3647337E-1,1.367976E-1,-1.3435224E-1],"categories":[],"categories_nodes":[],"categories_segments":[],"categories_sizes":[],"default_left":[0,0,0,0,0,0,0],"id":6,"left_children":[1,-1,3,5,-1,-1,-1],"loss_changes":[2.625786E5,0E0,2.4665547E3,3.2445312E2,0E0,0E0,0E0],"parents":[2147483647,0,0,2,2,3,3],"right_children":[2,-1,4,6,-1,-1,-1],"split_conditions":[3.2E1,-1.3680369E-1,5.3E1,5.79464E5,-1.3647337E-1,1.367976E-1,-1.3435224E-1],"split_indices":[33,0,0,1,0,0,0],"split_type":[0,0,0,0,0,0,0],"sum_hessian":[1.4179875E5,7.0541336E4,7.1257414E4,7.0925914E4,3.3149765E2,7.08825E4,4.3410175E1],"tree_param":{"num_deleted":"0","num_feature":"34","num_nodes":"7","size_leaf_vector":"1"}},{"base_weights":[-5.6621275E-4,-1.320977E-1,1.3069004E0,1.3193451E0,-1.3175954E-1,1.320927E-1,-1.2946816E-1],"categories":[],"categories_nodes":[],"categories_segments":[],"categories_sizes":[],"default_left":[0,0,0,0,0,0,0],"id":7,"left_children":[1,-1,3,5,-1,-1,-1],"loss_changes":[2.2872358E5,0E0,2.1759531E3,2.7570312E2,0E0,0E0,0E0],"parents":[2147483647,0,0,2,2,3,3],"right_children":[2,-1,4,6,-1,-1,-1],"split_conditions":[3.2E1,-1.320977E-1,5.3E1,5.79464E5,-1.3175954E-1,1.320927E-1,-1.2946816E-1],"split_indices":[33,0,0,1,0,0,0],"split_type":[0,0,0,0,0,0,0],"sum_hessian":[1.3248439E5,6.591591E4,6.656849E4,6.625483E4,3.136653E2,6.621525E4,3.95777E1],"tree_param":{"num_deleted":"0","num_feature":"34","num_nodes":"7","size_leaf_vector":"1"}},{"base_weights":[1.2566895E-3,-1.2812546E-1,1.2675402E0,1.2797457E0,-1.2777571E-1,-1.2519115E-1,1.2812006E-1],"categories":[],"categories_nodes":[],"categories_segments":[],"categories_sizes":[],"default_left":[0,0,0,0,0,0,0],"id":8,"left_children":[1,-1,3,5,-1,-1,-1],"loss_changes":[2.0064802E5,0E0,1.9329844E3,2.2950781E2,0E0,0E0,0E0],"parents":[2147483647,0,0,2,2,3,3],"right_children":[2,-1,4,6,-1,-1,-1],"split_conditions":[3.2E1,-1.2812546E-1,5.3E1,1.2204385E1,-1.2777571E-1,-1.2519115E-1,1.2812006E-1],"split_indices":[33,0,0,10,0,0,0],"split_type":[0,0,0,0,0,0,0],"sum_hessian":[1.23547984E5,6.1380684E4,6.21673E4,6.187111E4,2.961931E2,3.504358E1,6.1836066E4],"tree_param":{"num_deleted":"0","num_feature":"34","num_nodes":"7","size_leaf_vector":"1"}},{"base_weights":[6.0635302E-5,-1.2474282E-1,1.2337673E0,1.2425582E0,-1.2153507E0,1.2466583E0,-1.0531543E0,5.5761266E-2,-1.2350402E-1,1.2470533E0,-1.1244195E-1,-1.1367642E0,9.7705886E-2,1.2470955E-1,-3.5031687E-2,-4.021795E-2,-1.167515E0,-6.994564E-2,5.82318E-2,-7.364342E-2,-1.1973002E-1],"categories":[],"categories_nodes":[],"categories_segments":[],"categories_sizes":[],"default_left":[0,0,0,0,0,0,0,0,0,0,0,0,0,0,0,0,0,0,0,0,0],"id":9,"left_children":[1,-1,3,5,7,9,11,-1,-1,13,-1,15,-1,-1,-1,17,19,-1,-1,-1,-1],"loss_changes":[1.7661712E5,0E0,1.2437578E3,5.4246094E2,7.910187E0,5.5125E1,1.860109E1,0E0,0E0,4.3046875E0,0E0,3.3056335E0,0E0,0E0,0E0,1.9454161E0,3.5960388E-1,0E0,0E0,0E0,0E0],"parents":[2147483647,0,0,2,2,3,3,4,4,5,5,6,6,9,9,11,11,15,15,16,16],"right_children":[2,-1,4,6,8,10,12,-1,-1,14,-1,16,-1,-1,-1,18,20,-1,-1,-1,-1],"split_conditions":[3.2E1,-1.2474282E-1,4.5E1,1.01E2,7.2E1,2.41E2,2.4E1,5.5761266E-2,-1.2350402E-1,4.9881945E4,-1.1244195E-1,8.2764E4,9.7705886E-2,1.2470955E-1,-3.5031687E-2,2.4E1,1.57E2,-6.994564E-2,5.82318E-2,-7.364342E-2,-1.1973002E-1],"split_indices":[33,0,14,21,13,32,2,0,0,12,0,18,0,0,0,19,21,0,0,0,0],"split_type":[0,0,0,0,0,0,0,0,0,0,0,0,0,0,0,0,0,0,0,0,0],"sum_hessian":[1.14756336E5,5.7059445E4,5.769689E4,5.749102E4,2.0586873E2,5.7388984E4,1.02038734E2,1.9610769E0,2.0390765E2,5.7379902E4,9.081278E0,9.842538E1,3.613358E0,5.7378605E4,1.2971566E0,2.7478344E0,9.5677536E1,1.2745653E0,1.4732691E0,7.8460956E0,8.783144E1],"tree_param":{"num_deleted":"0","num_feature":"34","num_nodes":"21","size_leaf_vector":"1"}},{"base_weights":[1.2107005E-4,1.1703564E0,-1.2184226E-1,1.2168919E0,-1.2008345E0,-1.17613554E-1,1.2181692E0,9.1002874E-2,-1.2123272E0,-9.272885E-2,1.2183133E0,-1.2174314E-1,8.6948745E-2,1.2183269E-1,3.410926E-2],"categories":[],"categories_nodes":[],"categories_segments":[],"categories_sizes":[],"default_left":[0,0,0,0,0,0,0,0,0,0,0,0,0,0,0],"id":10,"left_children":[1,3,-1,5,7,-1,9,-1,11,-1,13,-1,-1,-1,-1],"loss_changes":[1.5120231E5,5.9698906E3,0E0,1.6357812E2,2.6371826E1,0E0,1.7539062E1,0E0,1.2070923E1,0E0,2.1875E-1,0E0,0E0,0E0,0E0],"parents":[2147483647,0,0,1,1,3,3,4,4,6,6,8,8,10,10],"right_children":[2,4,-1,6,8,-1,10,-1,12,-1,14,-1,-1,-1,-1],"split_conditions":[5.3E1,3.8E1,-1.2184226E-1,3.2E1,5.7E1,-1.17613554E-1,1.4447162E1,9.1002874E-2,1E0,-9.272885E-2,7.33E2,-1.2174314E-1,8.6948745E-2,1.2183269E-1,3.410926E-2],"split_indices":[0,14,0,22,1,0,10,0,28,0,19,0,0,0,0],"split_type":[0,0,0,0,0,0,0,0,0,0,0,0,0,0,0],"sum_hessian":[1.06031766E5,5.4088043E4,5.1943727E4,5.3047453E4,1.0405885E3,2.7808208E1,5.3019645E4,5.2114983E0,1.035377E3,3.131253E0,5.3016516E4,1.0332588E3,2.1181023E0,5.301531E4,1.2061088E0],"tree_param":{"num_deleted":"0","num_feature":"34","num_nodes":"15","size_leaf_vector":"1"}},{"base_weights":[-1.4511101E-3,-1.1933511E-1,1.1805136E0,1.1917664E0,-1.19117655E-1,-1.1615153E-1,1.19327165E-1],"categories":[],"categories_nodes":[],"categories_segments":[],"categories_sizes":[],"default_left":[0,0,0,0,0,0,0],"id":11,"left_children":[1,-1,3,5,-1,-1,-1],"loss_changes":[1.3779836E5,0E0,1.3121094E3,1.7453906E2,0E0,0E0,0E0],"parents":[2147483647,0,0,2,2,3,3],"right_children":[2,-1,4,6,-1,-1,-1],"split_conditions":[3.2E1,-1.1933511E-1,5.3E1,1.2204385E1,-1.19117655E-1,-1.1615153E-1,1.19327165E-1],"split_indices":[33,0,0,10,0,0,0],"split_type":[0,0,0,0,0,0,0],"sum_hessian":[9.781172E4,4.8701176E4,4.9110547E4,4.8879133E4,2.3141573E2,3.0752499E1,4.884838E4],"tree_param":{"num_deleted":"0","num_feature":"34","num_nodes":"7","size_leaf_vector":"1"}},{"base_weights":[2.0641783E-5,-1.1715962E-1,1.1588299E0,1.1700568E0,-1.1690116E-1,1.1715291E-1,-1.1371907E-1],"categories":[],"categories_nodes":[],"categories_segments":[],"categories_sizes":[],"default_left":[0,0,0,0,0,0,0],"id":12,"left_children":[1,-1,3,5,-1,-1,-1],"loss_changes":[1.2241631E5,0E0,1.1860508E3,1.5458203E2,0E0,0E0,0E0],"parents":[2147483647,0,0,2,2,3,3],"right_children":[2,-1,4,6,-1,-1,-1],"split_conditions":[3.2E1,-1.1715962E-1,5.3E1,5.79464E5,-1.1690116E-1,1.1715291E-1,-1.1371907E-1],"split_indices":[33,0,0,1,0,0,0],"split_type":[0,0,0,0,0,0,0],"sum_hessian":[9.0163766E4,4.4834117E4,4.532965E4,4.5112574E4,2.1707483E2,4.5084297E4,2.8275326E1],"tree_param":{"num_deleted":"0","num_feature":"34","num_nodes":"7","size_leaf_vector":"1"}},{"base_weights":[4.2880408E-4,-1.15262054E-1,1.1400396E0,1.1511155E0,-1.1493812E-1,1.15254365E-1,-1.1149478E-1],"categories":[],"categories_nodes":[],"categories_segments":[],"categories_sizes":[],"default_left":[0,0,0,0,0,0,0],"id":13,"left_children":[1,-1,3,5,-1,-1,-1],"loss_changes":[1.0883205E5,0E0,1.057582E3,1.3542969E2,0E0,0E0,0E0],"parents":[2147483647,0,0,2,2,3,3],"right_children":[2,-1,4,6,-1,-1,-1],"split_conditions":[3.2E1,-1.15262054E-1,5.3E1,5.79464E5,-1.1493812E-1,1.15254365E-1,-1.1149478E-1],"split_indices":[33,0,0,1,0,0,0],"split_type":[0,0,0,0,0,0,0],"sum_hessian":[8.282127E4,4.11679E4,4.165337E4,4.145332E4,2.0005E2,4.1427707E4,2.5615934E1],"tree_param":{"num_deleted":"0","num_feature":"34","num_nodes":"7","size_leaf_vector":"1"}},{"base_weights":[-1.2344893E-3,6.7075026E-1,-1.0454534E0,-1.1345191E-1,1.033314E0,-1.1240109E0,4.794577E-1,1.1171767E0,-1.0834012E0,-1.131774E0,-5.961092E-1,1.0566846E0,-1.1330805E-1,-1.1303637E-1,1.1293691E0,-1.135236E-1,9.265613E-1,-1.1341456E0,1.767528E-1,6.6048235E-1,-1.1321069E-1,-1.0848494E-1,1.0701969E0,1.1331236E0,-1.1188092E-1,-8.4124215E-2,1.0963327E-1,-1.13550924E-1,-9.2163235E-1,1.09056465E-1,-1.0845796E-1,-1.3811591E-1,1.0751806E0,1.0836581E0,-9.85649E-2,-1.0866989E-1,1.13448225E-1,-1.1173364E-1,1.0121264E-1,-1.0905623E-1,1.07781045E-1,1.1218505E-1,-7.137627E-2,1.02705136E-1,1.1339891E-1],"categories":[],"categories_nodes":[],"categories_segments":[],"categories_sizes":[],"default_left":[0,0,0,0,0,0,0,0,0,0,0,0,0,0,0,0,0,0,0,0,0,0,0,0,0,0,0,0,0,0,0,0,0,0,0,0,0,0,0,0,0,0,0,0,0],"id":14,"left_children":[1,3,5,-1,7,9,11,13,15,17,19,21,-1,-1,23,-1,25,27,29,31,-1,-1,33,35,-1,-1,-1,-1,37,-1,-1,39,41,43,-1,-1,-1,-1,-1,-1,-1,-1,-1,-1,-1],"loss_changes":[5.3373926E4,3.0293125E4,3.5683398E3,0E0,6.842754E3,1.1540234E2,1.360014E3,1.0171875E3,1.541305E2,8.6828125E1,2.7864273E2,3.228369E1,0E0,0E0,3.125E2,0E0,1.2173641E1,7.0273438E0,6.0387047E1,4.121465E1,0E0,0E0,3.0659912E1,1.12265625E2,0E0,0E0,0E0,0E0,7.037004E1,0E0,0E0,5.1285305E1,7.624489E0,1.8635254E0,0E0,0E0,0E0,0E0,0E0,0E0,0E0,0E0,0E0,0E0,0E0],"parents":[2147483647,0,0,1,1,2,2,4,4,5,5,6,6,7,7,8,8,9,9,10,10,11,11,14,14,16,16,17,17,18,18,19,19,22,22,23,23,28,28,31,31,32,32,33,33],"right_children":[2,4,6,-1,8,10,12,14,16,18,20,22,-1,-1,24,-1,26,28,30,32,-1,-1,34,36,-1,-1,-1,-1,38,-1,-1,40,42,44,-1,-1,-1,-1,-1,-1,-1,-1,-1,-1,-1],"split_conditions":[1E1,4.3250725E1,4.7619047E4,-1.1345191E-1,2.2017125E4,3.3333332E4,2.31E2,2.39E2,2.6883E4,6.48E2,2.31E2,2.39E2,-1.1330805E-1,-1.1303637E-1,2.41E2,-1.135236E-1,6.48E2,2.7777777E4,5.79464E5,2.336E4,-1.1321069E-1,-1.0848494E-1,2.92E4,1E0,-1.1188092E-1,-8.4124215E-2,1.0963327E-1,-1.13550924E-1,1E0,1.09056465E-1,-1.0845796E-1,2.27E2,2.92E4,2.8E1,-9.85649E-2,-1.0866989E-1,1.13448225E-1,-1.1173364E-1,1.0121264E-1,-1.0905623E-1,1.07781045E-1,1.1218505E-1,-7.137627E-2,1.02705136E-1,1.1339891E-1],"split_indices":[14,25,25,0,9,25,32,31,31,23,32,31,0,0,32,0,23,25,1,31,0,0,31,14,0,0,0,0,27,0,0,32,31,23,0,0,0,0,0,0,0,0,0,0,0],"split_type":[0,0,0,0,0,0,0,0,0,0,0,0,0,0,0,0,0,0,0,0,0,0,0,0,0,0,0,0,0,0,0,0,0,0,0,0,0,0,0,0,0,0,0,0,0],"sum_hessian":[7.606183E4,4.627981E4,2.978202E4,7.7398047E3,3.854E4,2.8323184E4,1.4588368E3,3.707172E4,1.4682814E3,2.7911588E4,4.115948E2,1.074538E3,3.8429877E2,1.9952757E2,3.687219E4,1.4317922E3,3.6489223E1,2.7861223E4,5.0364902E1,1.23000496E2,2.885943E2,6.240262E0,1.0682977E3,3.6811215E4,6.097903E1,2.8506541E0,3.363857E1,2.7679266E4,1.8195728E2,2.9284334E1,2.1080568E1,4.2268875E1,8.073163E1,1.0618181E3,6.47967E0,2.2029194E1,3.6789184E4,1.6561826E2,1.6339027E1,2.3760307E1,1.8508566E1,7.9042465E1,1.6891601E0,5.098273E2,5.519908E2],"tree_param":{"num_deleted":"0","num_feature":"34","num_nodes":"45","size_leaf_vector":"1"}},{"base_weights":[1.219265E-3,-1.121444E-1,1.1090294E0,1.1169052E0,-1.0780417E0,1.1206031E0,-8.962805E-1,-1.0869606E-1,7.039788E-4,1.1208915E0,-9.2051245E-2,-1.1038647E-1,8.6274457E-1,1.1209344E-1,2.795638E-1,9.553098E-2,1.9294273E-2,-5.5212467E-3,4.802447E-2],"categories":[],"categories_nodes":[],"categories_segments":[],"categories_sizes":[],"default_left":[0,0,0,0,0,0,0,0,0,0,0,0,0,0,0,0,0,0,0],"id":15,"left_children":[1,-1,3,5,7,9,11,-1,-1,13,-1,-1,15,-1,17,-1,-1,-1,-1],"loss_changes":[8.659237E4,0E0,6.0483203E2,2.6096875E2,1.2294922E0,2.1546875E1,2.4533432E1,0E0,0E0,9.4140625E-1,0E0,0E0,2.731185E-1,0E0,2.3529811E-1,0E0,0E0,0E0,0E0],"parents":[2147483647,0,0,2,2,3,3,4,4,5,5,6,6,9,9,12,12,14,14],"right_children":[2,-1,4,6,8,10,12,-1,-1,14,-1,-1,16,-1,18,-1,-1,-1,-1],"split_conditions":[3.2E1,-1.121444E-1,4.5E1,1.01E2,1.5873016E4,5.4135246E4,9.76E2,-1.0869606E-1,7.039788E-4,1.4463155E2,-9.2051245E-2,-1.1038647E-1,2.4489463E4,1.1209344E-1,2.4247562E4,9.553098E-2,1.9294273E-2,-5.5212467E-3,4.802447E-2],"split_indices":[33,0,14,21,24,12,8,0,0,7,0,0,12,0,12,0,0,0,0],"split_type":[0,0,0,0,0,0,0,0,0,0,0,0,0,0,0,0,0,0,0],"sum_hessian":[6.962293E4,3.4579645E4,3.5043285E4,3.4918035E4,1.2525195E2,3.4854453E4,6.3579906E1,1.2422912E2,1.0228342E0,3.484998E4,4.472488E0,5.7201912E1,6.3779936E0,3.4847875E4,2.1076605E0,5.229087E0,1.1489065E0,1.0615894E0,1.0460713E0],"tree_param":{"num_deleted":"0","num_feature":"34","num_nodes":"19","size_leaf_vector":"1"}},{"base_weights":[5.097074E-4,-1.10855244E-1,1.0963172E0,1.107047E0,-1.1069542E-1,1.1084216E-1,-1.06006674E-1],"categories":[],"categories_nodes":[],"categories_segments":[],"categories_sizes":[],"default_left":[0,0,0,0,0,0,0],"id":16,"left_children":[1,-1,3,5,-1,-1,-1],"loss_changes":[7.737279E4,0E0,7.5828516E2,9.611328E1,0E0,0E0,0E0],"parents":[2147483647,0,0,2,2,3,3],"right_children":[2,-1,4,6,-1,-1,-1],"split_conditions":[3.2E1,-1.10855244E-1,5.3E1,5.79464E5,-1.1069542E-1,1.1084216E-1,-1.06006674E-1],"split_indices":[33,0,0,1,0,0,0],"split_type":[0,0,0,0,0,0,0],"sum_hessian":[6.3662613E4,3.1639945E4,3.2022668E4,3.186797E4,1.546972E2,3.1848258E4,1.9713615E1],"tree_param":{"num_deleted":"0","num_feature":"34","num_nodes":"7","size_leaf_vector":"1"}},{"base_weights":[-2.2660077E-4,-1.0971575E-1,1.0851182E0,1.0957764E0,-1.09422386E-1,1.0970739E-1,-1.0415526E-1],"categories":[],"categories_nodes":[],"categories_segments":[],"categories_sizes":[],"default_left":[0,0,0,0,0,0,0],"id":17,"left_children":[1,-1,3,5,-1,-1,-1],"loss_changes":[6.922706E4,0E0,6.801094E2,8.1796875E1,0E0,0E0,0E0],"parents":[2147483647,0,0,2,2,3,3],"right_children":[2,-1,4,6,-1,-1,-1],"split_conditions":[3.2E1,-1.0971575E-1,5.3E1,5.79464E5,-1.09422386E-1,1.0970739E-1,-1.0415526E-1],"split_indices":[33,0,0,1,0,0,0],"split_type":[0,0,0,0,0,0,0],"sum_hessian":[5.814521E4,2.8918248E4,2.922696E4,2.9085215E4,1.4174696E2,2.9068057E4,1.715855E1],"tree_param":{"num_deleted":"0","num_feature":"34","num_nodes":"7","size_leaf_vector":"1"}},{"base_weights":[-1.8787235E-3,-1.0870542E-1,1.0749519E0,1.0855027E0,-1.0830917E-1,1.0868867E-1,-1.03104845E-1],"categories":[],"categories_nodes":[],"categories_segments":[],"categories_sizes":[],"default_left":[0,0,0,0,0,0,0],"id":18,"left_children":[1,-1,3,5,-1,-1,-1],"loss_changes":[6.2053156E4,0E0,6.080586E2,7.881445E1,0E0,0E0,0E0],"parents":[2147483647,0,0,2,2,3,3],"right_children":[2,-1,4,6,-1,-1,-1],"split_conditions":[3.2E1,-1.0870542E-1,5.3E1,5.79464E5,-1.0830917E-1,1.0868867E-1,-1.03104845E-1],"split_indices":[33,0,0,1,0,0,0],"split_type":[0,0,0,0,0,0,0],"sum_hessian":[5.3100688E4,2.6447861E4,2.6652826E4,2.6523648E4,1.2917853E2,2.6506803E4,1.6845037E1],"tree_param":{"num_deleted":"0","num_feature":"34","num_nodes":"7","size_leaf_vector":"1"}},{"base_weights":[-1.5618296E-3,-1.078079E-1,1.0661389E0,1.0765523E0,-1.0726329E-1,1.0779748E-1,-1.0190954E-1],"categories":[],"categories_nodes":[],"categories_segments":[],"categories_sizes":[],"default_left":[0,0,0,0,0,0,0],"id":19,"left_children":[1,-1,3,5,-1,-1,-1],"loss_changes":[5.5661555E4,0E0,5.4264844E2,7.322461E1,0E0,0E0,0E0],"parents":[2147483647,0,0,2,2,3,3],"right_children":[2,-1,4,6,-1,-1,-1],"split_conditions":[3.2E1,-1.078079E-1,5.3E1,5.79464E5,-1.0726329E-1,1.0779748E-1,-1.0190954E-1],"split_indices":[33,0,0,1,0,0,0],"split_type":[0,0,0,0,0,0,0],"sum_hessian":[4.842469E4,2.4112787E4,2.4311906E4,2.4194602E4,1.1730362E2,2.4178676E4,1.5926097E1],"tree_param":{"num_deleted":"0","num_feature":"34","num_nodes":"7","size_leaf_vector":"1"}},{"base_weights":[-2.23905E-4,1.0277617E0,-1.0701058E-1,-1.06201306E-1,1.0690979E0,-9.35995E-2,1.0697238E0,-6.390628E-2,1.0698656E-1],"categories":[],"categories_nodes":[],"categories_segments":[],"categories_sizes":[],"default_left":[0,0,0,0,0,0,0,0,0],"id":20,"left_children":[1,3,-1,-1,5,-1,7,-1,-1],"loss_changes":[4.859952E4,1.9478242E3,0E0,0E0,2.8738281E1,0E0,6.0351562E0,0E0,0E0],"parents":[2147483647,0,0,1,1,4,4,6,6],"right_children":[2,4,-1,-1,6,-1,8,-1,-1],"split_conditions":[5.3E1,0E0,-1.0701058E-1,-1.06201306E-1,3.2E1,-9.35995E-2,2.1155739E1,-6.390628E-2,1.0698656E-1],"split_indices":[0,32,0,0,22,0,10,0,0],"split_type":[0,0,0,0,0,0,0,0,0],"sum_hessian":[4.418649E4,2.2534486E4,2.1652004E4,4.366118E2,2.2097873E4,6.4309173E0,2.2091443E4,1.4579115E0,2.2089984E4],"tree_param":{"num_deleted":"0","num_feature":"34","num_nodes":"9","size_leaf_vector":"1"}},{"base_weights":[-3.1086768E-4,-1.06296994E-1,1.0510147E0,1.0614644E0,-1.0558691E-1,1.0627895E-1,-9.884347E-2],"categories":[],"categories_nodes":[],"categories_segments":[],"categories_sizes":[],"default_left":[0,0,0,0,0,0,0],"id":21,"left_children":[1,-1,3,5,-1,-1,-1],"loss_changes":[4.486413E4,0E0,4.4555664E2,5.561328E1,0E0,0E0,0E0],"parents":[2147483647,0,0,2,2,3,3],"right_children":[2,-1,4,6,-1,-1,-1],"split_conditions":[3.2E1,-1.06296994E-1,5.3E1,5.79464E5,-1.0558691E-1,1.0627895E-1,-9.884347E-2],"split_indices":[33,0,0,1,0,0,0],"split_type":[0,0,0,0,0,0,0],"sum_hessian":[4.0155637E4,1.9970172E4,2.0185465E4,2.0086336E4,9.912828E1,2.0073842E4,1.2494193E1],"tree_param":{"num_deleted":"0","num_feature":"34","num_nodes":"7","size_leaf_vector":"1"}},{"base_weights":[-9.0122176E-4,-1.0566089E-1,1.044645E0,1.0550076E0,-1.0482154E-1,1.05635524E-1,-9.773513E-2],"categories":[],"categories_nodes":[],"categories_segments":[],"categories_sizes":[],"default_left":[0,0,0,0,0,0,0],"id":22,"left_children":[1,-1,3,5,-1,-1,-1],"loss_changes":[4.0373258E4,0E0,3.996543E2,5.1117188E1,0E0,0E0,0E0],"parents":[2147483647,0,0,2,2,3,3],"right_children":[2,-1,4,6,-1,-1,-1],"split_conditions":[3.2E1,-1.0566089E-1,5.3E1,5.79464E5,-1.0482154E-1,1.05635524E-1,-9.773513E-2],"split_indices":[33,0,0,1,0,0,0],"split_type":[0,0,0,0,0,0,0],"sum_hessian":[3.65749E4,1.8199006E4,1.837589E4,1.8285846E4,9.004475E1,1.8274209E4,1.1637342E1],"tree_param":{"num_deleted":"0","num_feature":"34","num_nodes":"7","size_leaf_vector":"1"}},{"base_weights":[-9.2938525E-4,-1.05092265E-1,1.0390352E0,1.0464125E0,-9.788029E-1,1.0497924E0,-8.262537E-1,6.3749924E-3,-9.978049E-2,1.0501316E0,-7.686161E-2,3.2246895E-2,-8.950603E-1,1.05017506E-1,1.912334E-2,-1.00084916E-1,-5.7519746E-1,6.656995E-2,-9.1910586E-2],"categories":[],"categories_nodes":[],"categories_segments":[],"categories_sizes":[],"default_left":[0,0,0,0,0,0,0,0,0,0,0,0,0,0,0,0,0,0,0],"id":23,"left_children":[1,-1,3,5,7,9,11,-1,-1,13,-1,-1,15,-1,-1,-1,17,-1,-1],"loss_changes":[3.6342027E4,0E0,2.4993164E2,1.0631445E2,1.2804756E0,1.1066406E1,2.705267E0,0E0,0E0,4.1992188E-1,0E0,0E0,4.0940285E-1,0E0,0E0,0E0,4.7029915E0,0E0,0E0],"parents":[2147483647,0,0,2,2,3,3,4,4,5,5,6,6,9,9,12,12,16,16],"right_children":[2,-1,4,6,8,10,12,-1,-1,14,-1,-1,16,-1,-1,-1,18,-1,-1],"split_conditions":[3.2E1,-1.05092265E-1,4.5E1,1.01E2,1.88E2,2.41E2,8.4721E4,6.3749924E-3,-9.978049E-2,5.43084E5,-7.686161E-2,3.2246895E-2,1.51E2,1.05017506E-1,1.912334E-2,-1.00084916E-1,4.43611E5,6.656995E-2,-9.1910586E-2],"split_indices":[33,0,14,21,1,32,18,0,0,20,0,0,19,0,0,0,1,0,0],"split_type":[0,0,0,0,0,0,0,0,0,0,0,0,0,0,0,0,0,0,0],"sum_hessian":[3.327959E4,1.6559943E4,1.6719646E4,1.665922E4,6.0425087E1,1.6629646E4,2.9574991E1,1.0394622E0,5.9385624E1,1.6626967E4,2.678687E0,1.463038E0,2.8111954E1,1.6625902E4,1.065184E0,1.9525314E1,8.586638E0,1.6602831E0,6.9263554E0],"tree_param":{"num_deleted":"0","num_feature":"34","num_nodes":"19","size_leaf_vector":"1"}},{"base_weights":[-9.964163E-5,-1.0458305E-1,1.033919E0,-1.0278883E-1,1.0410703E0,1.0450016E0,-1.0117542E-1,1.04508005E-1,2.7720869E-2],"categories":[],"categories_nodes":[],"categories_segments":[],"categories_sizes":[],"default_left":[0,0,0,0,0,0,0,0,0],"id":24,"left_children":[1,-1,3,-1,5,7,-1,-1,-1],"loss_changes":[3.2749377E4,0E0,2.2561133E2,0E0,1.2353516E2,6.230469E-1,0E0,0E0,0E0],"parents":[2147483647,0,0,2,2,4,4,5,5],"right_children":[2,-1,4,-1,6,8,-1,-1,-1],"split_conditions":[3.2E1,-1.0458305E-1,2.9492E1,-1.0278883E-1,2.41E2,4.5E1,-1.0117542E-1,1.04508005E-1,2.7720869E-2],"split_indices":[33,0,24,0,32,14,0,0,0],"split_type":[0,0,0,0,0,0,0,0,0],"sum_hessian":[3.0284893E4,1.5057165E4,1.5227728E4,5.2141182E1,1.5175587E4,1.514707E4,2.8516317E1,1.5145161E4,1.9089466E0],"tree_param":{"num_deleted":"0","num_feature":"34","num_nodes":"9","size_leaf_vector":"1"}},{"base_weights":[-5.0560234E-4,-1.04126535E-1,1.0291623E0,1.0397238E0,-1.0326284E-1,1.04100026E-1,-9.3433976E-2],"categories":[],"categories_nodes":[],"categories_segments":[],"categories_sizes":[],"default_left":[0,0,0,0,0,0,0],"id":25,"left_children":[1,-1,3,5,-1,-1,-1],"loss_changes":[2.9467387E4,0E0,3.0206348E2,3.5628906E1,0E0,0E0,0E0],"parents":[2147483647,0,0,2,2,3,3],"right_children":[2,-1,4,6,-1,-1,-1],"split_conditions":[3.2E1,-1.04126535E-1,5.3E1,5.79464E5,-1.0326284E-1,1.04100026E-1,-9.3433976E-2],"split_indices":[33,0,0,1,0,0,0],"split_type":[0,0,0,0,0,0,0],"sum_hessian":[2.7495547E4,1.3674117E4,1.382143E4,1.3751484E4,6.994548E1,1.374307E4,8.414667E0],"tree_param":{"num_deleted":"0","num_feature":"34","num_nodes":"7","size_leaf_vector":"1"}},{"base_weights":[-3.967267E-4,-1.0371705E-1,1.0252889E0,-1.014724E-1,1.0322211E0,1.0361439E0,-9.963608E-2,1.0362498E-1,3.1808797E-1,2.1638352E-4,4.999968E-2],"categories":[],"categories_nodes":[],"categories_segments":[],"categories_sizes":[],"default_left":[0,0,0,0,0,0,0,0,0,0,0],"id":26,"left_children":[1,-1,3,-1,5,7,-1,-1,9,-1,-1],"loss_changes":[2.65575E4,0E0,1.7858301E2,0E0,1.0060156E2,6.1816406E-1,0E0,0E0,1.8763536E-1,0E0,0E0],"parents":[2147483647,0,0,2,2,4,4,5,5,8,8],"right_children":[2,-1,4,-1,6,8,-1,-1,10,-1,-1],"split_conditions":[3.2E1,-1.0371705E-1,2.9492E1,-1.014724E-1,2.41E2,4.5E1,-9.963608E-2,1.0362498E-1,1.777E3,2.1638352E-4,4.999968E-2],"split_indices":[33,0,24,0,32,14,0,0,14,0,0],"split_type":[0,0,0,0,0,0,0,0,0,0,0],"sum_hessian":[2.4972043E4,1.2418889E4,1.2553154E4,4.201963E1,1.2511135E4,1.2487476E4,2.365913E1,1.2485192E4,2.2837882E0,1.204247E0,1.0795412E0],"tree_param":{"num_deleted":"0","num_feature":"34","num_nodes":"11","size_leaf_vector":"1"}},{"base_weights":[3.063781E-5,-1.03349164E-1,1.0214502E0,1.0288736E0,-9.268901E-1,1.0320972E0,-8.444972E-1,-1.010039E-1,5.9610296E-2,1.0324451E0,-6.806725E-2,-3.818502E-1,-9.675197E-2,3.53439E-2,1.03249304E-1,-7.4916385E-2,5.416262E-2],"categories":[],"categories_nodes":[],"categories_segments":[],"categories_sizes":[],"default_left":[0,0,0,0,0,0,0,0,0,0,0,0,0,0,0,0,0],"id":27,"left_children":[1,-1,3,5,7,9,11,-1,-1,13,-1,15,-1,-1,-1,-1,-1],"loss_changes":[2.3960379E4,0E0,1.6605762E2,6.955176E1,6.1556587E0,7.4648438E0,7.737694E-1,0E0,0E0,5.859375E-3,0E0,2.3972917E0,0E0,0E0,0E0,0E0,0E0],"parents":[2147483647,0,0,2,2,3,3,4,4,5,5,6,6,9,9,11,11],"right_children":[2,-1,4,6,8,10,12,-1,-1,14,-1,16,-1,-1,-1,-1,-1],"split_conditions":[3.2E1,-1.03349164E-1,1.01E2,5.4E1,9.76E2,2.41E2,4.257E4,-1.010039E-1,5.9610296E-2,7.7181335E1,-6.806725E-2,4.37E2,-9.675197E-2,3.53439E-2,1.03249304E-1,-7.4916385E-2,5.416262E-2],"split_indices":[33,0,21,14,8,32,1,0,0,10,0,1,0,0,0,0,0],"split_type":[0,0,0,0,0,0,0,0,0,0,0,0,0,0,0,0,0],"sum_hessian":[2.2695064E4,1.1280694E4,1.1414369E4,1.1371515E4,4.2854855E1,1.1352429E4,1.9086016E1,4.0955654E1,1.8991971E0,1.1350521E4,1.9075373E0,4.871147E0,1.4214869E1,1.3217462E0,1.1349199E4,3.6200328E0,1.2511144E0],"tree_param":{"num_deleted":"0","num_feature":"34","num_nodes":"17","size_leaf_vector":"1"}},{"base_weights":[6.601543E-4,9.8944306E-1,-1.0302334E-1,-1.02134325E-1,1.0291183E0,-7.8294665E-2,1.0297399E0,1.0298973E-1,-2.749429E-2],"categories":[],"categories_nodes":[],"categories_segments":[],"categories_sizes":[],"default_left":[0,0,0,0,0,0,0,0,0],"id":28,"left_children":[1,3,-1,-1,5,-1,7,-1,-1],"loss_changes":[2.0965574E4,8.3859863E2,0E0,0E0,1.2401367E1,0E0,2.3964844E0,0E0,0E0],"parents":[2147483647,0,0,1,1,4,4,6,6],"right_children":[2,4,-1,-1,6,-1,8,-1,-1],"split_conditions":[5.3E1,8E0,-1.0302334E-1,-1.02134325E-1,3.2E1,-7.8294665E-2,1.7675E4,1.0298973E-1,-2.749429E-2],"split_indices":[0,23,0,0,22,0,11,0,0],"split_type":[0,0,0,0,0,0,0,0,0],"sum_hessian":[2.0565998E4,1.0497422E4,1.0068576E4,2.026401E2,1.0294781E4,3.09815E0,1.0291684E4,1.0290652E4,1.0313895E0],"tree_param":{"num_deleted":"0","num_feature":"34","num_nodes":"9","size_leaf_vector":"1"}},{"base_weights":[4.967278E-4,-1.0272115E-1,1.0149349E0,1.0256209E0,-1.0146318E-1,1.0270252E-1,-8.912557E-2],"categories":[],"categories_nodes":[],"categories_segments":[],"categories_sizes":[],"default_left":[0,0,0,0,0,0,0],"id":29,"left_children":[1,-1,3,5,-1,-1,-1],"loss_changes":[1.9481703E4,0E0,2.0499414E2,2.6097656E1,0E0,0E0,0E0],"parents":[2147483647,0,0,2,2,3,3],"right_children":[2,-1,4,6,-1,-1,-1],"split_conditions":[3.2E1,-1.0272115E-1,5.3E1,5.79464E5,-1.0146318E-1,1.0270252E-1,-8.912557E-2],"split_indices":[33,0,0,1,0,0,0],"split_type":[0,0,0,0,0,0,0],"sum_hessian":[1.868465E4,9.281612E3,9.403038E3,9.354281E3,4.8757355E1,9.347897E3,6.3835816E0],"tree_param":{"num_deleted":"0","num_feature":"34","num_nodes":"7","size_leaf_vector":"1"}},{"base_weights":[6.9372024E-4,-1.0245333E-1,1.0118668E0,1.0226414E0,-1.0097851E-1,1.0240853E-1,-8.8093445E-2],"categories":[],"categories_nodes":[],"categories_segments":[],"categories_sizes":[],"default_left":[0,0,0,0,0,0,0],"id":30,"left_children":[1,-1,3,5,-1,-1,-1],"loss_changes":[1.7558105E4,0E0,1.8676953E2,2.4214844E1,0E0,0E0,0E0],"parents":[2147483647,0,0,2,2,3,3],"right_children":[2,-1,4,6,-1,-1,-1],"split_conditions":[3.2E1,-1.0245333E-1,5.3E1,5.79464E5,-1.0097851E-1,1.0240853E-1,-8.8093445E-2],"split_indices":[33,0,0,1,0,0,0],"split_type":[0,0,0,0,0,0,0],"sum_hessian":[1.6934828E4,8.408972E3,8.525857E3,8.48115E3,4.4707256E1,8.475185E3,5.9662104E0],"tree_param":{"num_deleted":"0","num_feature":"34","num_nodes":"7","size_leaf_vector":"1"}},{"base_weights":[-5.254976E-4,-1.02212004E-1,1.009602E0,1.0202427E0,-1.0042788E-1,1.0216248E-1,-8.6000666E-2],"categories":[],"categories_nodes":[],"categories_segments":[],"categories_sizes":[],"default_left":[0,0,0,0,0,0,0],"id":31,"left_children":[1,-1,3,5,-1,-1,-1],"loss_changes":[1.5843895E4,0E0,1.6646045E2,2.0835938E1,0E0,0E0,0E0],"parents":[2147483647,0,0,2,2,3,3],"right_children":[2,-1,4,6,-1,-1,-1],"split_conditions":[3.2E1,-1.02212004E-1,5.3E1,3.9451E4,-1.0042788E-1,1.0216248E-1,-8.6000666E-2],"split_indices":[33,0,0,11,0,0,0],"split_type":[0,0,0,0,0,0,0],"sum_hessian":[1.5351493E4,7.6324185E3,7.7190747E3,7.6789946E3,4.0080303E1,7.6738105E3,5.1839113E0],"tree_param":{"num_deleted":"0","num_feature":"34","num_nodes":"7","size_leaf_vector":"1"}},{"base_weights":[1.280746E-4,-1.0199443E-1,1.0074993E0,1.0181448E0,-9.98729E-2,1.0195382E-1,-8.459154E-2],"categories":[],"categories_nodes":[],"categories_segments":[],"categories_sizes":[],"default_left":[0,0,0,0,0,0,0],"id":32,"left_children":[1,-1,3,5,-1,-1,-1],"loss_changes":[1.4296166E4,0E0,1.5051074E2,1.8948242E1,0E0,0E0,0E0],"parents":[2147483647,0,0,2,2,3,3],"right_children":[2,-1,4,6,-1,-1,-1],"split_conditions":[3.2E1,-1.0199443E-1,5.3E1,5.79464E5,-9.98729E-2,1.0195382E-1,-8.459154E-2],"split_indices":[33,0,0,1,0,0,0],"split_type":[0,0,0,0,0,0,0],"sum_hessian":[1.3910301E4,6.911573E3,6.998728E3,6.9622773E3,3.6450657E1,6.95753E3,4.7476573E0],"tree_param":{"num_deleted":"0","num_feature":"34","num_nodes":"7","size_leaf_vector":"1"}},{"base_weights":[7.4772397E-4,-1.01798095E-1,1.0054193E0,1.0162867E0,-9.946012E-2,-8.3111614E-2,1.0176895E-1],"categories":[],"categories_nodes":[],"categories_segments":[],"categories_sizes":[],"default_left":[0,0,0,0,0,0,0],"id":33,"left_children":[1,-1,3,5,-1,-1,-1],"loss_changes":[1.2924868E4,0E0,1.3920215E2,1.7234863E1,0E0,0E0,0E0],"parents":[2147483647,0,0,2,2,3,3],"right_children":[2,-1,4,6,-1,-1,-1],"split_conditions":[3.2E1,-1.01798095E-1,5.3E1,1.2204385E1,-9.946012E-2,-8.3111614E-2,1.0176895E-1],"split_indices":[33,0,0,10,0,0,0],"split_type":[0,0,0,0,0,0,0],"sum_hessian":[1.262626E4,6.269264E3,6.3569956E3,6.32313E3,3.3865864E1,4.348833E0,6.318781E3],"tree_param":{"num_deleted":"0","num_feature":"34","num_nodes":"7","size_leaf_vector":"1"}},{"base_weights":[-3.877905E-4,-1.0162093E-1,1.003181E0,1.0140396E0,-9.899469E-2,1.015532E-1,-8.242027E-2],"categories":[],"categories_nodes":[],"categories_segments":[],"categories_sizes":[],"default_left":[0,0,0,0,0,0,0],"id":34,"left_children":[1,-1,3,5,-1,-1,-1],"loss_changes":[1.1669887E4,0E0,1.2562988E2,1.6550781E1,0E0,0E0,0E0],"parents":[2147483647,0,0,2,2,3,3],"right_children":[2,-1,4,6,-1,-1,-1],"split_conditions":[3.2E1,-1.0162093E-1,5.3E1,5.79464E5,-9.899469E-2,1.015532E-1,-8.242027E-2],"split_indices":[33,0,0,1,0,0,0],"split_type":[0,0,0,0,0,0,0],"sum_hessian":[1.1445275E4,5.687909E3,5.757366E3,5.7266587E3,3.0707855E1,5.72246E3,4.1983275E0],"tree_param":{"num_deleted":"0","num_feature":"34","num_nodes":"7","size_leaf_vector":"1"}},{"base_weights":[-6.2668073E-4,-1.0146072E-1,1.001425E0,1.0123259E0,-9.846678E-2,1.0138543E0,-8.107881E-2,1.0146203E-1,7.7969193E-1,9.556844E-2,4.1299585E-2,-8.2219444E-2,7.2320126E-2],"categories":[],"categories_nodes":[],"categories_segments":[],"categories_sizes":[],"default_left":[0,0,0,0,0,0,0,0,0,0,0,0,0],"id":35,"left_children":[1,-1,3,5,-1,7,-1,-1,9,-1,11,-1,-1],"loss_changes":[1.0524475E4,0E0,1.1378711E2,1.5260742E1,0E0,1.3720703E-1,0E0,0E0,2.715806E0,0E0,3.6128926E0,0E0,0E0],"parents":[2147483647,0,0,2,2,3,3,5,5,8,8,10,10],"right_children":[2,-1,4,6,-1,8,-1,-1,10,-1,12,-1,-1],"split_conditions":[3.2E1,-1.0146072E-1,5.3E1,3.5858668E4,-9.846678E-2,2.1E1,-8.107881E-2,1.0146203E-1,2.2E1,9.556844E-2,2.3E1,-8.2219444E-2,7.2320126E-2],"split_indices":[33,0,0,11,0,14,0,0,0,0,14,0,0],"split_type":[0,0,0,0,0,0,0,0,0,0,0,0,0],"sum_hessian":[1.0356115E4,5.147413E3,5.208702E3,5.1807573E3,2.7944744E1,5.1768613E3,3.8960323E0,5.156659E3,2.0202333E1,1.6076334E1,4.125999E0,1.7298048E0,2.396194E0],"tree_param":{"num_deleted":"0","num_feature":"34","num_nodes":"13","size_leaf_vector":"1"}},{"base_weights":[5.4781925E-5,-1.0131588E-1,9.9982864E-1,1.0106632E0,-9.7965255E-2,1.01233125E-1,-8.084249E-2],"categories":[],"categories_nodes":[],"categories_segments":[],"categories_sizes":[],"default_left":[0,0,0,0,0,0,0],"id":36,"left_children":[1,-1,3,5,-1,-1,-1],"loss_changes":[9.5271875E3,0E0,1.0251709E2,1.5107422E1,0E0,0E0,0E0],"parents":[2147483647,0,0,2,2,3,3],"right_children":[2,-1,4,6,-1,-1,-1],"split_conditions":[3.2E1,-1.0131588E-1,5.3E1,5.79464E5,-9.7965255E-2,1.01233125E-1,-8.084249E-2],"split_indices":[33,0,0,1,0,0,0],"split_type":[0,0,0,0,0,0,0],"sum_hessian":[9.403068E3,4.670137E3,4.7329307E3,4.7076533E3,2.5277498E1,4.703783E3,3.8700356E0],"tree_param":{"num_deleted":"0","num_feature":"34","num_nodes":"7","size_leaf_vector":"1"}},{"base_weights":[7.223042E-4,-1.0118475E-1,9.9853295E-1,1.0092982E0,-9.740552E-2,-7.8709E-2,1.01093225E-1],"categories":[],"categories_nodes":[],"categories_segments":[],"categories_sizes":[],"default_left":[0,0,0,0,0,0,0],"id":37,"left_children":[1,-1,3,5,-1,-1,-1],"loss_changes":[8.606423E3,0E0,9.209131E1,1.3322266E1,0E0,0E0,0E0],"parents":[2147483647,0,0,2,2,3,3],"right_children":[2,-1,4,6,-1,-1,-1],"split_conditions":[3.2E1,-1.0118475E-1,5.3E1,1.2204385E1,-9.740552E-2,-7.8709E-2,1.01093225E-1],"split_indices":[33,0,0,10,0,0,0],"split_type":[0,0,0,0,0,0,0],"sum_hessian":[8.516233E3,4.226849E3,4.289385E3,4.2665884E3,2.2796227E1,3.4406147E0,4.263148E3],"tree_param":{"num_deleted":"0","num_feature":"34","num_nodes":"7","size_leaf_vector":"1"}},{"base_weights":[-1.346482E-3,-1.0106603E-1,9.974038E-1,1.0083139E0,-9.685411E-2,1.00990094E-1,-7.6255165E-2],"categories":[],"categories_nodes":[],"categories_segments":[],"categories_sizes":[],"default_left":[0,0,0,0,0,0,0],"id":38,"left_children":[1,-1,3,5,-1,-1,-1],"loss_changes":[7.7763457E3,0E0,8.414136E1,1.1609375E1,0E0,0E0,0E0],"parents":[2147483647,0,0,2,2,3,3],"right_children":[2,-1,4,6,-1,-1,-1],"split_conditions":[3.2E1,-1.0106603E-1,5.3E1,5.79464E5,-9.685411E-2,1.00990094E-1,-7.6255165E-2],"split_indices":[33,0,0,1,0,0,0],"split_type":[0,0,0,0,0,0,0],"sum_hessian":[7.712228E3,3.8358228E3,3.876405E3,3.855496E3,2.0909065E1,3.852473E3,3.023038E0],"tree_param":{"num_deleted":"0","num_feature":"34","num_nodes":"7","size_leaf_vector":"1"}},{"base_weights":[-9.214122E-4,-1.009583E-1,9.956924E-1,1.0065327E0,-9.628729E-2,1.0081707E0,-7.492313E-2,1.0093068E-1,6.844464E-1,9.277005E-2,-2.1354464E-1,-1.1237665E-1,6.462848E-2],"categories":[],"categories_nodes":[],"categories_segments":[],"categories_sizes":[],"default_left":[0,0,0,0,0,0,0,0,0,0,0,0,0],"id":39,"left_children":[1,-1,3,5,-1,7,-1,-1,9,-1,11,-1,-1],"loss_changes":[7.0256816E3,0E0,7.5607666E1,1.0812012E1,0E0,5.9399414E-1,0E0,0E0,3.5456853E0,0E0,3.9189289E0,0E0,0E0],"parents":[2147483647,0,0,2,2,3,3,5,5,8,8,10,10],"right_children":[2,-1,4,6,-1,8,-1,-1,10,-1,12,-1,-1],"split_conditions":[3.2E1,-1.009583E-1,5.3E1,5.79464E5,-9.628729E-2,2.1E1,-7.492313E-2,1.0093068E-1,2.2E1,9.277005E-2,2.3E1,-1.1237665E-1,6.462848E-2],"split_indices":[33,0,0,1,0,14,0,0,0,0,14,0,0],"split_type":[0,0,0,0,0,0,0,0,0,0,0,0,0],"sum_hessian":[6.987016E3,3.4725125E3,3.5145037E3,3.495642E3,1.8861578E1,3.4928093E3,2.8328805E0,3.4784844E3,1.4324939E1,1.1245575E1,3.079364E0,1.3467355E0,1.7326287E0],"tree_param":{"num_deleted":"0","num_feature":"34","num_nodes":"13","size_leaf_vector":"1"}},{"base_weights":[-1.4258738E-3,5.9512943E-1,-9.2914104E-1,-1.0059549E-1,9.171594E-1,-9.9781966E-1,3.927017E-1,9.9125046E-1,-9.5517176E-1,-1.0044414E0,-5.3851205E-1,-9.807458E-2,9.418752E-1,-9.547283E-2,1.0027273E0,-1.0004889E-1,6.564018E-2,-1.0065589E-1,1.5673305E-1,-9.713726E-2,7.0802504E-1,8.110189E-3,9.650777E-2,1.0051101E0,-7.915254E-2,7.11225E-2,-6.268329E-2,-7.64331E-3,8.739924E-2,-6.908816E-2,1.00653864E-1],"categories":[],"categories_nodes":[],"categories_segments":[],"categories_sizes":[],"default_left":[0,0,0,0,0,0,0,0,0,0,0,0,0,0,0,0,0,0,0,0,0,0,0,0,0,0,0,0,0,0,0],"id":40,"left_children":[1,3,5,-1,7,9,11,13,15,17,19,-1,21,-1,23,-1,-1,-1,25,-1,27,-1,-1,29,-1,-1,-1,-1,-1,-1,-1],"loss_changes":[3.502611E3,1.9869708E3,2.2525415E2,0E0,4.4589355E2,6.6210938E0,9.373927E1,6.987549E1,9.610527E0,5.862793E0,1.9909267E1,0E0,1.6875763E0,0E0,1.3913818E1,0E0,0E0,0E0,2.6567469E0,0E0,1.3375292E0,0E0,0E0,8.120361E0,0E0,0E0,0E0,0E0,0E0,0E0,0E0],"parents":[2147483647,0,0,1,1,2,2,4,4,5,5,6,6,7,7,8,8,9,9,10,10,12,12,14,14,18,18,20,20,23,23],"right_children":[2,4,6,-1,8,10,12,14,16,18,20,-1,22,-1,24,-1,-1,-1,26,-1,28,-1,-1,30,-1,-1,-1,-1,-1,-1,-1],"split_conditions":[1E1,4.3250725E1,4.7619047E4,-1.0059549E-1,2.2017125E4,3.3333332E4,3.2E1,3.2E1,2.6883E4,6.48E2,3.2E1,-9.807458E-2,1E5,-9.547283E-2,1.0617391E2,-1.0004889E-1,6.564018E-2,-1.0065589E-1,1.03454544E2,-9.713726E-2,2.3E1,8.110189E-3,9.650777E-2,1E0,-7.915254E-2,7.11225E-2,-6.268329E-2,-7.64331E-3,8.739924E-2,-6.908816E-2,1.00653864E-1],"split_indices":[14,25,25,0,9,25,22,22,31,22,22,0,10,0,6,0,0,0,6,0,13,0,0,14,0,0,0,0,0,0,0],"split_type":[0,0,0,0,0,0,0,0,0,0,0,0,0,0,0,0,0,0,0,0,0,0,0,0,0,0,0,0,0,0,0],"sum_hessian":[6.3268765E3,3.8509385E3,2.475938E3,6.4449286E2,3.2064456E3,2.353883E3,1.22054924E2,3.084844E3,1.2160151E2,2.3192598E3,3.4623318E1,3.463905E1,8.741588E1,1.7604973E1,3.0672393E3,1.1864444E2,2.9570658E0,2.3151711E3,4.0886636E0,2.5863092E1,8.760226E0,2.4124768E0,8.50034E1,3.0636104E3,3.6288984E0,2.4483833E0,1.6402805E0,1.6239523E0,7.1362734E0,2.1721022E0,3.0614382E3],"tree_param":{"num_deleted":"0","num_feature":"34","num_nodes":"31","size_leaf_vector":"1"}},{"base_weights":[9.937314E-4,-1.007721E-1,9.936559E-1,-9.23285E-2,1.0011183E0,1.0053713E0,-8.664452E-2,1.00668706E-1,6.6306686E-1,-1.4898856E-1,8.8727355E-2,-6.8864904E-2,4.7823865E-2],"categories":[],"categories_nodes":[],"categories_segments":[],"categories_sizes":[],"default_left":[0,0,0,0,0,0,0,0,0,0,0,0,0],"id":41,"left_children":[1,-1,3,-1,5,7,-1,-1,9,11,-1,-1,-1],"loss_changes":[5.748086E3,0E0,4.2312744E1,0E0,2.3766602E1,6.2768555E-1,0E0,0E0,2.6708083E0,1.6403058E0,0E0,0E0,0E0],"parents":[2147483647,0,0,2,2,4,4,5,5,8,8,9,9],"right_children":[2,-1,4,-1,6,8,-1,-1,10,12,-1,-1,-1],"split_conditions":[3.2E1,-1.007721E-1,4.9558105E1,-9.23285E-2,2.41E2,2.1E1,-8.664452E-2,1.00668706E-1,4E1,2.3E1,8.8727355E-2,-6.8864904E-2,4.7823865E-2],"split_indices":[33,0,10,0,32,14,0,0,22,13,0,0,0],"split_type":[0,0,0,0,0,0,0,0,0,0,0,0,0],"sum_hessian":[5.7385493E3,2.8462534E3,2.8922957E3,1.0739816E1,2.881556E3,2.8754692E3,6.086654E0,2.8625261E3,1.2943204E1,2.8729901E0,1.0070214E1,1.4916567E0,1.3813334E0],"tree_param":{"num_deleted":"0","num_feature":"34","num_nodes":"13","size_leaf_vector":"1"}},{"base_weights":[6.542829E-5,-1.00691035E-1,9.918965E-1,1.0036281E0,-9.511594E-2,1.0053935E0,-7.0241824E-2,1.00653306E-1,6.9489616E-1,9.059489E-2,-1.7314998E-2,-5.7129737E-2,5.8371432E-2],"categories":[],"categories_nodes":[],"categories_segments":[],"categories_sizes":[],"default_left":[0,0,0,0,0,0,0,0,0,0,0,0,0],"id":42,"left_children":[1,-1,3,5,-1,7,-1,-1,9,-1,11,-1,-1],"loss_changes":[5.192157E3,0E0,6.065576E1,8.548096E0,0E0,2.211914E-1,0E0,0E0,1.9310799E0,0E0,1.630063E0,0E0,0E0],"parents":[2147483647,0,0,2,2,3,3,5,5,8,8,10,10],"right_children":[2,-1,4,6,-1,8,-1,-1,10,-1,12,-1,-1],"split_conditions":[3.2E1,-1.00691035E-1,5.3E1,3.5858668E4,-9.511594E-2,2.1E1,-7.0241824E-2,1.00653306E-1,2.2E1,9.059489E-2,2.3E1,-5.7129737E-2,5.8371432E-2],"split_indices":[33,0,0,11,0,14,0,0,0,0,13,0,0],"split_type":[0,0,0,0,0,0,0,0,0,0,0,0,0],"sum_hessian":[5.196656E3,2.578633E3,2.6180225E3,2.602791E3,1.5231506E1,2.600511E3,2.2801797E0,2.5887683E3,1.1742607E1,8.848475E0,2.8941317E0,1.5317507E0,1.3623809E0],"tree_param":{"num_deleted":"0","num_feature":"34","num_nodes":"13","size_leaf_vector":"1"}},{"base_weights":[1.7522182E-4,9.6480644E-1,-1.0061921E-1,-9.711006E-2,1.004083E0,1.0055903E-1,6.289113E-1,8.963541E-2,-1.6079839E-1,-6.478738E-2,4.2254746E-2],"categories":[],"categories_nodes":[],"categories_segments":[],"categories_sizes":[],"default_left":[0,0,0,0,0,0,0,0,0,0,0],"id":43,"left_children":[1,3,-1,-1,5,-1,7,-1,9,-1,-1],"loss_changes":[4.571294E3,1.837893E2,0E0,0E0,7.0043945E-1,0E0,2.6998749E0,0E0,1.3845029E0,0E0,0E0],"parents":[2147483647,0,0,1,1,4,4,6,6,8,8],"right_children":[2,4,-1,-1,6,-1,8,-1,10,-1,-1],"split_conditions":[5.3E1,8E0,-1.0061921E-1,-9.711006E-2,2.1E1,1.0055903E-1,2.2E1,8.963541E-2,2.3E1,-6.478738E-2,4.2254746E-2],"split_indices":[0,23,0,0,14,0,0,0,14,0,0],"split_type":[0,0,0,0,0,0,0,0,0,0,0],"sum_hessian":[4.70692E3,2.4033157E3,2.303604E3,4.73183E1,2.3559973E3,2.3448965E3,1.1100932E1,8.191694E0,2.9092386E0,1.5251604E0,1.384078E0],"tree_param":{"num_deleted":"0","num_feature":"34","num_nodes":"11","size_leaf_vector":"1"}},{"base_weights":[3.6274554E-4,-1.005495E-1,9.9004525E-1,1.0014302E0,-9.33995E-2,-6.5632224E-2,1.0031817E0,1.00503206E-1,5.733674E-1,8.878789E-2,-2.3054644E-1,-8.81445E-2,5.8963712E-2],"categories":[],"categories_nodes":[],"categories_segments":[],"categories_sizes":[],"default_left":[0,0,0,0,0,0,0,0,0,0,0,0,0],"id":44,"left_children":[1,-1,3,5,-1,-1,7,-1,9,-1,11,-1,-1],"loss_changes":[4.244636E3,0E0,4.8014404E1,6.8635254E0,0E0,0E0,1.1220703E0,0E0,3.1074898E0,0E0,2.6670926E0,0E0,0E0],"parents":[2147483647,0,0,2,2,3,3,6,6,8,8,10,10],"right_children":[2,-1,4,6,-1,-1,8,-1,10,-1,12,-1,-1],"split_conditions":[3.2E1,-1.005495E-1,5.3E1,1.2204385E1,-9.33995E-2,-6.5632224E-2,2.1E1,1.00503206E-1,2.2E1,8.878789E-2,2.3E1,-8.81445E-2,5.8963712E-2],"split_indices":[33,0,0,10,0,0,14,0,0,0,13,0,0],"split_type":[0,0,0,0,0,0,0,0,0,0,0,0,0],"sum_hessian":[4.26191E3,2.1136743E3,2.1482356E3,2.1360757E3,1.2160049E1,1.8600969E0,2.1342156E3,2.1237349E3,1.0480745E1,7.4583893E0,3.022356E0,1.6434332E0,1.3789228E0],"tree_param":{"num_deleted":"0","num_feature":"34","num_nodes":"13","size_leaf_vector":"1"}},{"base_weights":[-6.505204E-4,-1.00487486E-1,9.8886013E-1,1.000499E0,-9.274902E-2,-6.418162E-2,1.00232E0,1.0043613E-1,5.452794E-1,8.747856E-2,-1.9829229E-1,-8.022903E-2,5.8891486E-2],"categories":[],"categories_nodes":[],"categories_segments":[],"categories_sizes":[],"default_left":[0,0,0,0,0,0,0,0,0,0,0,0,0],"id":45,"left_children":[1,-1,3,5,-1,-1,7,-1,9,-1,11,-1,-1],"loss_changes":[3.8363643E3,0E0,4.4300903E1,6.425293E0,0E0,0E0,1.2545166E0,0E0,2.8138294E0,0E0,2.433474E0,0E0,0E0],"parents":[2147483647,0,0,2,2,3,3,6,6,8,8,10,10],"right_children":[2,-1,4,6,-1,-1,8,-1,10,-1,12,-1,-1],"split_conditions":[3.2E1,-1.00487486E-1,5.3E1,1.2204385E1,-9.274902E-2,-6.418162E-2,2.1E1,1.0043613E-1,2.2E1,8.747856E-2,2.3E1,-8.022903E-2,5.8891486E-2],"split_indices":[33,0,0,10,0,0,14,0,0,0,13,0,0],"split_type":[0,0,0,0,0,0,0,0,0,0,0,0,0],"sum_hessian":[3.858723E3,1.9151151E3,1.9436078E3,1.9323496E3,1.1258181E1,1.7509387E0,1.9305986E3,1.9208221E3,9.7765E0,6.6521864E0,3.1243134E0,1.7570369E0,1.3672764E0],"tree_param":{"num_deleted":"0","num_feature":"34","num_nodes":"13","size_leaf_vector":"1"}},{"base_weights":[8.489407E-5,-1.0043039E-1,9.8798853E-1,9.995618E-1,-9.183072E-2,-6.321465E-2,1.0014893E0,1.0037374E-1,5.321201E-1,-1.4040421E-1,8.6707234E-2,-1.0724695E-1,6.7195915E-2],"categories":[],"categories_nodes":[],"categories_segments":[],"categories_sizes":[],"default_left":[0,0,0,0,0,0,0,0,0,0,0,0,0],"id":46,"left_children":[1,-1,3,5,-1,-1,7,-1,9,11,-1,-1,-1],"loss_changes":[3.470709E3,0E0,3.9822144E1,6.147461E0,0E0,0E0,1.3139648E0,0E0,2.481828E0,4.009744E0,0E0,0E0,0E0],"parents":[2147483647,0,0,2,2,3,3,6,6,8,8,9,9],"right_children":[2,-1,4,6,-1,-1,8,-1,10,12,-1,-1,-1],"split_conditions":[3.2E1,-1.0043039E-1,5.3E1,1.2204385E1,-9.183072E-2,-6.321465E-2,2.1E1,1.0037374E-1,2.3E1,2.3E2,8.6707234E-2,-1.0724695E-1,6.7195915E-2],"split_indices":[33,0,0,10,0,0,14,0,13,32,0,0,0],"split_type":[0,0,0,0,0,0,0,0,0,0,0,0,0],"sum_hessian":[3.4958547E3,1.7334559E3,1.7623988E3,1.7522365E3,1.0162307E1,1.6817324E0,1.7505547E3,1.7410778E3,9.477004E0,3.343891E0,6.1331134E0,1.4081104E0,1.9357804E0],"tree_param":{"num_deleted":"0","num_feature":"34","num_nodes":"13","size_leaf_vector":"1"}},{"base_weights":[-3.3861303E-4,-1.0037764E-1,9.8705E-1,9.986758E-1,-9.094312E-2,1.0006602E0,-6.1492294E-2,1.0031485E-1,5.18539E-1,8.645326E-2,-2.1428947E-1,-8.534048E-2,5.9188303E-2],"categories":[],"categories_nodes":[],"categories_segments":[],"categories_sizes":[],"default_left":[0,0,0,0,0,0,0,0,0,0,0,0,0],"id":47,"left_children":[1,-1,3,5,-1,7,-1,-1,9,-1,11,-1,-1],"loss_changes":[3.1341536E3,0E0,3.606201E1,5.691162E0,0E0,1.3793945E0,0E0,0E0,2.7717366E0,0E0,2.6036446E0,0E0,0E0],"parents":[2147483647,0,0,2,2,3,3,5,5,8,8,10,10],"right_children":[2,-1,4,6,-1,8,-1,-1,10,-1,12,-1,-1],"split_conditions":[3.2E1,-1.0037764E-1,5.3E1,5.79464E5,-9.094312E-2,2.1E1,-6.1492294E-2,1.0031485E-1,2.2E1,8.645326E-2,2.3E1,-8.534048E-2,5.9188303E-2],"split_indices":[33,0,0,1,0,14,0,0,0,0,13,0,0],"split_type":[0,0,0,0,0,0,0,0,0,0,0,0,0],"sum_hessian":[3.1613093E3,1.5679038E3,1.5934055E3,1.5841676E3,9.237846E0,1.5826012E3,1.5664325E0,1.5734003E3,9.200891E0,6.1279526E0,3.0729377E0,1.6813852E0,1.3915526E0],"tree_param":{"num_deleted":"0","num_feature":"34","num_nodes":"13","size_leaf_vector":"1"}},{"base_weights":[-3.0869344E-4,-1.00328855E-1,9.881723E-1,9.998512E-1,-9.002412E-2,-6.0220607E-2,1.0019355E-1],"categories":[],"categories_nodes":[],"categories_segments":[],"categories_sizes":[],"default_left":[0,0,0,0,0,0,0],"id":48,"left_children":[1,-1,3,5,-1,-1,-1],"loss_changes":[2.8387864E3,0E0,3.270508E1,5.390381E0,0E0,0E0,0E0],"parents":[2147483647,0,0,2,2,3,3],"right_children":[2,-1,4,6,-1,-1,-1],"split_conditions":[3.2E1,-1.00328855E-1,5.3E1,1.2204385E1,-9.002412E-2,-6.0220607E-2,1.0019355E-1],"split_indices":[33,0,0,10,0,0,0],"split_type":[0,0,0,0,0,0,0],"sum_hessian":[2.8613354E3,1.4202444E3,1.4410912E3,1.432701E3,8.390038E0,1.4873366E0,1.4312137E3],"tree_param":{"num_deleted":"0","num_feature":"34","num_nodes":"7","size_leaf_vector":"1"}},{"base_weights":[-1.6717602E-3,-1.0028341E-1,9.850645E-1,9.970367E-1,-8.926242E-2,9.99023E-1,-5.6629974E-2,1.0020646E-1,4.3912685E-1,8.362254E-2,-2.9517084E-2],"categories":[],"categories_nodes":[],"categories_segments":[],"categories_sizes":[],"default_left":[0,0,0,0,0,0,0,0,0,0,0],"id":49,"left_children":[1,-1,3,5,-1,7,-1,-1,9,-1,-1],"loss_changes":[2.562848E3,0E0,3.0261475E1,4.598755E0,0E0,1.7695312E0,0E0,0E0,2.809926E0,0E0,0E0],"parents":[2147483647,0,0,2,2,3,3,5,5,8,8],"right_children":[2,-1,4,6,-1,8,-1,-1,10,-1,-1],"split_conditions":[3.2E1,-1.0028341E-1,5.3E1,5.79464E5,-8.926242E-2,2.1E1,-5.6629974E-2,1.0020646E-1,2.2E1,8.362254E-2,-2.9517084E-2],"split_indices":[33,0,0,1,0,14,0,0,0,0,0],"split_type":[0,0,0,0,0,0,0,0,0,0,0],"sum_hessian":[2.5922825E3,1.286727E3,1.3055554E3,1.2977499E3,7.805498E0,1.2964636E3,1.286278E0,1.2886735E3,7.7901144E0,4.9658422E0,2.824272E0],"tree_param":{"num_deleted":"0","num_feature":"34","num_nodes":"11","size_leaf_vector":"1"}},{"base_weights":[9.123862E-5,-1.0024073E-1,9.8651046E-1,9.9858266E-1,-8.8240884E-2,1.0007542E0,-5.6352355E-2,1.00241415E-1,6.4970505E-1,-3.868262E-3,8.531626E-2],"categories":[],"categories_nodes":[],"categories_segments":[],"categories_sizes":[],"default_left":[0,0,0,0,0,0,0,0,0,0,0],"id":50,"left_children":[1,-1,3,5,-1,7,-1,-1,9,-1,-1],"loss_changes":[2.321981E3,0E0,2.7584106E1,4.5546875E0,0E0,3.3447266E-2,0E0,0E0,1.2056026E0,0E0,0E0],"parents":[2147483647,0,0,2,2,3,3,5,5,8,8],"right_children":[2,-1,4,6,-1,8,-1,-1,10,-1,-1],"split_conditions":[3.2E1,-1.0024073E-1,5.3E1,1.9767E4,-8.8240884E-2,2.1E1,-5.6352355E-2,1.00241415E-1,2.2E1,-3.868262E-3,8.531626E-2],"split_indices":[33,0,0,11,0,14,0,0,14,0,0],"split_type":[0,0,0,0,0,0,0,0,0,0,0],"sum_hessian":[2.346083E3,1.16355E3,1.182533E3,1.1754061E3,7.1267896E0,1.1741332E3,1.2729334E0,1.166761E3,7.37226E0,1.8665991E0,5.505661E0],"tree_param":{"num_deleted":"0","num_feature":"34","num_nodes":"11","size_leaf_vector":"1"}},{"base_weights":[9.902002E-4,9.586956E-1,-1.00200765E-1,-9.343488E-1,9.983536E-2,-2.500712E-2,-9.5697515E-2],"categories":[],"categories_nodes":[],"categories_segments":[],"categories_sizes":[],"default_left":[0,0,0,0,0,0,0],"id":51,"left_children":[1,3,-1,5,-1,-1,-1],"loss_changes":[2.0415273E3,8.2553955E1,0E0,1.1408806E-1,0E0,0E0,0E0],"parents":[2147483647,0,0,1,1,3,3],"right_children":[2,4,-1,6,-1,-1,-1],"split_conditions":[5.3E1,8E0,-1.00200765E-1,4.257E4,9.983536E-2,-2.500712E-2,-9.5697515E-2],"split_indices":[0,23,0,1,0,0,0],"split_type":[0,0,0,0,0,0,0],"sum_hessian":[2.1233147E3,1.0862043E3,1.0371105E3,2.1825377E1,1.064379E3,1.084342E0,2.0741034E1],"tree_param":{"num_deleted":"0","num_feature":"34","num_nodes":"7","size_leaf_vector":"1"}},{"base_weights":[-5.3938106E-4,-1.0016272E-1,9.8395E-1,9.962481E-1,-8.610326E-2,9.98573E-1,-5.314502E-2,1.0005905E-1,6.0913914E-1,-9.926323E-3,8.3478935E-2],"categories":[],"categories_nodes":[],"categories_segments":[],"categories_sizes":[],"default_left":[0,0,0,0,0,0,0,0,0,0,0],"id":52,"left_children":[1,-1,3,5,-1,7,-1,-1,9,-1,-1],"loss_changes":[1.9005428E3,0E0,2.291803E1,3.9626465E0,0E0,1.4886475E-1,0E0,0E0,1.286613E0,0E0,0E0],"parents":[2147483647,0,0,2,2,3,3,5,5,8,8],"right_children":[2,-1,4,6,-1,8,-1,-1,10,-1,-1],"split_conditions":[3.2E1,-1.0016272E-1,5.3E1,5.79464E5,-8.610326E-2,2.1E1,-5.314502E-2,1.0005905E-1,2.2E1,-9.926323E-3,8.3478935E-2],"split_indices":[33,0,0,1,0,14,0,0,14,0,0],"split_type":[0,0,0,0,0,0,0,0,0,0,0],"sum_hessian":[1.9263881E3,9.551336E2,9.712545E2,9.652803E2,5.9742503E0,9.6415936E2,1.1209258E0,9.576289E2,6.5304384E0,1.7129458E0,4.8174925E0],"tree_param":{"num_deleted":"0","num_feature":"34","num_nodes":"11","size_leaf_vector":"1"}},{"base_weights":[-1.594346E-3,-1.001262E-1,9.8151076E-1,9.942528E-1,-8.526989E-2,9.967276E-2,-5.22043E-2],"categories":[],"categories_nodes":[],"categories_segments":[],"categories_sizes":[],"default_left":[0,0,0,0,0,0,0],"id":53,"left_children":[1,-1,3,5,-1,-1,-1],"loss_changes":[1.7141865E3,0E0,2.1400757E1,3.7991333E0,0E0,0E0,0E0],"parents":[2147483647,0,0,2,2,3,3],"right_children":[2,-1,4,6,-1,-1,-1],"split_conditions":[3.2E1,-1.001262E-1,5.3E1,5.79464E5,-8.526989E-2,9.967276E-2,-5.22043E-2],"split_indices":[33,0,0,1,0,0,0],"split_type":[0,0,0,0,0,0,0],"sum_hessian":[1.7422251E3,8.6382684E2,8.7839825E2,8.7279297E2,5.6052666E0,8.7171295E2,1.0800505E0],"tree_param":{"num_deleted":"0","num_feature":"34","num_nodes":"7","size_leaf_vector":"1"}},{"base_weights":[-1.826062E-3,-1.00090936E-1,9.7956395E-1,9.920968E-1,-8.369706E-2,9.946394E-2,-5.0413545E-2],"categories":[],"categories_nodes":[],"categories_segments":[],"categories_sizes":[],"default_left":[0,0,0,0,0,0,0],"id":54,"left_children":[1,-1,3,5,-1,-1,-1],"loss_changes":[1.5480726E3,0E0,1.8963501E1,3.5125732E0,0E0,0E0,0E0],"parents":[2147483647,0,0,2,2,3,3],"right_children":[2,-1,4,6,-1,-1,-1],"split_conditions":[3.2E1,-1.00090936E-1,5.3E1,5.79464E5,-8.369706E-2,9.946394E-2,-5.0413545E-2],"split_indices":[33,0,0,1,0,0,0],"split_type":[0,0,0,0,0,0,0],"sum_hessian":[1.5768759E3,7.813843E2,7.954916E2,7.904916E2,4.9999866E0,7.894852E2,1.0063891E0],"tree_param":{"num_deleted":"0","num_feature":"34","num_nodes":"7","size_leaf_vector":"1"}},{"base_weights":[-1.9081755E-3,9.524678E-1,-1.0005595E-1,-9.177503E-2,9.92344E-1,9.982182E-2,1.1160313E-1,7.526674E-2,-8.384355E-2],"categories":[],"categories_nodes":[],"categories_segments":[],"categories_sizes":[],"default_left":[0,0,0,0,0,0,0,0,0],"id":55,"left_children":[1,3,-1,-1,5,-1,7,-1,-1],"loss_changes":[1.3631334E3,5.5450928E1,0E0,0E0,3.5957642E0,0E0,4.2080674E0,0E0,0E0],"parents":[2147483647,0,0,1,1,4,4,6,6],"right_children":[2,4,-1,-1,6,-1,8,-1,-1],"split_conditions":[5.3E1,8E0,-1.0005595E-1,-9.177503E-2,2.1E1,9.982182E-2,2.2E1,7.526674E-2,-8.384355E-2],"split_indices":[0,23,0,0,14,0,0,0,0],"split_type":[0,0,0,0,0,0,0,0,0],"sum_hessian":[1.4282272E3,7.303263E2,6.9790094E2,1.4787095E1,7.155392E2,7.1066595E2,4.8732247E0,3.033822E0,1.8394028E0],"tree_param":{"num_deleted":"0","num_feature":"34","num_nodes":"9","size_leaf_vector":"1"}},{"base_weights":[-9.3644985E-4,9.5075804E-1,-1.0002186E-1,-9.01207E-1,9.911646E-1,-9.287171E-2,-2.6682684E-2,9.9760465E-2,1.2252036E-1,7.380115E-2,-6.7225E-2],"categories":[],"categories_nodes":[],"categories_segments":[],"categories_sizes":[],"default_left":[0,0,0,0,0,0,0,0,0,0,0],"id":56,"left_children":[1,3,-1,5,7,-1,-1,-1,9,-1,-1],"loss_changes":[1.2321624E3,5.0552856E1,0E0,8.623123E-3,3.5135498E0,0E0,0E0,0E0,3.3935287E0,0E0,0E0],"parents":[2147483647,0,0,1,1,3,3,4,4,8,8],"right_children":[2,4,-1,6,8,-1,-1,-1,10,-1,-1],"split_conditions":[5.3E1,8E0,-1.0002186E-1,4.7496662E1,2.1E1,-9.287171E-2,-2.6682684E-2,9.9760465E-2,2.2E1,7.380115E-2,-6.7225E-2],"split_indices":[0,23,0,24,14,0,0,0,0,0,0],"split_type":[0,0,0,0,0,0,0,0,0,0,0],"sum_hessian":[1.2936337E3,6.6261865E2,6.3101495E2,1.3693591E1,6.4892505E2,1.2679754E1,1.0138372E0,6.44002E2,4.923046E0,2.8146908E0,2.1083553E0],"tree_param":{"num_deleted":"0","num_feature":"34","num_nodes":"11","size_leaf_vector":"1"}},{"base_weights":[-3.7992868E-4,-9.998988E-2,9.776468E-1,9.904076E-1,-7.9409994E-2,9.931754E-2,-3.1492967E-2],"categories":[],"categories_nodes":[],"categories_segments":[],"categories_sizes":[],"default_left":[0,0,0,0,0,0,0],"id":57,"left_children":[1,-1,3,5,-1,-1,-1],"loss_changes":[1.147499E3,0E0,1.4200317E1,2.442627E0,0E0,0E0,0E0],"parents":[2147483647,0,0,2,2,3,3],"right_children":[2,-1,4,6,-1,-1,-1],"split_conditions":[3.2E1,-9.998988E-2,5.3E1,1.7675E4,-7.9409994E-2,9.931754E-2,-3.1492967E-2],"split_indices":[33,0,0,11,0,0,0],"split_type":[0,0,0,0,0,0,0],"sum_hessian":[1.1718445E3,5.795433E2,5.9230115E2,5.8850354E2,3.7976062E0,5.8749695E2,1.0065943E0],"tree_param":{"num_deleted":"0","num_feature":"34","num_nodes":"7","size_leaf_vector":"1"}},{"base_weights":[8.0866873E-4,-9.99563E-2,9.7821397E-1,9.9098516E-1,-7.772561E-2,-3.0732786E-2,9.940167E-2],"categories":[],"categories_nodes":[],"categories_segments":[],"categories_sizes":[],"default_left":[0,0,0,0,0,0,0],"id":58,"left_children":[1,-1,3,5,-1,-1,-1],"loss_changes":[1.0391431E3,0E0,1.2821899E1,2.4075928E0,0E0,0E0,0E0],"parents":[2147483647,0,0,2,2,3,3],"right_children":[2,-1,4,6,-1,-1,-1],"split_conditions":[3.2E1,-9.99563E-2,5.3E1,4.7496662E1,-7.772561E-2,-3.0732786E-2,9.940167E-2],"split_indices":[33,0,0,24,0,0,0],"split_type":[0,0,0,0,0,0,0],"sum_hessian":[1.06077E3,5.242149E2,5.365551E2,5.331122E2,3.4429512E0,1.0080366E0,5.321041E2],"tree_param":{"num_deleted":"0","num_feature":"34","num_nodes":"7","size_leaf_vector":"1"}},{"base_weights":[-2.013295E-3,-9.992258E-2,9.723655E-1,9.9099106E-1,-3.4327906E-1,9.9511616E-2,-3.8449287E-2,-8.48451E-1,4.5814764E-1,-2.1425514E-1,1.7215471E-1,6.4215674E-3,6.008218E-2,6.309681E-2,-5.1115673E-2],"categories":[],"categories_nodes":[],"categories_segments":[],"categories_sizes":[],"default_left":[0,0,0,0,0,0,0,0,0,0,0,0,0,0,0],"id":59,"left_children":[1,-1,3,5,7,-1,-1,9,11,-1,13,-1,-1,-1,-1],"loss_changes":[9.3566675E2,0E0,1.2275238E1,3.1090088E0,3.4420333E0,0E0,0E0,6.941617E0,1.6179687E-1,0E0,1.4849851E0,0E0,0E0,0E0,0E0],"parents":[2147483647,0,0,2,2,3,3,4,4,7,7,8,8,10,10],"right_children":[2,-1,4,6,8,-1,-1,10,12,-1,14,-1,-1,-1,-1],"split_conditions":[3.2E1,-9.992258E-2,2.1E1,6.7E1,2.336E4,9.9511616E-2,-3.8449287E-2,2.3E2,7.407407E4,-2.1425514E-1,2.31E2,6.4215674E-3,6.008218E-2,6.309681E-2,-5.1115673E-2],"split_indices":[33,0,14,21,31,0,0,32,10,0,32,0,0,0,0],"split_type":[0,0,0,0,0,0,0,0,0,0,0,0,0,0,0],"sum_hessian":[9.609543E2,4.7489996E2,4.8605432E2,4.7951263E2,6.541694E0,4.783546E2,1.158043E0,3.9764805E0,2.5652137E0,1.268616E0,2.7078645E0,1.0675977E0,1.4976159E0,1.6658934E0,1.0419711E0],"tree_param":{"num_deleted":"0","num_feature":"34","num_nodes":"15","size_leaf_vector":"1"}},{"base_weights":[-1.3998671E-3,9.4722754E-1,-9.988616E-2,-1.0981859E-1,9.893671E-1,9.974032E-2,2.1392888E-1,6.5581575E-2,-2.3234452E-1,-1.1852931E-1,6.1620403E-2],"categories":[],"categories_nodes":[],"categories_segments":[],"categories_sizes":[],"default_left":[0,0,0,0,0,0,0,0,0,0,0],"id":60,"left_children":[1,3,-1,-1,5,-1,7,-1,9,-1,-1],"loss_changes":[8.260363E2,3.965329E1,0E0,0E0,2.521881E0,0E0,1.2912664E0,0E0,3.6509328E0,0E0,0E0],"parents":[2147483647,0,0,1,1,4,4,6,6,8,8],"right_children":[2,4,-1,-1,6,-1,8,-1,10,-1,-1],"split_conditions":[5.3E1,1.49E2,-9.988616E-2,-1.0981859E-1,2.1E1,9.974032E-2,2.2E1,6.5581575E-2,1E0,-1.1852931E-1,6.1620403E-2],"split_indices":[0,31,0,0,14,0,0,0,29,0,0],"split_type":[0,0,0,0,0,0,0,0,0,0,0],"sum_hessian":[8.70986E2,4.464469E2,4.2453912E2,8.50616E0,4.3794073E2,4.331655E2,4.7752414E0,2.1634843E0,2.6117568E0,1.0432756E0,1.5684813E0],"tree_param":{"num_deleted":"0","num_feature":"34","num_nodes":"11","size_leaf_vector":"1"}},{"base_weights":[-2.779623E-3,-9.985219E-2,9.688924E-1,9.891405E-1,-3.451067E-1,9.955304E-2,-5.595226E-2,6.404931E-2,-8.703509E-1,-2.3922421E-1,-1.3696635E-1,-4.6154946E-2,6.049234E-3],"categories":[],"categories_nodes":[],"categories_segments":[],"categories_sizes":[],"default_left":[0,0,0,0,0,0,0,0,0,0,0,0,0],"id":61,"left_children":[1,-1,3,5,7,-1,-1,-1,9,11,-1,-1,-1],"loss_changes":[7.637827E2,0E0,1.0971405E1,4.4532776E0,4.0800495E0,0E0,0E0,0E0,1.2047861E0,2.5178254E-1,0E0,0E0,0E0],"parents":[2147483647,0,0,2,2,3,3,4,4,8,8,9,9],"right_children":[2,-1,4,6,8,-1,-1,-1,10,12,-1,-1,-1],"split_conditions":[3.2E1,-9.985219E-2,2.1E1,5.3E1,2.2E1,9.955304E-2,-5.595226E-2,6.404931E-2,2.51E2,2.3E1,-1.3696635E-1,-4.6154946E-2,6.049234E-3],"split_indices":[33,0,14,0,0,0,0,0,31,13,0,0,0],"split_type":[0,0,0,0,0,0,0,0,0,0,0,0,0],"sum_hessian":[7.874111E2,3.888751E2,3.9853595E2,3.9273135E2,5.8045745E0,3.914733E2,1.2580682E0,1.9416764E0,3.862898E0,2.3595521E0,1.503346E0,1.0446748E0,1.3148774E0],"tree_param":{"num_deleted":"0","num_feature":"34","num_nodes":"13","size_leaf_vector":"1"}},{"base_weights":[-2.9796066E-3,-9.981511E-2,9.6651006E-1,9.8099273E-1,-7.277176E-2,9.84331E-2,-6.2903017E-3],"categories":[],"categories_nodes":[],"categories_segments":[],"categories_sizes":[],"default_left":[0,0,0,0,0,0,0],"id":62,"left_children":[1,-1,3,5,-1,-1,-1],"loss_changes":[6.9039E2,0E0,9.607666E0,1.3157959E0,0E0,0E0,0E0],"parents":[2147483647,0,0,2,2,3,3],"right_children":[2,-1,4,6,-1,-1,-1],"split_conditions":[3.2E1,-9.981511E-2,5.3E1,4.43611E5,-7.277176E-2,9.84331E-2,-6.2903017E-3],"split_indices":[33,0,0,1,0,0,0],"split_type":[0,0,0,0,0,0,0],"sum_hessian":[7.135722E2,3.5210767E2,3.6146457E2,3.5881827E2,2.6462834E0,3.5773135E2,1.0869128E0],"tree_param":{"num_deleted":"0","num_feature":"34","num_nodes":"7","size_leaf_vector":"1"}},{"base_weights":[-1.6645507E-4,-9.97764E-2,9.7079194E-1,9.851624E-1,-7.055346E-2,9.94254E-2,1.7590359E-1,6.338935E-2,-2.652462E-1,-4.2156283E-2,2.4837959E-3],"categories":[],"categories_nodes":[],"categories_segments":[],"categories_sizes":[],"default_left":[0,0,0,0,0,0,0,0,0,0,0],"id":63,"left_children":[1,-1,3,5,-1,-1,7,-1,9,-1,-1],"loss_changes":[6.2834644E2,0E0,8.614227E0,2.2263184E0,0E0,0E0,1.1461728E0,0E0,1.5424626E-1,0E0,0E0],"parents":[2147483647,0,0,2,2,3,3,6,6,8,8],"right_children":[2,-1,4,6,-1,-1,8,-1,10,-1,-1],"split_conditions":[3.2E1,-9.97764E-2,5.3E1,2.1E1,-7.055346E-2,9.94254E-2,1E0,6.338935E-2,2.7E1,-4.2156283E-2,2.4837959E-3],"split_indices":[33,0,0,14,0,0,27,0,14,0,0],"split_type":[0,0,0,0,0,0,0,0,0,0,0],"sum_hessian":[6.4669885E2,3.1896014E2,3.2773874E2,3.2536185E2,2.3768804E0,3.2152112E2,3.840747E0,1.6700422E0,2.170705E0,1.1160567E0,1.0546483E0],"tree_param":{"num_deleted":"0","num_feature":"34","num_nodes":"11","size_leaf_vector":"1"}},{"base_weights":[-3.6965054E-3,-9.9735685E-2,9.616997E-1,9.865562E-1,-4.0216956E-1,9.913211E-2,-1.7799208E-2,-9.24178E-1,4.1482914E-2,-1.4154385E-1,-2.5654087E-2],"categories":[],"categories_nodes":[],"categories_segments":[],"categories_sizes":[],"default_left":[0,0,0,0,0,0,0,0,0,0,0],"id":64,"left_children":[1,-1,3,5,7,-1,-1,9,-1,-1,-1],"loss_changes":[5.645614E2,0E0,1.0516571E1,1.8048401E0,2.9650223E0,0E0,0E0,9.4989586E-1,0E0,0E0,0E0],"parents":[2147483647,0,0,2,2,3,3,4,4,7,7],"right_children":[2,-1,4,6,8,-1,-1,10,-1,-1,-1],"split_conditions":[3.2E1,-9.9735685E-2,2.1E1,4.1E1,2.336E4,9.913211E-2,-1.7799208E-2,2.3E1,4.1482914E-2,-1.4154385E-1,-2.5654087E-2],"split_indices":[33,0,14,21,31,0,0,14,0,0,0],"split_type":[0,0,0,0,0,0,0,0,0,0,0],"sum_hessian":[5.865288E2,2.8901706E2,2.9751175E2,2.9245837E2,5.053379E0,2.9141476E2,1.043618E0,3.0032885E0,2.0500906E0,1.0849154E0,1.9183731E0],"tree_param":{"num_deleted":"0","num_feature":"34","num_nodes":"11","size_leaf_vector":"1"}},{"base_weights":[-4.4252193E-3,-9.969156E-2,9.573869E-1,9.845751E-1,-3.7694055E-1,9.926492E-2,-5.1984925E-2,5.8946963E-2,-8.5677284E-1,-2.1971336E-1,-1.405545E-1,-3.8599834E-2,5.37541E-3],"categories":[],"categories_nodes":[],"categories_segments":[],"categories_sizes":[],"default_left":[0,0,0,0,0,0,0,0,0,0,0,0,0],"id":65,"left_children":[1,-1,3,5,7,-1,-1,-1,9,11,-1,-1,-1],"loss_changes":[5.0875388E2,0E0,1.0190262E1,3.741455E0,3.3467052E0,0E0,0E0,0E0,1.2652504E0,1.693979E-1,0E0,0E0,0E0],"parents":[2147483647,0,0,2,2,3,3,4,4,8,8,9,9],"right_children":[2,-1,4,6,8,-1,-1,-1,10,12,-1,-1,-1],"split_conditions":[3.2E1,-9.969156E-2,2.1E1,5.3E1,2.2E1,9.926492E-2,-5.1984925E-2,5.8946963E-2,2.51E2,2.3E1,-1.405545E-1,-3.8599834E-2,5.37541E-3],"split_indices":[33,0,14,0,0,0,0,0,31,13,0,0,0],"split_type":[0,0,0,0,0,0,0,0,0,0,0,0,0],"sum_hessian":[5.3095593E2,2.612926E2,2.6966336E2,2.645353E2,5.1280417E0,2.6346152E2,1.0737909E0,1.6255661E0,3.5024755E0,2.268911E0,1.2335646E0,1.1550646E0,1.1138464E0],"tree_param":{"num_deleted":"0","num_feature":"34","num_nodes":"13","size_leaf_vector":"1"}},{"base_weights":[-4.0579294E-3,-9.964522E-2,9.5467347E-1,9.832862E-1,-3.8003615E-1,9.887691E-2,-1.2308716E-2,5.728488E-2,-8.367695E-1,-2.0637937E-1,2.2894989E-1,5.5849172E-2,-2.5130754E-2],"categories":[],"categories_nodes":[],"categories_segments":[],"categories_sizes":[],"default_left":[0,0,0,0,0,0,0,0,0,0,0,0,0],"id":66,"left_children":[1,-1,3,5,7,-1,-1,-1,9,-1,11,-1,-1],"loss_changes":[4.6029404E2,0E0,9.770966E0,1.5847626E0,3.0408459E0,0E0,0E0,0E0,6.2065945E0,0E0,6.542216E-1,0E0,0E0],"parents":[2147483647,0,0,2,2,3,3,4,4,8,8,10,10],"right_children":[2,-1,4,6,8,-1,-1,-1,10,-1,12,-1,-1],"split_conditions":[3.2E1,-9.964522E-2,2.1E1,3.8E1,2.2E1,9.887691E-2,-1.2308716E-2,5.728488E-2,2.3E2,-2.0637937E-1,2.5E1,5.5849172E-2,-2.5130754E-2],"split_indices":[33,0,14,21,0,0,0,0,32,0,11,0,0],"split_type":[0,0,0,0,0,0,0,0,0,0,0,0,0],"sum_hessian":[4.817871E2,2.3671808E2,2.4506903E2,2.4018343E2,4.8856134E0,2.3910478E2,1.0786346E0,1.5006241E0,3.3849893E0,1.1381015E0,2.246888E0,1.235924E0,1.0109639E0],"tree_param":{"num_deleted":"0","num_feature":"34","num_nodes":"13","size_leaf_vector":"1"}},{"base_weights":[-4.8020235E-3,-9.959508E-2,9.512673E-1,9.691142E-1,-6.70596E-2,9.734837E-2,4.0277587E-3],"categories":[],"categories_nodes":[],"categories_segments":[],"categories_sizes":[],"default_left":[0,0,0,0,0,0,0],"id":67,"left_children":[1,-1,3,5,-1,-1,-1],"loss_changes":[4.154792E2,0E0,7.1098022E0,8.583832E-1,0E0,0E0,0E0],"parents":[2147483647,0,0,2,2,3,3],"right_children":[2,-1,4,6,-1,-1,-1],"split_conditions":[3.2E1,-9.959508E-2,5.3E1,2.12189E5,-6.70596E-2,9.734837E-2,4.0277587E-3],"split_indices":[33,0,0,18,0,0,0],"split_type":[0,0,0,0,0,0,0],"sum_hessian":[4.364512E2,2.1427374E2,2.2217744E2,2.2015732E2,2.0201263E0,2.1907864E2,1.078676E0],"tree_param":{"num_deleted":"0","num_feature":"34","num_nodes":"7","size_leaf_vector":"1"}},{"base_weights":[-3.2944658E-3,-9.954139E-2,9.5267516E-1,9.800561E-1,-2.5589612E-1,9.8603636E-2,-5.849244E-3,5.2871257E-2,-6.36988E-1,-1.5515399E-1,2.110148E-2],"categories":[],"categories_nodes":[],"categories_segments":[],"categories_sizes":[],"default_left":[0,0,0,0,0,0,0,0,0,0,0],"id":68,"left_children":[1,-1,3,5,7,-1,-1,-1,9,-1,-1],"loss_changes":[3.7710483E2,0E0,6.951706E0,1.2887421E0,1.9152337E0,0E0,0E0,0E0,3.4347742E0,0E0,0E0],"parents":[2147483647,0,0,2,2,3,3,4,4,8,8],"right_children":[2,-1,4,6,8,-1,-1,-1,10,-1,-1],"split_conditions":[3.2E1,-9.954139E-2,2.1E1,3.5E1,2.2E1,9.8603636E-2,-5.849244E-3,5.2871257E-2,2.3E2,-1.5515399E-1,2.110148E-2],"split_indices":[33,0,14,21,0,0,0,0,32,0,0],"split_type":[0,0,0,0,0,0,0,0,0,0,0],"sum_hessian":[3.9560715E2,1.9411278E2,2.0149437E2,1.9721541E2,4.278957E0,1.9613657E2,1.0788481E0,1.2722436E0,3.0067134E0,1.0474366E0,1.9592768E0],"tree_param":{"num_deleted":"0","num_feature":"34","num_nodes":"11","size_leaf_vector":"1"}},{"base_weights":[2.5151982E-3,-9.9482514E-2,9.595517E-1,9.7993445E-1,-6.56018E-2,9.9397704E-2,1.1740462E-1,5.2263E-2,-2.517767E-2],"categories":[],"categories_nodes":[],"categories_segments":[],"categories_sizes":[],"default_left":[0,0,0,0,0,0,0,0,0],"id":69,"left_children":[1,-1,3,5,-1,-1,7,-1,-1],"loss_changes":[3.4420236E2,0E0,6.7027283E0,2.089325E0,0E0,0E0,7.377221E-1,0E0,0E0],"parents":[2147483647,0,0,2,2,3,3,6,6],"right_children":[2,-1,4,6,-1,-1,8,-1,-1],"split_conditions":[3.2E1,-9.9482514E-2,5.3E1,2.1E1,-6.56018E-2,9.9397704E-2,2.2E1,5.2263E-2,-2.517767E-2],"split_indices":[33,0,0,14,0,0,0,0,0],"split_type":[0,0,0,0,0,0,0,0,0],"sum_hessian":[3.5861343E2,1.7558966E2,1.8302379E2,1.8113197E2,1.8918014E0,1.780803E2,3.051667E0,1.256665E0,1.795002E0],"tree_param":{"num_deleted":"0","num_feature":"34","num_nodes":"9","size_leaf_vector":"1"}},{"base_weights":[-3.7427272E-3,-9.941883E-2,9.436221E-1,9.751724E-1,-2.4473962E-1,9.823997E-2,-7.7736317E-3,-7.7049695E-2,3.2451743E-1,5.3581256E-2,-6.5331245E-3],"categories":[],"categories_nodes":[],"categories_segments":[],"categories_sizes":[],"default_left":[0,0,0,0,0,0,0,0,0,0,0],"id":70,"left_children":[1,-1,3,5,7,-1,-1,-1,9,-1,-1],"loss_changes":[3.0692975E2,0E0,6.5072174E0,1.3172607E0,1.783434E0,0E0,0E0,0E0,2.9559988E-1,0E0,0E0],"parents":[2147483647,0,0,2,2,3,3,4,4,8,8],"right_children":[2,-1,4,6,8,-1,-1,-1,10,-1,-1],"split_conditions":[3.2E1,-9.941883E-2,2.1E1,3.5E1,4E1,9.823997E-2,-7.7736317E-3,-7.7049695E-2,4.5E1,5.3581256E-2,-6.5331245E-3],"split_indices":[33,0,14,21,22,0,0,0,1,0,0],"split_type":[0,0,0,0,0,0,0,0,0,0,0],"sum_hessian":[3.2510815E2,1.5891608E2,1.6619208E2,1.6206865E2,4.123422E0,1.6103029E2,1.0383703E0,1.9598349E0,2.1635873E0,1.1603011E0,1.0032862E0],"tree_param":{"num_deleted":"0","num_feature":"34","num_nodes":"11","size_leaf_vector":"1"}},{"base_weights":[3.6678024E-4,-9.93497E-2,9.456974E-1,9.690229E-1,-6.450009E-2,9.7381E-2,1.2876848E-2],"categories":[],"categories_nodes":[],"categories_segments":[],"categories_sizes":[],"default_left":[0,0,0,0,0,0,0],"id":71,"left_children":[1,-1,3,5,-1,-1,-1],"loss_changes":[2.792179E2,0E0,6.276428E0,4.8002625E-1,0E0,0E0,0E0],"parents":[2147483647,0,0,2,2,3,3],"right_children":[2,-1,4,6,-1,-1,-1],"split_conditions":[3.2E1,-9.93497E-2,5.3E1,2.0710334E4,-6.450009E-2,9.7381E-2,1.2876848E-2],"split_indices":[33,0,0,16,0,0,0],"split_type":[0,0,0,0,0,0,0],"sum_hessian":[2.9518893E2,1.4387572E2,1.5131322E2,1.4951164E2,1.8015755E0,1.4850664E2,1.0050114E0],"tree_param":{"num_deleted":"0","num_feature":"34","num_nodes":"7","size_leaf_vector":"1"}},{"base_weights":[-4.7378023E-3,-9.927461E-2,9.3340456E-1,9.70316E-1,-3.5356686E-1,9.7641593E-1,1.0625084E-2,-8.099745E-2,2.265162E-2,9.805506E-2,2.2003653E-2],"categories":[],"categories_nodes":[],"categories_segments":[],"categories_sizes":[],"default_left":[0,0,0,0,0,0,0,0,0,0,0],"id":72,"left_children":[1,-1,3,5,7,9,-1,-1,-1,-1,-1],"loss_changes":[2.49903E2,0E0,6.9128494E0,6.0626984E-1,1.3983997E0,2.0220184E-1,0E0,0E0,0E0,0E0,0E0],"parents":[2147483647,0,0,2,2,3,3,4,4,5,5],"right_children":[2,-1,4,6,8,10,-1,-1,-1,-1,-1],"split_conditions":[3.2E1,-9.927461E-2,2.1E1,2.0356096E4,2.3E2,9.5333336E1,1.0625084E-2,-8.099745E-2,2.265162E-2,9.805506E-2,2.2003653E-2],"split_indices":[33,0,14,16,32,6,0,0,0,0,0],"split_type":[0,0,0,0,0,0,0,0,0,0,0],"sum_hessian":[2.6761407E2,1.3031458E2,1.3729951E2,1.3371062E2,3.5888855E0,1.3264418E2,1.0664434E0,1.7867602E0,1.8021253E0,1.3162828E2,1.0159042E0],"tree_param":{"num_deleted":"0","num_feature":"34","num_nodes":"11","size_leaf_vector":"1"}},{"base_weights":[2.0177485E-4,-9.919178E-2,9.34705E-1,9.74585E-1,-2.5444928E-1,9.808136E-1,1.3293715E-2,4.7792464E-2,-5.921559E-1,9.858125E-2,1.989855E-2,-9.336769E-2,-1.13697E-2],"categories":[],"categories_nodes":[],"categories_segments":[],"categories_sizes":[],"default_left":[0,0,0,0,0,0,0,0,0,0,0,0,0],"id":73,"left_children":[1,-1,3,5,7,9,-1,-1,11,-1,-1,-1,-1],"loss_changes":[2.273047E2,0E0,6.235199E0,5.110626E-1,1.4923265E0,2.779312E-1,0E0,0E0,5.136477E-1,0E0,0E0,0E0,0E0],"parents":[2147483647,0,0,2,2,3,3,4,4,5,5,8,8],"right_children":[2,-1,4,6,8,10,-1,-1,12,-1,-1,-1,-1],"split_conditions":[3.2E1,-9.919178E-2,2.1E1,2.0356096E4,2.2E1,9.5333336E1,1.3293715E-2,4.7792464E-2,2.3E1,9.858125E-2,1.989855E-2,-9.336769E-2,-1.13697E-2],"split_indices":[33,0,14,16,0,6,0,0,14,0,0,0,0],"split_type":[0,0,0,0,0,0,0,0,0,0,0,0,0],"sum_hessian":[2.431679E2,1.1791814E2,1.2524976E2,1.2136021E2,3.8895514E0,1.2030454E2,1.0556653E0,1.0964681E0,2.7930832E0,1.19280975E2,1.0235674E0,1.0746087E0,1.7184745E0],"tree_param":{"num_deleted":"0","num_feature":"34","num_nodes":"13","size_leaf_vector":"1"}},{"base_weights":[-2.5504038E-3,-9.9100634E-2,9.190038E-1,9.487326E-1,-6.397586E-2,9.797082E-2,-6.4598195E-2,-5.4905064E-2,4.170332E-2],"categories":[],"categories_nodes":[],"categories_segments":[],"categories_sizes":[],"default_left":[0,0,0,0,0,0,0,0,0],"id":74,"left_children":[1,-1,3,5,-1,-1,7,-1,-1],"loss_changes":[2.032381E2,0E0,5.9576874E0,3.6324081E0,0E0,0E0,1.2348175E0,0E0,0E0],"parents":[2147483647,0,0,2,2,3,3,6,6],"right_children":[2,-1,4,6,-1,-1,8,-1,-1],"split_conditions":[3.2E1,-9.9100634E-2,5.3E1,2.1E1,-6.397586E-2,9.797082E-2,2.3E1,-5.4905064E-2,4.170332E-2],"split_indices":[33,0,0,14,0,0,14,0,0],"split_type":[0,0,0,0,0,0,0,0,0],"sum_hessian":[2.2111426E2,1.0664829E2,1.14465965E2,1.1270775E2,1.7582194E0,1.0939687E2,3.3108726E0,1.5808161E0,1.7300564E0],"tree_param":{"num_deleted":"0","num_feature":"34","num_nodes":"9","size_leaf_vector":"1"}},{"base_weights":[-1.1720936E-3,-9.9005416E-2,9.2285043E-1,-5.125357E-2,9.422004E-1,7.0435256E-1,9.7542566E-1,-2.8684482E-2,8.1364757E-1,9.8135166E-2,3.337809E-2,3.2514372E-1,9.138937E-2,3.898875E-2,9.253405E-3],"categories":[],"categories_nodes":[],"categories_segments":[],"categories_sizes":[],"default_left":[0,0,0,0,0,0,0,0,0,0,0,0,0,0,0],"id":75,"left_children":[1,-1,3,-1,5,7,9,-1,11,-1,-1,13,-1,-1,-1],"loss_changes":[1.8520816E2,0E0,3.393219E0,0E0,1.3276672E-1,2.0007105E0,8.674622E-3,0E0,4.3517208E-1,0E0,0E0,2.5645792E-2,0E0,0E0,0E0],"parents":[2147483647,0,0,2,2,4,4,5,5,6,6,8,8,11,11],"right_children":[2,-1,4,-1,6,8,10,-1,12,-1,-1,14,-1,-1,-1],"split_conditions":[3.2E1,-9.9005416E-2,4.9558105E1,-5.125357E-2,2.3E2,1E5,9.3333336E1,-2.8684482E-2,7.5E5,9.8135166E-2,3.337809E-2,5E5,9.138937E-2,3.898875E-2,9.253405E-3],"split_indices":[33,0,10,0,32,10,6,0,10,0,0,10,0,0,0],"split_type":[0,0,0,0,0,0,0,0,0,0,0,0,0,0,0],"sum_hessian":[2.0069044E2,9.690837E1,1.03782074E2,1.041426E0,1.0274065E2,1.5313788E1,8.7426865E1,1.3595465E0,1.3954242E1,8.610223E1,1.3246385E0,3.0985115E0,1.085573E1,1.8949364E0,1.2035749E0],"tree_param":{"num_deleted":"0","num_feature":"34","num_nodes":"15","size_leaf_vector":"1"}},{"base_weights":[-9.919551E-3,-9.8895036E-2,8.9201045E-1,9.529125E-1,-4.7238842E-1,9.650972E-2,-6.1554164E-3,-1.1134126E-1,1.11481376E-1,4.9856447E-2,-2.6261142E-2],"categories":[],"categories_nodes":[],"categories_segments":[],"categories_sizes":[],"default_left":[0,0,0,0,0,0,0,0,0,0,0],"id":76,"left_children":[1,-1,3,5,7,-1,-1,-1,9,-1,-1],"loss_changes":[1.6309279E2,0E0,8.438942E0,1.2011108E0,1.911885E0,0E0,0E0,0E0,6.2452924E-1,0E0,0E0],"parents":[2147483647,0,0,2,2,3,3,4,4,8,8],"right_children":[2,-1,4,6,8,-1,-1,-1,10,-1,-1],"split_conditions":[3.2E1,-9.8895036E-2,2.1E1,3E1,2.3E1,9.650972E-2,-6.1554164E-3,-1.1134126E-1,7.2E1,4.9856447E-2,-2.6261142E-2],"split_indices":[33,0,14,21,14,0,0,0,13,0,0],"split_type":[0,0,0,0,0,0,0,0,0,0,0],"sum_hessian":[1.827004E2,8.755948E1,9.5140915E1,9.136432E1,3.7765992E0,9.0328064E1,1.0362502E0,1.3678728E0,2.4087262E0,1.0202839E0,1.3884424E0],"tree_param":{"num_deleted":"0","num_feature":"34","num_nodes":"11","size_leaf_vector":"1"}},{"base_weights":[-4.6323203E-3,8.96599E-1,-9.8786265E-2,-1.317343E-1,9.536553E-1,9.637455E-1,4.77345E-3,9.747663E-2,4.3617344E-1,2.7668162E-3,6.0292054E-2],"categories":[],"categories_nodes":[],"categories_segments":[],"categories_sizes":[],"default_left":[0,0,0,0,0,0,0,0,0,0,0],"id":77,"left_children":[1,3,-1,-1,5,7,-1,-1,9,-1,-1],"loss_changes":[1.4901735E2,1.2340286E1,0E0,0E0,7.412262E-1,6.9755554E-2,0E0,0E0,2.2524291E-1,0E0,0E0],"parents":[2147483647,0,0,1,1,4,4,5,5,8,8],"right_children":[2,4,-1,-1,6,8,-1,-1,10,-1,-1],"split_conditions":[5.3E1,1.49E2,-9.8786265E-2,-1.317343E-1,2.0677666E4,2.1E1,4.77345E-3,9.747663E-2,1E0,2.7668162E-3,6.0292054E-2],"split_indices":[0,31,0,0,16,14,0,0,28,0,0],"split_type":[0,0,0,0,0,0,0,0,0,0,0],"sum_hessian":[1.6616919E2,8.674585E1,7.942335E1,1.6244434E0,8.512141E1,8.4120636E1,1.0007709E0,8.156903E1,2.5516007E0,1.0775919E0,1.4740088E0],"tree_param":{"num_deleted":"0","num_feature":"34","num_nodes":"11","size_leaf_vector":"1"}},{"base_weights":[-5.672191E-3,8.900572E-1,-9.865774E-2,-1.3310389E-1,9.48017E-1,9.599523E-1,5.1997337E-3,9.719419E-2,4.3809256E-1,6.0043897E-2,3.8874191E-3],"categories":[],"categories_nodes":[],"categories_segments":[],"categories_sizes":[],"default_left":[0,0,0,0,0,0,0,0,0,0,0],"id":78,"left_children":[1,3,-1,-1,5,7,-1,-1,9,-1,-1],"loss_changes":[1.3441736E2,1.1556484E1,0E0,0E0,7.8977203E-1,5.8670044E-2,0E0,0E0,2.0736092E-1,0E0,0E0],"parents":[2147483647,0,0,1,1,4,4,5,5,8,8],"right_children":[2,4,-1,-1,6,8,-1,-1,10,-1,-1],"split_conditions":[5.3E1,1.49E2,-9.865774E-2,-1.3310389E-1,2.0356096E4,2.1E1,5.1997337E-3,9.719419E-2,1E0,6.0043897E-2,3.8874191E-3],"split_indices":[0,31,0,0,16,14,0,0,27,0,0],"split_type":[0,0,0,0,0,0,0,0,0,0,0],"sum_hessian":[1.5098651E2,7.896812E1,7.2018394E1,1.4496775E0,7.751843E1,7.642902E1,1.0894109E0,7.386944E1,2.5595837E0,1.4612957E0,1.0982879E0],"tree_param":{"num_deleted":"0","num_feature":"34","num_nodes":"11","size_leaf_vector":"1"}},{"base_weights":[-4.4136546E-3,8.85643E-1,-9.8514624E-2,-1.3437882E-1,9.4439983E-1,9.557279E-2,9.908821E-3],"categories":[],"categories_nodes":[],"categories_segments":[],"categories_sizes":[],"default_left":[0,0,0,0,0,0,0],"id":79,"left_children":[1,3,-1,-1,5,-1,-1],"loss_changes":[1.2152268E2,1.0829632E1,0E0,0E0,5.918579E-1,0E0,0E0],"parents":[2147483647,0,0,1,1,4,4],"right_children":[2,4,-1,-1,6,-1,-1],"split_conditions":[5.3E1,1.49E2,-9.8514624E-2,-1.3437882E-1,4.19332E5,9.557279E-2,9.908821E-3],"split_indices":[0,31,0,0,1,0,0],"split_type":[0,0,0,0,0,0,0],"sum_hessian":[1.3721648E2,7.198447E1,6.523202E1,1.2868475E0,7.069762E1,6.963383E1,1.0637871E0],"tree_param":{"num_deleted":"0","num_feature":"34","num_nodes":"7","size_leaf_vector":"1"}},{"base_weights":[-7.86962E-3,8.774423E-1,-9.8362796E-2,-9.327204E-2,9.2234325E-1,5.729913E-1,9.764219E-2,-3.8610306E-2,7.7769256E-1,8.698838E-2,2.5904326E-2],"categories":[],"categories_nodes":[],"categories_segments":[],"categories_sizes":[],"default_left":[0,0,0,0,0,0,0,0,0,0,0],"id":80,"left_children":[1,3,-1,-1,5,7,-1,-1,9,-1,-1],"loss_changes":[1.09412994E2,6.258049E0,0E0,0E0,6.743202E-1,2.494121E0,0E0,0E0,2.3085022E-1,0E0,0E0],"parents":[2147483647,0,0,1,1,4,4,5,5,8,8],"right_children":[2,4,-1,-1,6,8,-1,-1,10,-1,-1],"split_conditions":[5.3E1,1.49E2,-9.8362796E-2,-9.327204E-2,3.2E1,1E5,9.764219E-2,-3.8610306E-2,3E0,8.698838E-2,2.5904326E-2],"split_indices":[0,31,0,0,23,10,0,0,1,0,0],"split_type":[0,0,0,0,0,0,0,0,0,0,0],"sum_hessian":[1.24658226E2,6.541109E1,5.9247147E1,1.1046515E0,6.4306435E1,1.0174429E1,5.4132004E1,1.6337203E0,8.540709E0,6.6766987E0,1.8640103E0],"tree_param":{"num_deleted":"0","num_feature":"34","num_nodes":"11","size_leaf_vector":"1"}},{"base_weights":[-1.4296565E-2,8.541196E-1,-9.819054E-2,-1.356838E-1,9.161766E-1,5.4345953E-1,9.788875E-2,7.6310045E-1,-3.38873E-2,8.6062305E-2,2.4806956E-2],"categories":[],"categories_nodes":[],"categories_segments":[],"categories_sizes":[],"default_left":[0,0,0,0,0,0,0,0,0,0,0],"id":81,"left_children":[1,3,-1,-1,5,7,-1,9,-1,-1,-1],"loss_changes":[9.707896E1,9.598225E0,0E0,0E0,8.664322E-1,2.3641531E0,0E0,2.3889112E-1,0E0,0E0,0E0],"parents":[2147483647,0,0,1,1,4,4,5,5,7,7],"right_children":[2,4,-1,-1,6,8,-1,10,-1,-1,-1],"split_conditions":[5.3E1,1.49E2,-9.819054E-2,-1.356838E-1,2.3E2,2.1E1,9.788875E-2,3E0,-3.38873E-2,8.6062305E-2,2.4806956E-2],"split_indices":[0,31,0,0,32,11,0,1,0,0,0],"split_type":[0,0,0,0,0,0,0,0,0,0,0],"sum_hessian":[1.13532616E2,5.9894962E1,5.363765E1,1.0655985E0,5.8829365E1,9.864804E0,4.8964558E1,8.00679E0,1.8580148E0,6.1678734E0,1.8389164E0],"tree_param":{"num_deleted":"0","num_feature":"34","num_nodes":"11","size_leaf_vector":"1"}},{"base_weights":[3.0431547E-3,-9.7991705E-2,8.7470126E-1,9.5100373E-1,-3.1182212E-1,9.650447E-2,1.8136408E-2,-7.180443E-2,3.697474E-2],"categories":[],"categories_nodes":[],"categories_segments":[],"categories_sizes":[],"default_left":[0,0,0,0,0,0,0,0,0],"id":82,"left_children":[1,-1,3,5,7,-1,-1,-1,-1],"loss_changes":[9.017063E1,0E0,5.3462296E0,3.9397812E-1,1.4070783E0,0E0,0E0,0E0,0E0],"parents":[2147483647,0,0,2,2,3,3,4,4],"right_children":[2,-1,4,6,8,-1,-1,-1,-1],"split_conditions":[3.2E1,-9.7991705E-2,2.1E1,2.3E1,2.336E4,9.650447E-2,1.8136408E-2,-7.180443E-2,3.697474E-2],"split_indices":[33,0,14,21,31,0,0,0,0],"split_type":[0,0,0,0,0,0,0,0,0],"sum_hessian":[1.0324014E2,4.84638E1,5.4776344E1,5.165315E1,3.123194E0,5.0478348E1,1.1748013E0,1.9233452E0,1.1998487E0],"tree_param":{"num_deleted":"0","num_feature":"34","num_nodes":"9","size_leaf_vector":"1"}},{"base_weights":[-7.811804E-3,-9.778577E-2,8.4487575E-1,3.3806664E-1,9.45247E-1,-1.9447495E-1,8.410165E-2,9.686198E-2,9.1934606E-4],"categories":[],"categories_nodes":[],"categories_segments":[],"categories_sizes":[],"default_left":[0,0,0,0,0,0,0,0,0],"id":83,"left_children":[1,-1,3,5,7,-1,-1,-1,-1],"loss_changes":[7.942617E1,0E0,2.280281E0,1.3123145E1,9.1223526E-1,0E0,0E0,0E0,0E0],"parents":[2147483647,0,0,2,2,3,3,4,4],"right_children":[2,-1,4,6,8,-1,-1,-1,-1],"split_conditions":[3.2E1,-9.778577E-2,2.3E2,2.336E4,2.6E1,-1.9447495E-1,8.410165E-2,9.686198E-2,9.1934606E-4],"split_indices":[33,0,32,31,21,0,0,0,0],"split_type":[0,0,0,0,0,0,0,0,0],"sum_hessian":[9.4025536E1,4.3917137E1,5.0108402E1,9.005363E0,4.110304E1,1.1082934E0,7.8970704E0,4.0067772E1,1.0352663E0],"tree_param":{"num_deleted":"0","num_feature":"34","num_nodes":"9","size_leaf_vector":"1"}},{"base_weights":[-7.7743037E-3,8.4435916E-1,-9.757902E-2,9.683424E-2,-5.5220354E-1,-9.4876814E-1,3.3717524E-2,-1.4547616E-1,-9.353237E-3],"categories":[],"categories_nodes":[],"categories_segments":[],"categories_sizes":[],"default_left":[0,0,0,0,0,0,0,0,0],"id":84,"left_children":[1,3,-1,-1,5,7,-1,-1,-1],"loss_changes":[7.232208E1,8.609402E0,0E0,0E0,1.8856267E0,1.3060484E0,0E0,0E0,0E0],"parents":[2147483647,0,0,1,1,4,4,5,5],"right_children":[2,4,-1,-1,6,8,-1,-1,-1],"split_conditions":[5.3E1,2.1E1,-9.757902E-2,9.683424E-2,2.6883E4,2.3E1,3.3717524E-2,-1.4547616E-1,-9.353237E-3],"split_indices":[0,14,0,0,31,14,0,0,0],"split_type":[0,0,0,0,0,0,0,0,0],"sum_hessian":[8.567719E1,4.563391E1,4.0043278E1,4.2194607E1,3.439305E0,2.3324943E0,1.1068108E0,1.0250343E0,1.30746E0],"tree_param":{"num_deleted":"0","num_feature":"34","num_nodes":"9","size_leaf_vector":"1"}},{"base_weights":[-1.9834524E-2,-9.731987E-2,8.011947E-1,9.159285E-1,-4.3813345E-1,9.3378305E-2,1.3766964E-2,-8.83421E-2,3.248637E-2],"categories":[],"categories_nodes":[],"categories_segments":[],"categories_sizes":[],"default_left":[0,0,0,0,0,0,0,0,0],"id":85,"left_children":[1,-1,3,5,7,-1,-1,-1,-1],"loss_changes":[6.2900005E1,0E0,6.5424976E0,4.252243E-1,1.7601552E0,0E0,0E0,0E0,0E0],"parents":[2147483647,0,0,2,2,3,3,4,4],"right_children":[2,-1,4,6,8,-1,-1,-1,-1],"split_conditions":[3.2E1,-9.731987E-2,2.1E1,2.3E1,2.3E2,9.3378305E-2,1.3766964E-2,-8.83421E-2,3.248637E-2],"split_indices":[33,0,14,21,32,0,0,0,0],"split_type":[0,0,0,0,0,0,0,0,0],"sum_hessian":[7.8362625E1,3.6173397E1,4.2189228E1,3.885324E1,3.3359835E0,3.778652E1,1.0667241E0,2.0069127E0,1.3290707E0],"tree_param":{"num_deleted":"0","num_feature":"34","num_nodes":"9","size_leaf_vector":"1"}},{"base_weights":[-2.087364E-2,7.955362E-1,-9.708347E-2,9.3296215E-2,-4.2191938E-1,-8.431681E-1,5.1289774E-2,-1.5068427E-1,3.4978356E-2],"categories":[],"categories_nodes":[],"categories_segments":[],"categories_sizes":[],"default_left":[0,0,0,0,0,0,0,0,0],"id":86,"left_children":[1,3,-1,-1,5,7,-1,-1,-1],"loss_changes":[5.7248257E1,7.0379124E0,0E0,0E0,2.289822E0,3.4007993E0,0E0,0E0,0E0],"parents":[2147483647,0,0,1,1,4,4,5,5],"right_children":[2,4,-1,-1,6,8,-1,-1,-1],"split_conditions":[5.3E1,2.1E1,-9.708347E-2,9.3296215E-2,2.3E2,2.6883E4,5.1289774E-2,-1.5068427E-1,3.4978356E-2],"split_indices":[0,14,0,0,32,31,0,0,0],"split_type":[0,0,0,0,0,0,0,0,0],"sum_hessian":[7.181977E1,3.8712376E1,3.31074E1,3.4995747E1,3.716628E0,2.629678E0,1.08695E0,1.5206009E0,1.1090771E0],"tree_param":{"num_deleted":"0","num_feature":"34","num_nodes":"9","size_leaf_vector":"1"}},{"base_weights":[8.913428E-3,-9.675832E-2,8.245134E-1,8.5951513E-1,-1.8401504E-2,4.110827E-1,9.4354004E-1,-5.6016244E-2,7.6021515E-2,9.602931E-2,2.4235213E-2],"categories":[],"categories_nodes":[],"categories_segments":[],"categories_sizes":[],"default_left":[0,0,0,0,0,0,0,0,0,0,0],"id":87,"left_children":[1,-1,3,5,-1,7,9,-1,-1,-1,-1],"loss_changes":[5.383977E1,0E0,1.4582539E0,9.5993805E-1,0E0,2.9408422E0,1.1208916E-1,0E0,0E0,0E0,0E0],"parents":[2147483647,0,0,2,2,3,3,5,5,6,6],"right_children":[2,-1,4,6,-1,8,10,-1,-1,-1,-1],"split_conditions":[3.2E1,-9.675832E-2,1.9767E4,2.3E2,-1.8401504E-2,1E5,2.1E1,-5.6016244E-2,7.6021515E-2,9.602931E-2,2.4235213E-2],"split_indices":[33,0,11,32,0,10,21,0,0,0,0],"split_type":[0,0,0,0,0,0,0,0,0,0,0],"sum_hessian":[6.559963E1,2.9770203E1,3.5829433E1,3.477045E1,1.058982E0,6.416834E0,2.8353619E1,1.5369049E0,4.8799286E0,2.7331087E1,1.02253E0],"tree_param":{"num_deleted":"0","num_feature":"34","num_nodes":"11","size_leaf_vector":"1"}},{"base_weights":[-2.6483612E-2,7.674933E-1,-9.649095E-2,9.194216E-2,-4.4289035E-1,-1.0040145E-1,1.7675817E-2],"categories":[],"categories_nodes":[],"categories_segments":[],"categories_sizes":[],"default_left":[0,0,0,0,0,0,0],"id":88,"left_children":[1,3,-1,-1,5,-1,-1],"loss_changes":[4.6158287E1,6.581604E0,0E0,0E0,1.7140958E0,0E0,0E0],"parents":[2147483647,0,0,1,1,4,4],"right_children":[2,4,-1,-1,6,-1,-1],"split_conditions":[5.3E1,2.1E1,-9.649095E-2,9.194216E-2,2.3E1,-1.0040145E-1,1.7675817E-2],"split_indices":[0,14,0,0,14,0,0],"split_type":[0,0,0,0,0,0,0],"sum_hessian":[5.9956146E1,3.2576332E1,2.7379814E1,2.9156923E1,3.419411E0,1.4689254E0,1.9504855E0],"tree_param":{"num_deleted":"0","num_feature":"34","num_nodes":"7","size_leaf_vector":"1"}},{"base_weights":[-1.0472472E-2,7.7533996E-1,-9.615322E-2,9.056505E-1,-1.6430685E-1,9.220669E-2,2.5521139E-2,-5.912907E-2,2.2073017E-1,5.1304787E-2,-1.8428626E-2],"categories":[],"categories_nodes":[],"categories_segments":[],"categories_sizes":[],"default_left":[0,0,0,0,0,0,0,0,0,0,0],"id":89,"left_children":[1,3,-1,5,7,-1,-1,-1,9,-1,-1],"loss_changes":[4.279866E1,3.9893188E0,0E0,6.044197E-2,8.976923E-1,0E0,0E0,0E0,4.712633E-1,0E0,0E0],"parents":[2147483647,0,0,1,1,3,3,4,4,8,8],"right_children":[2,4,-1,6,8,-1,-1,-1,10,-1,-1],"split_conditions":[5.3E1,2.1E1,-9.615322E-2,1E1,2.3E1,9.220669E-2,2.5521139E-2,-5.912907E-2,1.9606E4,5.1304787E-2,-1.8428626E-2],"split_indices":[0,14,0,14,14,0,0,0,13,0,0],"split_type":[0,0,0,0,0,0,0,0,0,0,0],"sum_hessian":[5.5269337E1,3.0365023E1,2.4904316E1,2.669863E1,3.6663933E0,2.5634045E1,1.064584E0,1.484498E0,2.1818953E0,1.112339E0,1.0695561E0],"tree_param":{"num_deleted":"0","num_feature":"34","num_nodes":"11","size_leaf_vector":"1"}},{"base_weights":[-3.44324E-2,7.273997E-1,-9.577542E-2,9.044858E-2,-4.6509424E-1,-8.8076584E-2,3.5721842E-2],"categories":[],"categories_nodes":[],"categories_segments":[],"categories_sizes":[],"default_left":[0,0,0,0,0,0,0],"id":90,"left_children":[1,3,-1,-1,5,-1,-1],"loss_changes":[3.6749786E1,6.471101E0,0E0,0E0,1.8066423E0,0E0,0E0],"parents":[2147483647,0,0,1,1,4,4],"right_children":[2,4,-1,-1,6,-1,-1],"split_conditions":[5.3E1,2.1E1,-9.577542E-2,9.044858E-2,2.6883E4,-8.8076584E-2,3.5721842E-2],"split_indices":[0,14,0,0,31,0,0],"split_type":[0,0,0,0,0,0,0],"sum_hessian":[5.0254322E1,2.7651379E1,2.2602942E1,2.4286358E1,3.3650215E0,2.1879492E0,1.1770722E0],"tree_param":{"num_deleted":"0","num_feature":"34","num_nodes":"7","size_leaf_vector":"1"}},{"base_weights":[-1.2761611E-2,7.454713E-1,-9.535422E-2,1.6811039E-1,8.901099E-2,-1.3643265E-1,7.377618E-2],"categories":[],"categories_nodes":[],"categories_segments":[],"categories_sizes":[],"default_left":[0,0,0,0,0,0,0],"id":91,"left_children":[1,3,-1,5,-1,-1,-1],"loss_changes":[3.433915E1,2.0771341E0,0E0,6.745952E0,0E0,0E0,0E0],"parents":[2147483647,0,0,1,1,3,3],"right_children":[2,4,-1,6,-1,-1,-1],"split_conditions":[5.3E1,3.2E1,-9.535422E-2,2.6883E4,8.901099E-2,-1.3643265E-1,7.377618E-2],"split_indices":[0,23,0,31,0,0,0],"split_type":[0,0,0,0,0,0,0],"sum_hessian":[4.6142662E1,2.5665146E1,2.0477514E1,5.574686E0,2.009046E1,1.1326606E0,4.442025E0],"tree_param":{"num_deleted":"0","num_feature":"34","num_nodes":"7","size_leaf_vector":"1"}},{"base_weights":[-1.1129706E-2,7.238512E-1,-9.491873E-2,2.3989419E-2,9.350841E-2,-1.3186777E-1,7.002287E-2],"categories":[],"categories_nodes":[],"categories_segments":[],"categories_sizes":[],"default_left":[0,0,0,0,0,0,0],"id":92,"left_children":[1,3,-1,5,-1,-1,-1],"loss_changes":[3.0836565E1,3.6861382E0,0E0,7.1360445E0,0E0,0E0,0E0],"parents":[2147483647,0,0,1,1,3,3],"right_children":[2,4,-1,6,-1,-1,-1],"split_conditions":[5.3E1,2.3E2,-9.491873E-2,2.6883E4,9.350841E-2,-1.3186777E-1,7.002287E-2],"split_indices":[0,32,0,31,0,0,0],"split_type":[0,0,0,0,0,0,0],"sum_hessian":[4.27295E1,2.4086079E1,1.8643421E1,5.8424153E0,1.8243664E1,1.638725E0,4.2036905E0],"tree_param":{"num_deleted":"0","num_feature":"34","num_nodes":"7","size_leaf_vector":"1"}},{"base_weights":[-3.5284527E-2,6.690135E-1,-9.443166E-2,-1.2002581E-1,9.280875E-2,-1.5895173E-1,6.795109E-2],"categories":[],"categories_nodes":[],"categories_segments":[],"categories_sizes":[],"default_left":[0,0,0,0,0,0,0],"id":93,"left_children":[1,3,-1,5,-1,-1,-1],"loss_changes":[2.6320114E1,4.8525066E0,0E0,8.856097E0,0E0,0E0,0E0],"parents":[2147483647,0,0,1,1,3,3],"right_children":[2,4,-1,6,-1,-1,-1],"split_conditions":[5.3E1,2.3E2,-9.443166E-2,2.6883E4,9.280875E-2,-1.5895173E-1,6.795109E-2],"split_indices":[0,32,0,31,0,0,0],"split_type":[0,0,0,0,0,0,0],"sum_hessian":[3.9123665E1,2.219303E1,1.6930634E1,5.618368E0,1.6574661E1,1.6315845E0,3.9867837E0],"tree_param":{"num_deleted":"0","num_feature":"34","num_nodes":"7","size_leaf_vector":"1"}},{"base_weights":[-3.5589874E-2,6.4721984E-1,-9.39106E-2,-1.3258447E-1,9.2007324E-2,-1.4290576E-1,6.518991E-2],"categories":[],"categories_nodes":[],"categories_segments":[],"categories_sizes":[],"default_left":[0,0,0,0,0,0,0],"id":94,"left_children":[1,3,-1,5,-1,-1,-1],"loss_changes":[2.3531918E1,4.751089E0,0E0,7.55606E0,0E0,0E0,0E0],"parents":[2147483647,0,0,1,1,3,3],"right_children":[2,4,-1,6,-1,-1,-1],"split_conditions":[5.3E1,2.3E2,-9.39106E-2,2.6883E4,9.2007324E-2,-1.4290576E-1,6.518991E-2],"split_indices":[0,32,0,31,0,0,0],"split_type":[0,0,0,0,0,0,0],"sum_hessian":[3.615839E1,2.075613E1,1.5402261E1,5.5133295E0,1.5242801E1,1.7686782E0,3.7446513E0],"tree_param":{"num_deleted":"0","num_feature":"34","num_nodes":"7","size_leaf_vector":"1"}},{"base_weights":[-4.1939463E-2,6.290602E-1,-9.336252E-2,8.4295136E-1,-3.5309342E-1,3.6187466E-2,9.07721E-2,-9.409869E-2,2.9638499E-2],"categories":[],"categories_nodes":[],"categories_segments":[],"categories_sizes":[],"default_left":[0,0,0,0,0,0,0,0,0],"id":95,"left_children":[1,3,-1,5,7,-1,-1,-1,-1],"loss_changes":[2.0996445E1,4.5120173E0,0E0,1.94026E-1,1.9178371E0,0E0,0E0,0E0,0E0],"parents":[2147483647,0,0,1,1,3,3,4,4],"right_children":[2,4,-1,6,8,-1,-1,-1,-1],"split_conditions":[5.3E1,2.1E1,-9.336252E-2,2.3E2,2.3E1,3.6187466E-2,9.07721E-2,-9.409869E-2,2.9638499E-2],"split_indices":[0,14,0,32,14,0,0,0,0],"split_type":[0,0,0,0,0,0,0,0,0],"sum_hessian":[3.311069E1,1.906139E1,1.4049301E1,1.5768988E1,3.292403E0,2.652753E0,1.3116235E1,1.4925474E0,1.7998555E0],"tree_param":{"num_deleted":"0","num_feature":"34","num_nodes":"9","size_leaf_vector":"1"}},{"base_weights":[-2.3269946E-2,6.1865383E-1,-9.275584E-2,8.573653E-1,-1.2013386E-1,3.4140494E-2,9.128559E-2,-5.367138E-2,3.7745434E-1,-5.5372193E-3,6.054849E-2],"categories":[],"categories_nodes":[],"categories_segments":[],"categories_sizes":[],"default_left":[0,0,0,0,0,0,0,0,0,0,0],"id":96,"left_children":[1,3,-1,5,7,-1,-1,-1,9,-1,-1],"loss_changes":[1.92975E1,3.5356283E0,0E0,1.1305046E-1,1.3696742E0,0E0,0E0,0E0,3.447029E-1,0E0,0E0],"parents":[2147483647,0,0,1,1,3,3,4,4,8,8],"right_children":[2,4,-1,6,8,-1,-1,-1,10,-1,-1],"split_conditions":[5.3E1,1E1,-9.275584E-2,4E0,2.3E1,3.4140494E-2,9.128559E-2,-5.367138E-2,1E0,-5.5372193E-3,6.054849E-2],"split_indices":[0,14,0,1,14,0,0,0,28,0,0],"split_type":[0,0,0,0,0,0,0,0,0,0,0],"sum_hessian":[3.1255249E1,1.8464085E1,1.2791163E1,1.3833732E1,4.6303535E0,2.03786E0,1.1795872E1,2.4775352E0,2.1528182E0,1.0041001E0,1.148718E0],"tree_param":{"num_deleted":"0","num_feature":"34","num_nodes":"11","size_leaf_vector":"1"}},{"base_weights":[-5.12771E-2,5.735374E-1,-9.2108384E-2,-2.1878669E-1,8.958175E-2,6.367841E-2,-1.5991686E-1],"categories":[],"categories_nodes":[],"categories_segments":[],"categories_sizes":[],"default_left":[0,0,0,0,0,0,0],"id":97,"left_children":[1,3,-1,5,-1,-1,-1],"loss_changes":[1.6490524E1,4.7179947E0,0E0,8.014829E0,0E0,0E0,0E0],"parents":[2147483647,0,0,1,1,3,3],"right_children":[2,4,-1,6,-1,-1,-1],"split_conditions":[5.3E1,2.3E2,-9.2108384E-2,2.2E1,8.958175E-2,6.367841E-2,-1.5991686E-1],"split_indices":[0,32,0,0,0,0,0],"split_type":[0,0,0,0,0,0,0],"sum_hessian":[2.8371101E1,1.6709011E1,1.1662089E1,4.924147E0,1.1784864E1,3.3725228E0,1.5516244E0],"tree_param":{"num_deleted":"0","num_feature":"34","num_nodes":"7","size_leaf_vector":"1"}},{"base_weights":[-1.2473857E-4,-9.138962E-2,6.300181E-1,8.203558E-1,2.3335868E-2,2.9358266E-2,8.82072E-2,-3.5043883E-1,4.421183E-2,4.797851E-3,-5.60219E-2],"categories":[],"categories_nodes":[],"categories_segments":[],"categories_sizes":[],"default_left":[0,0,0,0,0,0,0,0,0,0,0],"id":98,"left_children":[1,-1,3,5,7,-1,-1,9,-1,-1,-1],"loss_changes":[1.63789E1,0E0,1.9249253E0,1.5670872E-1,9.453803E-1,0E0,0E0,2.965173E-1,0E0,0E0,0E0],"parents":[2147483647,0,0,2,2,3,3,4,4,7,7],"right_children":[2,-1,4,6,8,-1,-1,10,-1,-1,-1],"split_conditions":[3.2E1,-9.138962E-2,1E1,4E0,2.3E1,2.9358266E-2,8.82072E-2,1E0,4.421183E-2,4.797851E-3,-5.60219E-2],"split_indices":[33,0,14,1,14,0,0,27,0,0,0],"split_type":[0,0,0,0,0,0,0,0,0,0,0],"sum_hessian":[2.6445206E1,1.0609724E1,1.5835482E1,1.1785693E1,4.0497885E0,1.8397385E0,9.945954E0,2.2261157E0,1.8236729E0,1.0338688E0,1.1922468E0],"tree_param":{"num_deleted":"0","num_feature":"34","num_nodes":"11","size_leaf_vector":"1"}},{"base_weights":[3.6528435E-2,-9.0661064E-2,6.6972536E-1,8.972474E-2,-3.4450274E-3,3.5742947E-1,-3.7608407E-2,5.520033E-3,4.879819E-2],"categories":[],"categories_nodes":[],"categories_segments":[],"categories_sizes":[],"default_left":[0,0,0,0,0,0,0,0,0],"id":99,"left_children":[1,-1,3,-1,5,7,-1,-1,-1],"loss_changes":[1.5890015E1,0E0,2.4362984E0,0E0,8.080476E-1,9.370279E-2,0E0,0E0,0E0],"parents":[2147483647,0,0,2,2,4,4,5,5],"right_children":[2,-1,4,-1,6,8,-1,-1,-1],"split_conditions":[3.2E1,-9.0661064E-2,1E1,8.972474E-2,2.51E2,2.3E1,-3.7608407E-2,5.520033E-3,4.879819E-2],"split_indices":[33,0,14,0,31,13,0,0,0],"split_type":[0,0,0,0,0,0,0,0,0],"sum_hessian":[2.4591127E1,9.704538E0,1.4886589E1,1.0877336E1,4.009254E0,2.0575137E0,1.9517403E0,1.0498741E0,1.0076396E0],"tree_param":{"num_deleted":"0","num_feature":"34","num_nodes":"9","size_leaf_vector":"1"}},{"base_weights":[-2.8852301E-3,5.897656E-1,-8.995113E-2,8.638351E-1,-2.6639786E-1,8.9776486E-2,2.543648E-2,-7.249084E-2,2.99706E-2],"categories":[],"categories_nodes":[],"categories_segments":[],"categories_sizes":[],"default_left":[0,0,0,0,0,0,0,0,0],"id":100,"left_children":[1,3,-1,5,7,-1,-1,-1,-1],"loss_changes":[1.3283069E1,3.7621694E0,0E0,1.2307167E-2,1.363074E0,0E0,0E0,0E0,0E0],"parents":[2147483647,0,0,1,1,3,3,4,4],"right_children":[2,4,-1,6,8,-1,-1,-1,-1],"split_conditions":[5.3E1,2.1E1,-8.995113E-2,2.4247562E4,2.3E1,8.9776486E-2,2.543648E-2,-7.249084E-2,2.99706E-2],"split_indices":[0,14,0,12,14,0,0,0,0],"split_type":[0,0,0,0,0,0,0,0,0],"sum_hessian":[2.2998682E1,1.4052509E1,8.946172E0,1.0638137E1,3.4143724E0,9.629054E0,1.009083E0,1.7314658E0,1.6829065E0],"tree_param":{"num_deleted":"0","num_feature":"34","num_nodes":"9","size_leaf_vector":"1"}},{"base_weights":[-2.6162576E-2,5.1656073E-1,-8.910727E-2,-1.2688042E-1,8.710598E-2,5.90891E-2,-9.462562E-1,-1.8307835E-1,3.0532232E-2],"categories":[],"categories_nodes":[],"categories_segments":[],"categories_sizes":[],"default_left":[0,0,0,0,0,0,0,0,0],"id":101,"left_children":[1,3,-1,5,-1,-1,7,-1,-1],"loss_changes":[1.1185712E1,3.4572744E0,0E0,4.1378303E0,0E0,0E0,4.1300826E0,0E0,0E0],"parents":[2147483647,0,0,1,1,3,3,6,6],"right_children":[2,4,-1,6,-1,-1,8,-1,-1],"split_conditions":[5.3E1,2.3E2,-8.910727E-2,2.2E1,8.710598E-2,5.90891E-2,3.817E3,-1.8307835E-1,3.0532232E-2],"split_indices":[0,32,0,0,0,0,1,0,0],"split_type":[0,0,0,0,0,0,0,0,0],"sum_hessian":[2.1848877E1,1.3672355E1,8.176522E0,5.08493E0,8.587424E0,2.8591623E0,2.2257676E0,1.0329628E0,1.1928047E0],"tree_param":{"num_deleted":"0","num_feature":"34","num_nodes":"9","size_leaf_vector":"1"}},{"base_weights":[-6.619818E-2,-8.820781E-2,4.5982295E-1,7.5717616E-1,-2.2622009E-1,1.719051E-2,8.390106E-2,-5.028665E-1,3.2986227E-2,-7.4820176E-2,7.908879E-4],"categories":[],"categories_nodes":[],"categories_segments":[],"categories_sizes":[],"default_left":[0,0,0,0,0,0,0,0,0,0,0],"id":102,"left_children":[1,-1,3,5,7,-1,-1,9,-1,-1,-1],"loss_changes":[9.31305E0,0E0,2.8796504E0,3.1039476E-1,9.019028E-1,0E0,0E0,4.5591933E-1,0E0,0E0,0E0],"parents":[2147483647,0,0,2,2,3,3,4,4,7,7],"right_children":[2,-1,4,6,8,-1,-1,10,-1,-1,-1],"split_conditions":[3.2E1,-8.820781E-2,1E1,4E0,2.336E4,1.719051E-2,8.390106E-2,2.2E1,3.2986227E-2,-7.4820176E-2,7.908879E-4],"split_indices":[33,0,14,1,31,0,0,14,0,0,0],"split_type":[0,0,0,0,0,0,0,0,0,0,0],"sum_hessian":[1.975506E1,7.4785857E0,1.2276475E1,8.492057E0,3.7844179E0,1.4220873E0,7.0699697E0,2.5910764E0,1.1933414E0,1.4363397E0,1.1547366E0],"tree_param":{"num_deleted":"0","num_feature":"34","num_nodes":"11","size_leaf_vector":"1"}},{"base_weights":[4.4905834E-2,6.04761E-1,-8.7296866E-2,1.2759672E-1,8.504738E-2,5.7257194E-2,-4.8960082E-2],"categories":[],"categories_nodes":[],"categories_segments":[],"categories_sizes":[],"default_left":[0,0,0,0,0,0,0],"id":103,"left_children":[1,3,-1,5,-1,-1,-1],"loss_changes":[1.0646939E1,1.3947897E0,0E0,1.8003947E0,0E0,0E0,0E0],"parents":[2147483647,0,0,1,1,3,3],"right_children":[2,4,-1,6,-1,-1,-1],"split_conditions":[5.3E1,2.3E2,-8.7296866E-2,2.2E1,8.504738E-2,5.7257194E-2,-4.8960082E-2],"split_indices":[0,32,0,0,0,0,0],"split_type":[0,0,0,0,0,0,0],"sum_hessian":[1.8691496E1,1.1821892E1,6.869603E0,4.5347953E0,7.287097E0,2.6770504E0,1.8577449E0],"tree_param":{"num_deleted":"0","num_feature":"34","num_nodes":"7","size_leaf_vector":"1"}},{"base_weights":[-4.312939E-2,-8.632838E-2,4.3887842E-1,-1.4782439E-1,7.865899E-2,6.60481E-2,-9.422113E-1,3.802606E-2,-1.8171401E-1],"categories":[],"categories_nodes":[],"categories_segments":[],"categories_sizes":[],"default_left":[0,0,0,0,0,0,0,0,0],"id":104,"left_children":[1,-1,3,5,-1,-1,7,-1,-1],"loss_changes":[7.829459E0,0E0,2.6731558E0,4.157585E0,0E0,0E0,4.380743E0,0E0,0E0],"parents":[2147483647,0,0,2,2,3,3,6,6],"right_children":[2,-1,4,6,-1,-1,8,-1,-1],"split_conditions":[3.2E1,-8.632838E-2,2.3E2,2.2E1,7.865899E-2,6.60481E-2,1E0,3.802606E-2,-1.8171401E-1],"split_indices":[33,0,32,0,0,0,3,0,0],"split_type":[0,0,0,0,0,0,0,0,0],"sum_hessian":[1.7846928E1,6.3134084E0,1.1533518E1,4.505736E0,7.0277824E0,2.3168535E0,2.188882E0,1.0966522E0,1.09223E0],"tree_param":{"num_deleted":"0","num_feature":"34","num_nodes":"9","size_leaf_vector":"1"}},{"base_weights":[6.1133057E-3,5.025281E-1,-8.5279904E-2,-2.2942035E-2,8.249354E-2,5.4681774E-2,-6.393901E-2],"categories":[],"categories_nodes":[],"categories_segments":[],"categories_sizes":[],"default_left":[0,0,0,0,0,0,0],"id":105,"left_children":[1,3,-1,5,-1,-1,-1],"loss_changes":[7.90353E0,2.0077603E0,0E0,2.2592084E0,0E0,0E0,0E0],"parents":[2147483647,0,0,1,1,3,3],"right_children":[2,4,-1,6,-1,-1,-1],"split_conditions":[5.3E1,2.3E2,-8.5279904E-2,2.2E1,