{"learner":{"attributes":{"scikit_learn":"{\"_estimator_type\": \"classifier\"}"},"feature_names":[],"feature_types":[],"gradient_booster":{"model":{"gbtree_model_param":{"num_parallel_tree":"1","num_trees":"400"},"iteration_indptr":[0,1,2,3,4,5,6,7,8,9,10,11,12,13,14,15,16,17,18,19,20,21,22,23,24,25,26,27,28,29,30,31,32,33,34,35,36,37,38,39,40,41,42,43,44,45,46,47,48,49,50,51,52,53,54,55,56,57,58,59,60,61,62,63,64,65,66,67,68,69,70,71,72,73,74,75,76,77,78,79,80,81,82,83,84,85,86,87,88,89,90,91,92,93,94,95,96,97,98,99,100,101,102,103,104,105,106,107,108,109,110,111,112,113,114,115,116,117,118,119,120,121,122,123,124,125,126,127,128,129,130,131,132,133,134,135,136,137,138,139,140,141,142,143,144,145,146,147,148,149,150,151,152,153,154,155,156,157,158,159,160,161,162,163,164,165,166,167,168,169,170,171,172,173,174,175,176,177,178,179,180,181,182,183,184,185,186,187,188,189,190,191,192,193,194,195,196,197,198,199,200,201,202,203,204,205,206,207,208,209,210,211,212,213,214,215,216,217,218,219,220,221,222,223,224,225,226,227,228,229,230,231,232,233,234,235,236,237,238,239,240,241,242,243,244,245,246,247,248,249,250,251,252,253,254,255,256,257,258,259,260,261,262,263,264,265,266,267,268,269,270,271,272,273,274,275,276,277,278,279,280,281,282,283,284,285,286,287,288,289,290,291,292,293,294,295,296,297,298,299,300,301,302,303,304,305,306,307,308,309,310,311,312,313,314,315,316,317,318,319,320,321,322,323,324,325,326,327,328,329,330,331,332,333,334,335,336,337,338,339,340,341,342,343,344,345,346,347,348,349,350,351,352,353,354,355,356,357,358,359,360,361,362,363,364,365,366,367,368,369,370,371,372,373,374,375,376,377,378,379,380,381,382,383,384,385,386,387,388,389,390,391,392,393,394,395,396,397,398,399,400],"tree_info":[0,0,0,0,0,0,0,0,0,0,0,0,0,0,0,0,0,0,0,0,0,0,0,0,0,0,0,0,0,0,0,0,0,0,0,0,0,0,0,0,0,0,0,0,0,0,0,0,0,0,0,0,0,0,0,0,0,0,0,0,0,0,0,0,0,0,0,0,0,0,0,0,0,0,0,0,0,0,0,0,0,0,0,0,0,0,0,0,0,0,0,0,0,0,0,0,0,0,0,0,0,0,0,0,0,0,0,0,0,0,0,0,0,0,0,0,0,0,0,0,0,0,0,0,0,0,0,0,0,0,0,0,0,0,0,0,0,0,0,0,0,0,0,0,0,0,0,0,0,0,0,0,0,0,0,0,0,0,0,0,0,0,0,0,0,0,0,0,0,0,0,0,0,0,0,0,0,0,0,0,0,0,0,0,0,0,0,0,0,0,0,0,0,0,0,0,0,0,0,0,0,0,0,0,0,0,0,0,0,0,0,0,0,0,0,0,0,0,0,0,0,0,0,0,0,0,0,0,0,0,0,0,0,0,0,0,0,0,0,0,0,0,0,0,0,0,0,0,0,0,0,0,0,0,0,0,0,0,0,0,0,0,0,0,0,0,0,0,0,0,0,0,0,0,0,0,0,0,0,0,0,0,0,0,0,0,0,0,0,0,0,0,0,0,0,0,0,0,0,0,0,0,0,0,0,0,0,0,0,0,0,0,0,0,0,0,0,0,0,0,0,0,0,0,0,0,0,0,0,0,0,0,0,0,0,0,0,0,0,0,0,0,0,0,0,0,0,0,0,0,0,0,0,0,0,0,0,0,0,0,0,0,0,0,0,0,0,0,0,0,0,0,0,0,0,0,0,0,0,0,0,0,0,0,0,0,0,0,0,0,0,0,0,0,0,0,0,0,0,0],"trees":[{"base_weights":[2.514421E-1,7.681494E-1,-4.5336432E0,1.0415226E0,-4.7217693E0,-4.75826E0,1.20855406E-1,-3.6085894E0,1.0600481E0,1.1568755E-1,-4.745466E0,-4.7609702E-1,-1.9825078E0,-2.8642446E-1,-4.7059402E-1,1.1114956E0,-6.4592654E-1,-4.7599918E-1,-2.3859823E0,-3.5672298E-1,-1.3155374E-2,1.1801755E0,7.7542365E-1,-4.7522774E-1,1.2646571E-1,6.1843365E-1,-4.3398592E-1,1.7307902E-3,1.20085016E-1,-4.2115527E-1,1.17419735E-1,1.7388666E-2,7.341971E-2],"categories":[],"categories_nodes":[],"categories_segments":[],"categories_sizes":[],"default_left":[0,0,0,0,0,0,0,0,0,0,0,0,0,0,0,0,0,0,0,0,0,0,0,0,0,0,0,0,0,0,0,0,0],"id":0,"left_children":[1,3,5,7,9,11,-1,13,15,-1,17,-1,19,-1,-1,21,23,-1,25,-1,-1,27,29,-1,-1,31,-1,-1,-1,-1,-1,-1,-1],"loss_changes":[1.5554777E5,8.5219766E4,7.913828E3,4.663199E3,3.8069922E2,3.4953125E1,0E0,1.6201147E2,4.7290938E3,0E0,8.058984E1,0E0,2.144274E1,0E0,0E0,1.2061641E3,1.2384244E4,0E0,1.1081314E2,0E0,0E0,1.0438945E3,1.7658062E4,0E0,0E0,2.9091883E-1,0E0,0E0,0E0,0E0,0E0,0E0,0E0],"parents":[2147483647,0,0,1,1,2,2,3,3,4,4,5,5,7,7,8,8,10,10,12,12,15,15,16,16,18,18,21,21,22,22,25,25],"right_children":[2,4,6,8,10,12,-1,14,16,-1,18,-1,20,-1,-1,22,24,-1,26,-1,-1,28,30,-1,-1,32,-1,-1,-1,-1,-1,-1,-1],"split_conditions":[5.7E1,3.3E1,5E2,-5.9E1,1.1E1,1.5625E1,1.20855406E-1,-4.4314817E-2,1.1E1,1.1568755E-1,5.8809524E0,-4.7609702E-1,1E0,-2.8642446E-1,-4.7059402E-1,6.1904764E-1,1.8452381E1,-4.7599918E-1,7.3095236E0,-3.5672298E-1,-1.3155374E-2,-4.4311777E-2,1.7E0,-4.7522774E-1,1.2646571E-1,4.1728368E-1,-4.3398592E-1,1.7307902E-3,1.20085016E-1,-4.2115527E-1,1.17419735E-1,1.7388666E-2,7.341971E-2],"split_indices":[0,13,13,0,1,4,0,16,1,0,2,0,15,0,0,2,2,0,2,0,0,16,4,0,0,16,0,0,0,0,0,0,0],"split_type":[0,0,0,0,0,0,0,0,0,0,0,0,0,0,0,0,0,0,0,0,0,0,0,0,0,0,0,0,0,0,0,0,0],"sum_hessian":[6.2909016E4,5.6778727E4,6.1302905E3,5.408628E4,2.6924436E3,5.899685E3,2.306055E2,2.1384927E2,5.3872434E4,1.0617807E1,2.681826E3,5.893215E3,6.4702263E0,1.2957043E2,8.427885E1,5.2295688E4,1.5767444E3,2.664406E3,1.741984E1,2.9862583E0,3.483968E0,4.3419863E4,8.875823E3,5.0019827E2,1.0765461E3,7.133839E0,1.0286001E1,7.5850964E2,4.2661355E4,6.564791E2,8.219345E3,1.9908389E0,5.1430006E0],"tree_param":{"num_deleted":"0","num_feature":"17","num_nodes":"33","size_leaf_vector":"1"}},{"base_weights":[2.4226461E-1,7.298713E-1,-3.2086854E0,-3.2978902E0,1.0773154E0,-3.3363804E-1,1.0582293E0,-2.6941663E-1,-3.3338687E0,1.1070832E0,-5.5108935E-1,1.1532879E0,-3.2352176E-1,-3.34171E0,-1.7026854E0,1.1085811E0,-4.6635953E-1,-2.5136802E0,1.2337585E-1,-2.1608345E-1,1.1799182E-1,-4.2213702E-1,-3.3365127E-1,4.857998E-1,-3.1722045E-1,1.146814E0,9.0255195E-1,1.2109107E0,-3.4594345E-1,-8.470749E-2,1.0697849E-1,1.0970334E-1,1.2330619E-1,-2.675626E-1,1.1371731E-1,1.2214186E-1,1.657605E-2],"categories":[],"categories_nodes":[],"categories_segments":[],"categories_sizes":[],"default_left":[0,0,0,0,0,0,0,0,0,0,0,0,0,0,0,0,0,0,0,0,0,0,0,0,0,0,0,0,0,0,0,0,0,0,0,0,0],"id":1,"left_children":[1,3,5,7,9,-1,11,-1,13,15,17,19,-1,21,23,25,-1,27,-1,-1,-1,-1,-1,29,-1,31,33,35,-1,-1,-1,-1,-1,-1,-1,-1,-1],"loss_changes":[1.0406305E5,7.583255E4,4.1751875E3,8.449219E1,2.418668E3,0E0,9.483804E1,0E0,4.619922E1,4.2859766E2,3.1423792E3,2.1889313E1,0E0,4.3710938E0,7.051863E1,3.847578E2,0E0,1.5089143E3,0E0,0E0,0E0,0E0,0E0,8.287931E0,0E0,1.759961E2,6.4427417E3,7.5567627E-1,0E0,0E0,0E0,0E0,0E0,0E0,0E0,0E0,0E0],"parents":[2147483647,0,0,1,1,2,2,3,3,4,4,6,6,8,8,9,9,10,10,11,11,13,13,14,14,15,15,17,17,23,23,25,25,26,26,27,27],"right_children":[2,4,6,8,10,-1,12,-1,14,16,18,20,-1,22,24,26,-1,28,-1,-1,-1,-1,-1,30,-1,32,34,36,-1,-1,-1,-1,-1,-1,-1,-1,-1],"split_conditions":[5.7E1,-8.75E-1,1.5625E1,1E0,5.19837E2,-3.3363804E-1,3.2938E4,-2.6941663E-1,5.8809524E0,2.4484848E1,2E0,3.65E2,-3.2352176E-1,1.1E1,7.3095236E0,1E0,-4.6635953E-1,2.5454545E0,1.2337585E-1,-2.1608345E-1,1.1799182E-1,-4.2213702E-1,-3.3365127E-1,1.4249032E3,-3.1722045E-1,1E0,1.7E0,6.1904764E-1,-3.4594345E-1,-8.470749E-2,1.0697849E-1,1.0970334E-1,1.2330619E-1,-2.675626E-1,1.1371731E-1,1.2214186E-1,1.657605E-2],"split_indices":[0,12,4,15,5,0,0,0,2,3,4,0,0,1,2,3,0,3,0,0,0,0,0,5,0,15,4,2,0,0,0,0,0,0,0,0,0],"split_type":[0,0,0,0,0,0,0,0,0,0,0,0,0,0,0,0,0,0,0,0,0,0,0,0,0,0,0,0,0,0,0,0,0,0,0,0,0],"sum_hessian":[6.1840273E4,5.418493E4,7.6553447E3,4.302263E3,4.9882668E4,7.433114E3,2.2223076E2,2.4623857E2,4.0560247E3,4.898748E4,8.951873E2,2.181326E2,4.0981545E0,4.0355764E3,2.0448116E1,4.8975574E4,1.1903876E1,4.261696E2,4.6901776E2,1.0999637E0,2.1703264E2,1.8938738E1,4.0166377E3,8.483483E0,1.1964634E1,4.1305848E4,7.669727E3,8.6243416E1,3.3992615E2,2.4473035E0,6.03618E0,2.6198393E4,1.5107456E4,4.713175E2,7.1984097E3,8.521798E1,1.025438E0],"tree_param":{"num_deleted":"0","num_feature":"17","num_nodes":"37","size_leaf_vector":"1"}},{"base_weights":[2.3364618E-1,7.002275E-1,-2.584688E0,-2.6403332E0,1.0435729E0,-2.673579E-1,1.0162845E0,-1.7705168E-1,-2.6741278E0,1.0737336E0,-4.979226E-1,1.1152126E0,-2.6499653E-1,-2.679581E-1,-1.4641578E0,2.7380437E-2,1.0919999E0,-2.089742E0,1.2061565E-1,-1.9342111E-1,1.1434924E-1,4.612926E-1,-2.5860533E-1,-1.6039859E0,1.2253393E0,1.1366427E0,8.5697335E-1,1.1814098E0,-2.7385265E-1,-5.786186E-2,1.029557E-1,1.22568764E-1,-2.846741E-1,1.22854985E-1,3.240358E-2,1.18759096E-1,1.00961566E-1,-2.6003268E-1,1.0715997E-1,1.9144194E-2,1.1930412E-1],"categories":[],"categories_nodes":[],"categories_segments":[],"categories_sizes":[],"default_left":[0,0,0,0,0,0,0,0,0,0,0,0,0,0,0,0,0,0,0,0,0,0,0,0,0,0,0,0,0,0,0,0,0,0,0,0,0,0,0,0,0],"id":2,"left_children":[1,3,5,7,9,-1,11,-1,13,15,17,19,-1,-1,21,23,25,27,-1,-1,-1,29,-1,31,33,35,37,39,-1,-1,-1,-1,-1,-1,-1,-1,-1,-1,-1,-1,-1],"loss_changes":[7.868966E4,5.888894E4,2.7234062E3,1.3592969E2,2.1650664E3,0E0,7.748421E1,0E0,2.6453125E1,8.727344E2,2.427898E3,1.9527359E1,0E0,0E0,5.057902E1,1.5351149E3,4.6991797E2,9.851106E2,0E0,0E0,0E0,6.071114E0,0E0,1.1730907E3,9.1241455E-1,2.4286719E2,5.3217305E3,6.613617E-1,0E0,0E0,0E0,0E0,0E0,0E0,0E0,0E0,0E0,0E0,0E0,0E0,0E0],"parents":[2147483647,0,0,1,1,2,2,3,3,4,4,6,6,8,8,9,9,10,10,11,11,14,14,15,15,16,16,17,17,21,21,23,23,24,24,25,25,26,26,27,27],"right_children":[2,4,6,8,10,-1,12,-1,14,16,18,20,-1,-1,22,24,26,28,-1,-1,-1,30,-1,32,34,36,38,40,-1,-1,-1,-1,-1,-1,-1,-1,-1,-1,-1,-1,-1],"split_conditions":[5.7E1,-8.75E-1,1.5625E1,-4.4314817E-2,5.19837E2,-2.673579E-1,3.2938E4,-1.7705168E-1,5.8809524E0,-4.4311777E-2,2E0,3.65E2,-2.6499653E-1,-2.679581E-1,7.3095236E0,-3.75E-1,1.55E0,1.55E0,1.2061565E-1,-1.9342111E-1,1.1434924E-1,1.4249032E3,-2.5860533E-1,-4.431806E-2,1E0,1.5897974E0,1.5375E0,6.554586E2,-2.7385265E-1,-5.786186E-2,1.029557E-1,1.22568764E-1,-2.846741E-1,1.22854985E-1,3.240358E-2,1.18759096E-1,1.00961566E-1,-2.6003268E-1,1.0715997E-1,1.9144194E-2,1.1930412E-1],"split_indices":[0,12,4,16,5,0,0,0,2,16,4,0,0,0,2,12,14,14,0,0,0,5,0,16,6,16,4,5,0,0,0,0,0,0,0,0,0,0,0,0,0],"split_type":[0,0,0,0,0,0,0,0,0,0,0,0,0,0,0,0,0,0,0,0,0,0,0,0,0,0,0,0,0,0,0,0,0,0,0,0,0,0,0,0,0],"sum_hessian":[5.9838484E4,5.133982E4,8.498667E3,4.7843223E3,4.6555496E4,8.294181E3,2.0448624E2,1.8092784E2,4.6033945E3,4.5662375E4,8.9311993E2,1.99791E2,4.6952405E0,4.581532E3,2.18623E1,7.8349664E2,4.487888E4,4.6165295E2,4.3146695E2,1.216528E0,1.9857448E2,8.265494E0,1.3596806E1,3.3159525E2,4.5190143E2,3.7711758E4,7.167121E3,7.6271805E1,3.8538116E2,2.9142537E0,5.35124E0,1.0119483E2,2.3040039E2,4.4993567E2,1.9657545E0,2.6910217E4,1.0801542E4,4.182728E2,6.748848E3,1.0884833E0,7.518333E1],"tree_param":{"num_deleted":"0","num_feature":"17","num_nodes":"41","size_leaf_vector":"1"}},{"base_weights":[2.2322878E-1,6.7211396E-1,-2.210946E0,9.37204E-1,-2.2672293E0,-2.2802527E0,1.07905E0,9.887334E-1,-4.362219E-1,1.0740619E-1,-2.275564E0,-2.2809409E-1,-1.3522696E0,1.10939525E-1,-1.8680835E-1,-1.868654E0,1.0089804E0,-2.2819228E-1,1.18505195E-1,-2.280258E-1,-1.304794E0,-2.1939018E-1,3.9066024E-2,-1.530236E0,-2.3431323E-1,1.0817248E0,6.750885E-1,3.7186453E-1,-2.204216E-1,-1.4964661E-1,-2.1718656E-1,-7.800117E-3,1.1059506E-1,-2.1291223E-1,1.0735231E-1,-7.071007E-3,5.3453185E-2],"categories":[],"categories_nodes":[],"categories_segments":[],"categories_sizes":[],"default_left":[0,0,0,0,0,0,0,0,0,0,0,0,0,0,0,0,0,0,0,0,0,0,0,0,0,0,0,0,0,0,0,0,0,0,0,0,0],"id":3,"left_children":[1,3,5,7,9,11,13,15,17,-1,19,-1,21,-1,-1,23,25,-1,-1,-1,27,-1,-1,29,-1,31,33,35,-1,-1,-1,-1,-1,-1,-1,-1,-1],"loss_changes":[6.2595586E4,3.768943E4,2.0362617E3,3.1403477E3,1.1387891E2,2.5E0,1.8590408E1,2.4758516E3,4.805752E3,0E0,1.5216797E1,0E0,1.3955503E1,0E0,0E0,4.478308E1,1.0306289E3,0E0,0E0,0E0,3.331329E1,0E0,0E0,6.220703E-1,0E0,9.796133E2,8.492479E3,6.409998E-1,0E0,0E0,0E0,0E0,0E0,0E0,0E0,0E0,0E0],"parents":[2147483647,0,0,1,1,2,2,3,3,4,4,5,5,6,6,7,7,8,8,10,10,12,12,15,15,16,16,20,20,23,23,25,25,26,26,27,27],"right_children":[2,4,6,8,10,12,14,16,18,-1,20,-1,22,-1,-1,24,26,-1,-1,-1,28,-1,-1,30,-1,32,34,36,-1,-1,-1,-1,-1,-1,-1,-1,-1],"split_conditions":[5.7E1,3.3E1,5E2,1.1E1,1.1E1,1.5625E1,3.048E3,-5.9E1,1.4761905E1,1.0740619E-1,5.8809524E0,-2.2809409E-1,1E0,1.10939525E-1,-1.8680835E-1,-4.4314817E-2,1.8333334E0,-2.2819228E-1,1.18505195E-1,-2.280258E-1,7.3095236E0,-2.1939018E-1,3.9066024E-2,1E0,-2.3431323E-1,-4.4311777E-2,1.7E0,4.1728368E-1,-2.204216E-1,-1.4964661E-1,-2.1718656E-1,-7.800117E-3,1.1059506E-1,-2.1291223E-1,1.0735231E-1,-7.071007E-3,5.3453185E-2],"split_indices":[0,13,13,1,1,4,0,0,2,0,2,0,9,0,0,16,2,0,0,0,2,0,0,15,0,16,4,16,0,0,0,0,0,0,0,0,0],"split_type":[0,0,0,0,0,0,0,0,0,0,0,0,0,0,0,0,0,0,0,0,0,0,0,0,0,0,0,0,0,0,0,0,0,0,0,0,0],"sum_hessian":[5.728472E4,4.8366242E4,8.918475E3,4.436572E4,4.0005225E3,8.734776E3,1.8369904E2,4.276163E4,1.6040895E3,9.63612E0,3.9908865E3,8.726847E3,7.9292936E0,1.8244406E2,1.2549787E0,3.0022775E2,4.2461402E4,7.4993555E2,8.541539E2,3.970339E3,2.0547163E1,5.1727257E0,2.756568E0,1.7770567E2,1.22522095E2,3.4863516E4,7.5978867E3,7.3787007E0,1.3168463E1,1.7198605E2,5.719612E0,7.1332367E2,3.415019E4,9.44697E2,6.6531895E3,2.1350646E0,5.243636E0],"tree_param":{"num_deleted":"0","num_feature":"17","num_nodes":"37","size_leaf_vector":"1"}},{"base_weights":[2.1461228E-1,6.486139E-1,-1.9609517E0,9.099556E-1,-2.0080237E0,-2.0190632E0,1.0803376E0,9.608595E-1,-3.9256895E-1,-2.014638E0,1.043147E-1,-2.0196724E-1,-1.1576742E0,1.1070352E-1,-1.5607895E-1,-1.6422985E-1,9.8180246E-1,-2.0201635E-1,1.1641344E-1,-2.0192719E-1,-1.0916706E0,-1.8921633E-1,1.765669E-2,1.0134765E0,-4.388717E-1,4.2389378E-1,-1.9551213E-1,1.05431676E-1,8.05184E-2,-1.6320258E-1,1.16324686E-1,-5.254373E-2,9.9021845E-2],"categories":[],"categories_nodes":[],"categories_segments":[],"categories_sizes":[],"default_left":[0,0,0,0,0,0,0,0,0,0,0,0,0,0,0,0,0,0,0,0,0,0,0,0,0,0,0,0,0,0,0,0,0],"id":4,"left_children":[1,3,5,7,9,11,13,15,17,19,-1,-1,21,-1,-1,-1,23,-1,-1,-1,25,-1,-1,27,29,31,-1,-1,-1,-1,-1,-1,-1],"loss_changes":[5.1376844E4,3.1497092E4,1.6015547E3,2.738789E3,8.4100586E1,2.3242188E0,1.3737686E1,2.168582E3,3.939915E3,1.5138672E1,0E0,0E0,8.780619E0,0E0,0E0,0E0,1.7748047E3,0E0,0E0,0E0,3.0184626E1,0E0,0E0,3.2726562E2,1.6471006E3,5.339434E0,0E0,0E0,0E0,0E0,0E0,0E0,0E0],"parents":[2147483647,0,0,1,1,2,2,3,3,4,4,5,5,6,6,7,7,8,8,9,9,12,12,16,16,20,20,23,23,24,24,25,25],"right_children":[2,4,6,8,10,12,14,16,18,20,-1,-1,22,-1,-1,-1,24,-1,-1,-1,26,-1,-1,28,30,32,-1,-1,-1,-1,-1,-1,-1],"split_conditions":[5.7E1,3.3E1,5E2,1.3E1,1E0,1.5625E1,3.048E3,-5.9E1,1.8452381E1,5.8809524E0,1.043147E-1,-2.0196724E-1,1E0,1.1070352E-1,-1.5607895E-1,-1.6422985E-1,4.9292715E2,-2.0201635E-1,1.1641344E-1,-2.0192719E-1,7.3095236E0,-1.8921633E-1,1.765669E-2,1.8333334E0,2E0,1.4249032E3,-1.9551213E-1,1.05431676E-1,8.05184E-2,-1.6320258E-1,1.16324686E-1,-5.254373E-2,9.9021845E-2],"split_indices":[0,13,13,13,7,4,0,0,2,2,0,0,9,0,0,0,5,0,0,0,2,0,0,2,4,5,0,0,0,0,0,0,0],"split_type":[0,0,0,0,0,0,0,0,0,0,0,0,0,0,0,0,0,0,0,0,0,0,0,0,0,0,0,0,0,0,0,0,0],"sum_hessian":[5.4410844E4,4.536226E4,9.048583E3,4.13001E4,4.0621614E3,8.879258E3,1.6932474E2,3.974701E4,1.5530876E3,4.0537136E3,8.447666E0,8.871639E3,7.6190324E0,1.682053E2,1.1194315E0,3.1660312E2,3.943041E4,7.591102E2,7.9397736E2,4.0322808E3,2.1432772E1,4.644252E0,2.9747803E0,3.8570758E4,8.59653E2,7.963672E0,1.3469099E1,3.2244482E4,6.326274E3,4.9270187E2,3.669511E2,3.0026023E0,4.96107E0],"tree_param":{"num_deleted":"0","num_feature":"17","num_nodes":"33","size_leaf_vector":"1"}},{"base_weights":[2.0694111E-1,6.257567E-1,-1.7823209E0,9.3042284E-1,-1.4358723E0,-1.8327694E0,1.0510663E0,-1.4098736E0,9.5077413E-1,-1.8301125E0,1.14582576E-1,-1.8331741E-1,-1.1025147E0,1.0845839E-1,-1.5613E-1,-1.3880941E-1,-1.782999E-1,1.0252771E0,6.213879E-1,-1.8333039E-1,-1.0731059E0,-8.08477E-3,-1.6712226E-1,9.550136E-1,1.1423023E0,-1.8283955E0,1.0274504E0,4.456207E-2,-1.7816488E-1,-5.81806E-1,9.569847E-2,1.1465388E-1,-2.34478E-1,-1.100231E-1,-2.0850399E-1,1.0402794E-1,-3.5024643E-1],"categories":[],"categories_nodes":[],"categories_segments":[],"categories_sizes":[],"default_left":[0,0,0,0,0,0,0,0,0,0,0,0,0,0,0,0,0,0,0,0,0,0,0,0,0,0,0,0,0,0,0,0,0,0,0,0,0],"id":5,"left_children":[1,3,5,7,9,11,13,15,17,19,-1,-1,21,-1,-1,-1,-1,23,25,-1,27,-1,-1,29,31,33,35,-1,-1,-1,-1,-1,-1,-1,-1,-1,-1],"loss_changes":[4.2952426E4,2.6751428E4,1.2836094E3,1.7686074E3,5.583502E3,5.839844E-1,1.54835205E1,1.2786865E-1,9.021094E2,9.527344E0,0E0,0E0,4.158662E0,0E0,0E0,0E0,0E0,2.4558008E2,6.7546284E3,0E0,2.4881628E1,0E0,0E0,2.5590234E2,1.688711E2,1.7814966E2,3.4208154E2,0E0,0E0,0E0,0E0,0E0,0E0,0E0,0E0,0E0,0E0],"parents":[2147483647,0,0,1,1,2,2,3,3,4,4,5,5,6,6,7,7,8,8,9,9,12,12,17,17,18,18,20,20,23,23,24,24,25,25,26,26],"right_children":[2,4,6,8,10,12,14,16,18,20,-1,-1,22,-1,-1,-1,-1,24,26,-1,28,-1,-1,30,32,34,36,-1,-1,-1,-1,-1,-1,-1,-1,-1,-1],"split_conditions":[5.7E1,1.1E1,5E2,-5.9E1,1.8452381E1,1.5625E1,3.048E3,1E0,1.8333334E0,3.121212E0,1.14582576E-1,-1.8331741E-1,1.01E2,1.0845839E-1,-1.5613E-1,-1.3880941E-1,-1.782999E-1,1E0,1.7E0,-1.8333039E-1,7.3095236E0,-8.08477E-3,-1.6712226E-1,-2.7E1,1E0,1E0,2.2454546E1,4.456207E-2,-1.7816488E-1,-5.81806E-1,9.569847E-2,1.1465388E-1,-2.34478E-1,-1.100231E-1,-2.0850399E-1,1.0402794E-1,-3.5024643E-1],"split_indices":[0,1,13,0,2,4,0,15,2,3,0,0,2,0,0,0,0,15,4,0,2,0,0,0,7,15,3,0,0,0,0,0,0,0,0,0,0],"split_type":[0,0,0,0,0,0,0,0,0,0,0,0,0,0,0,0,0,0,0,0,0,0,0,0,0,0,0,0,0,0,0,0,0,0,0,0,0],"sum_hessian":[5.155291E4,4.2587336E4,8.965575E3,3.7104594E4,5.482743E3,8.809082E3,1.5649283E2,3.1929202E2,3.67853E4,4.756664E3,7.2607886E2,8.802692E3,6.3899374E0,1.5508781E2,1.4050102E0,3.061425E2,1.3149543E1,2.9998016E4,6.787284E3,4.7352793E3,2.1384604E1,2.6934297E0,3.6965077E0,1.8749637E4,1.1248379E4,9.6456177E2,5.822722E3,6.9209547E0,1.446365E1,4.596622E0,1.8745041E4,1.12354E4,1.2978469E1,2.527457E2,7.1181604E2,5.807047E3,1.5675397E1],"tree_param":{"num_deleted":"0","num_feature":"17","num_nodes":"37","size_leaf_vector":"1"}},{"base_weights":[2.015896E-1,6.081897E-1,-1.648692E0,9.073906E-1,-1.3324655E0,-1.6931854E0,1.0199987E0,-1.2650899E0,9.28092E-1,-1.6866401E0,1.1297544E-1,-1.6935973E-1,-1.1145679E0,1.0492567E-1,-1.3312434E-1,-9.213965E-1,-1.7822129E-1,9.5825833E-1,-3.47138E-1,-1.6906784E0,9.874745E-2,-1.642758E-1,2.765191E-2,-8.874252E-2,-1.6423395E-1,-1.445106E-1,9.8181885E-1,-1.3044997E0,1.1298104E-1,-1.693764E-1,-9.1183954E-1,1.16090134E-1,-1.4684519E-1,1.0325795E-1,7.343001E-2,1.1582313E-1,-1.7382506E-1,6.3504845E-2,-1.6338344E-1],"categories":[],"categories_nodes":[],"categories_segments":[],"categories_sizes":[],"default_left":[0,0,0,0,0,0,0,0,0,0,0,0,0,0,0,0,0,0,0,0,0,0,0,0,0,0,0,0,0,0,0,0,0,0,0,0,0,0,0],"id":6,"left_children":[1,3,5,7,9,11,13,15,17,19,-1,-1,21,-1,-1,23,-1,25,27,29,-1,-1,-1,-1,-1,31,33,35,-1,-1,37,-1,-1,-1,-1,-1,-1,-1,-1],"loss_changes":[3.6511695E4,2.3103918E4,1.0399258E3,1.5515703E3,4.6371416E3,1.6015625E-1,1.1303574E1,5.6266357E1,1.3140059E3,5.1853516E1,0E0,0E0,7.0983343E0,0E0,0E0,3.386963E0,0E0,8.6689453E2,1.1183398E3,9.607422E0,0E0,0E0,0E0,0E0,0E0,1.2092512E3,4.096172E2,5.144341E2,0E0,0E0,2.390938E1,0E0,0E0,0E0,0E0,0E0,0E0,0E0,0E0],"parents":[2147483647,0,0,1,1,2,2,3,3,4,4,5,5,6,6,7,7,8,8,9,9,12,12,15,15,17,17,18,18,19,19,25,25,26,26,27,27,30,30],"right_children":[2,4,6,8,10,12,14,16,18,20,-1,-1,22,-1,-1,24,-1,26,28,30,-1,-1,-1,-1,-1,32,34,36,-1,-1,38,-1,-1,-1,-1,-1,-1,-1,-1],"split_conditions":[5.7E1,1.3E1,5E2,-5.9E1,1.8452381E1,1.5625E1,3.048E3,-4.4314817E-2,5.19837E2,1E0,1.1297544E-1,-1.6935973E-1,1E0,1.0492567E-1,-1.3312434E-1,1E0,-1.7822129E-1,-4.4311777E-2,2E0,3.078125E0,9.874745E-2,-1.642758E-1,2.765191E-2,-8.874252E-2,-1.6423395E-1,-4.431806E-2,1.8333334E0,6.1904764E-1,1.1298104E-1,-1.693764E-1,7.3095236E0,1.16090134E-1,-1.4684519E-1,1.0325795E-1,7.343001E-2,1.1582313E-1,-1.7382506E-1,6.3504845E-2,-1.6338344E-1],"split_indices":[0,13,13,0,2,4,0,16,5,9,0,0,9,0,0,15,0,16,4,4,0,0,0,0,0,16,2,2,0,0,2,0,0,0,0,0,0,0,0],"split_type":[0,0,0,0,0,0,0,0,0,0,0,0,0,0,0,0,0,0,0,0,0,0,0,0,0,0,0,0,0,0,0,0,0,0,0,0,0,0,0],"sum_hessian":[4.8529492E4,3.978696E4,8.742529E3,3.4472664E4,5.314297E3,8.5995205E3,1.4300883E2,3.248197E2,3.4147848E4,4.646275E3,6.6802203E2,8.591479E3,8.0425415E0,1.417981E2,1.2107435E0,1.9680183E2,1.2801787E2,3.335897E4,7.8887744E2,4.639636E3,6.6385784E0,5.698085E0,2.3444567E0,1.9007625E2,6.7255816E0,6.976948E2,3.2661273E4,4.786998E2,3.1017767E2,4.620157E3,1.947895E1,3.513678E2,3.4632706E2,2.7100416E4,5.560857E3,7.14356E1,4.072642E2,6.236835E0,1.3242115E1],"tree_param":{"num_deleted":"0","num_feature":"17","num_nodes":"39","size_leaf_vector":"1"}},{"base_weights":[1.9396801E-1,7.4469715E-1,-7.145652E-1,-1.4547317E0,8.175428E-1,-1.5820689E0,-2.1673511E-1,-1.1320648E-1,-1.6264297E0,7.064501E-1,9.909616E-1,-1.6100374E0,1.3358077E0,2.6094076E-1,-1.2485919E0,-1.6128574E-1,-2.4922693E-1,4.7344935E-1,1.0995995E0,1.0010917E0,-3.2442157E0,-1.5901667E0,-1.9802828E0,4.8425087E-1,1.4922012E0,-6.2990284E-1,7.415875E-1,-1.4855461E0,1.0959929E0,-1.2106927E-1,4.8357865E-1,1.1120206E0,-1.6075185E-1,7.816332E-1,1.1143982E0,-5.0023036E0,-2.3496094E0,-1.582387E0,-1.6857541E0,-1.564095E-1,-2.0832446E-1,-1.3361286E-1,8.731545E-1,1.623876E-1,1.0532645E-1,-1.1578826E0,1.1121904E0,9.8453534E-1,1.8866911E-3,1.0538255E0,-1.5815744E0,-1.2566009E-1,1.1279329E-1,4.794205E-2,1.13867E-1,-1.5382251E-1,1.11497305E-1,-1.0065881E-1,1.119563E-1,1.1225853E-1,-6.533063E-1,-5.4390645E-1,-1.8366495E-1,-2.719039E-1,-1.4781491E-1,-1.5854058E-1,5.1205624E-2,-2.2817443E-1,-1.6180213E-1,1.5125187E-2,9.8447695E-2,-4.218472E-2,-1.7954724E-1,5.2607026E-2,1.11556195E-1,1.0586101E-1,9.331661E-3,-1.6954191E-1,1.00417055E-1,-1.6922751E-1,1.09654E-1,-1.5949826E-1,-9.377883E-2],"categories":[],"categories_nodes":[],"categories_segments":[],"categories_sizes":[],"default_left":[0,0,0,0,0,0,0,0,0,0,0,0,0,0,0,0,0,0,0,0,0,0,0,0,0,0,0,0,0,0,0,0,0,0,0,0,0,0,0,0,0,0,0,0,0,0,0,0,0,0,0,0,0,0,0,0,0,0,0,0,0,0,0,0,0,0,0,0,0,0,0,0,0,0,0,0,0,0,0,0,0,0,0],"id":7,"left_children":[1,3,5,7,9,11,13,-1,15,17,19,21,23,25,27,-1,-1,29,31,33,35,37,39,41,43,45,47,49,51,-1,53,55,-1,57,59,61,63,65,67,-1,-1,-1,69,-1,-1,71,73,75,77,79,81,-1,-1,-1,-1,-1,-1,-1,-1,-1,-1,-1,-1,-1,-1,-1,-1,-1,-1,-1,-1,-1,-1,-1,-1,-1,-1,-1,-1,-1,-1,-1,-1],"loss_changes":[2.2819088E4,4.550415E3,7.432916E3,4.86084E1,5.287988E2,5.142998E2,5.391186E3,0E0,2.9378662E0,1.5343975E3,4.6356348E2,4.2586914E1,7.2852783E0,3.2019983E3,1.9244902E3,0E0,0E0,1.8009204E2,2.1142334E2,2.653047E2,2.8884247E1,1.7236328E0,1.0135498E1,8.8196535E0,1.1979065E0,2.4119805E3,8.7286743E2,7.683032E2,2.5332428E1,0E0,2.7947998E1,5.028076E1,0E0,2.2057053E3,4.4918945E2,8.3348083E-1,2.1009674E0,3.5438477E1,1.3630737E1,0E0,0E0,0E0,6.155124E-1,0E0,0E0,9.433694E2,6.1883545E-1,2.4127637E2,2.0462999E3,1.5363182E1,2.465625E1,0E0,0E0,0E0,0E0,0E0,0E0,0E0,0E0,0E0,0E0,0E0,0E0,0E0,0E0,0E0,0E0,0E0,0E0,0E0,0E0,0E0,0E0,0E0,0E0,0E0,0E0,0E0,0E0,0E0,0E0,0E0,0E0],"parents":[2147483647,0,0,1,1,2,2,3,3,4,4,5,5,6,6,8,8,9,9,10,10,11,11,12,12,13,13,14,14,17,17,18,18,19,19,20,20,21,21,22,22,23,23,24,24,25,25,26,26,27,27,28,28,30,30,31,31,33,33,34,34,35,35,36,36,37,37,38,38,42,42,45,45,46,46,47,47,48,48,49,49,50,50],"right_children":[2,4,6,8,10,12,14,-1,16,18,20,22,24,26,28,-1,-1,30,32,34,36,38,40,42,44,46,48,50,52,-1,54,56,-1,58,60,62,64,66,68,-1,-1,-1,70,-1,-1,72,74,76,78,80,82,-1,-1,-1,-1,-1,-1,-1,-1,-1,-1,-1,-1,-1,-1,-1,-1,-1,-1,-1,-1,-1,-1,-1,-1,-1,-1,-1,-1,-1,-1,-1,-1],"split_conditions":[6.666667E-1,-8.75E-1,5.8809524E0,0E0,1.25E-1,6.242424E0,2.0030304E1,-1.1320648E-1,1E0,1E0,2E0,1E0,2.375E0,2.3984375E0,9.4125E1,-1.6128574E-1,-2.4922693E-1,1E0,-3.75E-1,1E0,4.875E0,7.2834716E0,4.200223E0,2.325E0,1.7E0,3.590238E2,1.5714286E1,1.8452381E1,1E0,-1.2106927E-1,7.1898454E-1,-6.25E-1,-1.6075185E-1,6.060606E-1,1.25E0,1.904762E-1,1E1,1E0,5.19837E2,-1.564095E-1,-2.0832446E-1,-1.3361286E-1,6.861981E1,1.623876E-1,1.0532645E-1,9.928572E0,1.3094048E3,4.4453125E0,4.7375E0,2.1362375E1,1.01E2,-1.2566009E-1,1.1279329E-1,4.794205E-2,1.13867E-1,-1.5382251E-1,1.11497305E-1,-1.0065881E-1,1.119563E-1,1.1225853E-1,-6.533063E-1,-5.4390645E-1,-1.8366495E-1,-2.719039E-1,-1.4781491E-1,-1.5854058E-1,5.1205624E-2,-2.2817443E-1,-1.6180213E-1,1.5125187E-2,9.8447695E-2,-4.218472E-2,-1.7954724E-1,5.2607026E-2,1.11556195E-1,1.0586101E-1,9.331661E-3,-1.6954191E-1,1.00417055E-1,-1.6922751E-1,1.09654E-1,-1.5949826E-1,-9.377883E-2],"split_indices":[3,12,2,1,12,3,3,0,6,6,12,12,12,4,12,0,0,11,12,11,12,14,14,4,4,2,2,2,10,0,5,12,0,3,12,2,12,10,5,0,0,0,5,0,0,2,2,4,4,14,2,0,0,0,0,0,0,0,0,0,0,0,0,0,0,0,0,0,0,0,0,0,0,0,0,0,0,0,0,0,0,0,0],"split_type":[0,0,0,0,0,0,0,0,0,0,0,0,0,0,0,0,0,0,0,0,0,0,0,0,0,0,0,0,0,0,0,0,0,0,0,0,0,0,0,0,0,0,0,0,0,0,0,0,0,0,0,0,0,0,0,0,0,0,0,0,0,0,0,0,0,0,0,0,0,0,0,0,0,0,0,0,0,0,0,0,0,0,0],"sum_hessian":[4.5603664E4,2.8392844E4,1.721082E4,9.0962225E2,2.748322E4,6.2746426E3,1.0936179E4,3.1855844E2,5.9106384E2,1.6754992E4,1.07282295E4,6.215513E3,5.9129128E1,7.47605E3,3.460129E3,5.847604E2,6.3034353E0,1.0521568E4,6.2334233E3,1.0703392E4,2.4837856E1,5.9039478E3,3.1156543E2,9.810062E0,4.9319065E1,2.619916E3,4.856134E3,3.1428635E3,3.1726544E2,6.219527E1,1.0459373E4,6.2055396E3,2.7883907E1,3.6471934E3,7.056198E3,6.8279285E0,1.8009928E1,5.4758335E3,4.281142E2,6.5003174E1,2.4656226E2,1.2981335E0,8.511929E0,3.5861546E1,1.3457519E1,2.0108262E3,6.090899E2,3.6552651E3,1.2008687E3,1.1415575E2,3.0287078E3,3.7360764E0,3.1352936E2,1.0395122E4,6.4251015E1,6.326867E0,6.1992124E3,5.7936926E2,3.0678242E3,7.0495044E3,6.693776E0,5.369024E0,1.4589049E0,1.1159214E1,6.850714E0,5.4681953E3,7.6382413E0,4.035322E1,3.8776096E2,1.4523602E0,7.059569E0,9.3412787E2,1.0766984E3,4.381798E0,6.0470807E2,3.3745935E3,2.806716E2,4.4559293E2,7.552757E2,1.1569555E0,1.12998795E2,2.9654688E3,6.3239162E1],"tree_param":{"num_deleted":"0","num_feature":"17","num_nodes":"83","size_leaf_vector":"1"}},{"base_weights":[1.8852477E-1,7.173635E-1,-6.7504877E-1,-1.3757511E0,7.8926736E-1,-1.4908712E0,-2.017998E-1,-1.06102705E-1,-1.5376318E0,6.36455E-1,1.0844848E0,-1.519045E0,1.297362E0,2.4926448E-1,-1.1847624E0,-1.5281168E-1,-2.1341632E-1,-9.4531953E-1,7.0042455E-1,1.0989943E0,-2.101338E0,-1.5030951E0,-1.8065816E0,5.394262E-1,1.4273942E0,-5.83644E-1,7.1670413E-1,-1.4045444E0,1.082417E0,-1.5326723E0,8.996444E-1,4.4579443E-1,1.0907605E0,1.1025983E-1,-9.7528446E-1,-1.536146E-1,-3.2843535E0,-1.4967664E0,-1.5787075E0,-1.4946924E-1,-1.892889E-1,-9.254073E-2,7.922503E-1,1.5368435E-1,1.0404189E-1,-1.0625165E0,1.097934E0,9.541488E-1,1.1602376E-3,1.0517578E0,-1.4913557E0,-1.1817725E-1,1.1135715E-1,-1.6248894E-1,-1.0181808E-1,1.0140226E-1,-1.7363971E-1,4.5342956E-2,-1.5640108E-1,1.1023494E-1,-4.5977363E-1,-1.64131E-1,9.131982E-2,-1.9883803E-1,-5.4595745E-1,-1.4995846E-1,3.375994E-2,-2.0272492E-1,-1.525142E-1,-5.8996743E-3,9.708638E-2,-3.740628E-2,-1.6778015E-1,3.382027E-2,1.1030411E-1,1.0389482E-1,1.978386E-3,-1.5817924E-1,9.613455E-2,-1.1558624E-1,1.0884358E-1,-1.5078662E-1,-7.310059E-2],"categories":[],"categories_nodes":[],"categories_segments":[],"categories_sizes":[],"default_left":[0,0,0,0,0,0,0,0,0,0,0,0,0,0,0,0,0,0,0,0,0,0,0,0,0,0,0,0,0,0,0,0,0,0,0,0,0,0,0,0,0,0,0,0,0,0,0,0,0,0,0,0,0,0,0,0,0,0,0,0,0,0,0,0,0,0,0,0,0,0,0,0,0,0,0,0,0,0,0,0,0,0,0],"id":8,"left_children":[1,3,5,7,9,11,13,-1,15,17,19,21,23,25,27,-1,-1,29,31,33,35,37,39,41,43,45,47,49,51,53,55,57,59,-1,61,-1,63,65,67,-1,-1,-1,69,-1,-1,71,73,75,77,79,81,-1,-1,-1,-1,-1,-1,-1,-1,-1,-1,-1,-1,-1,-1,-1,-1,-1,-1,-1,-1,-1,-1,-1,-1,-1,-1,-1,-1,-1,-1,-1,-1],"loss_changes":[1.9628828E4,4.0129473E3,6.3022393E3,4.349109E1,1.1619453E3,4.7273828E2,4.5814287E3,0E0,4.5776367E-2,1.7191924E3,4.0856348E2,2.4496094E1,5.191513E0,2.7581418E3,1.6210156E3,0E0,0E0,7.172206E2,1.6220171E3,6.648535E1,2.182637E1,3.2910156E-1,5.4312744E0,4.6089134E0,5.620804E-1,2.051973E3,7.7091504E2,6.334575E2,2.161673E1,2.2136475E1,5.004622E1,1.5233838E2,4.2988818E2,0E0,2.1254105E1,0E0,2.3294937E1,2.7448242E1,6.911865E0,0E0,0E0,0E0,1.4961677E0,0E0,0E0,8.392632E2,1.8190918E0,2.6991846E2,1.7213708E3,9.496277E0,3.4833984E1,0E0,0E0,0E0,0E0,0E0,0E0,0E0,0E0,0E0,0E0,0E0,0E0,0E0,0E0,0E0,0E0,0E0,0E0,0E0,0E0,0E0,0E0,0E0,0E0,0E0,0E0,0E0,0E0,0E0,0E0,0E0,0E0],"parents":[2147483647,0,0,1,1,2,2,3,3,4,4,5,5,6,6,8,8,9,9,10,10,11,11,12,12,13,13,14,14,17,17,18,18,19,19,20,20,21,21,22,22,23,23,24,24,25,25,26,26,27,27,28,28,29,29,30,30,31,31,32,32,34,34,36,36,37,37,38,38,42,42,45,45,46,46,47,47,48,48,49,49,50,50],"right_children":[2,4,6,8,10,12,14,-1,16,18,20,22,24,26,28,-1,-1,30,32,34,36,38,40,42,44,46,48,50,52,54,56,58,60,-1,62,-1,64,66,68,-1,-1,-1,70,-1,-1,72,74,76,78,80,82,-1,-1,-1,-1,-1,-1,-1,-1,-1,-1,-1,-1,-1,-1,-1,-1,-1,-1,-1,-1,-1,-1,-1,-1,-1,-1,-1,-1,-1,-1,-1,-1],"split_conditions":[6.666667E-1,-8.75E-1,5.8809524E0,1E0,1E0,6.242424E0,2.0030304E1,-1.06102705E-1,1E0,1E0,6.25E-1,1E0,2.375E0,2.3984375E0,9.4125E1,-1.5281168E-1,-2.1341632E-1,1.625E0,0E0,2E0,7.3259086E-3,4.242424E0,1E0,6.969697E0,1.7E0,3.590238E2,1.5714286E1,1.8452381E1,1E0,1E0,2E0,-3.75E-1,1.25E0,1.1025983E-1,4.749651E0,-1.536146E-1,1E0,1E0,5.19837E2,-1.4946924E-1,-1.892889E-1,-9.254073E-2,1.1209422E2,1.5368435E-1,1.0404189E-1,9.928572E0,1.3094048E3,4.4453125E0,4.7375E0,2.8541667E0,1.01E2,-1.1817725E-1,1.1135715E-1,-1.6248894E-1,-1.0181808E-1,1.0140226E-1,-1.7363971E-1,4.5342956E-2,-1.5640108E-1,1.1023494E-1,-4.5977363E-1,-1.64131E-1,9.131982E-2,-1.9883803E-1,-5.4595745E-1,-1.4995846E-1,3.375994E-2,-2.0272492E-1,-1.525142E-1,-5.8996743E-3,9.708638E-2,-3.740628E-2,-1.6778015E-1,3.382027E-2,1.1030411E-1,1.0389482E-1,1.978386E-3,-1.5817924E-1,9.613455E-2,-1.1558624E-1,1.0884358E-1,-1.5078662E-1,-7.310059E-2],"split_indices":[3,12,2,15,15,3,3,0,6,11,12,12,12,4,12,0,0,12,12,15,5,3,15,3,4,2,2,2,10,10,12,12,12,0,5,0,6,10,5,0,0,0,5,0,0,2,2,4,4,4,2,0,0,0,0,0,0,0,0,0,0,0,0,0,0,0,0,0,0,0,0,0,0,0,0,0,0,0,0,0,0,0,0],"split_type":[0,0,0,0,0,0,0,0,0,0,0,0,0,0,0,0,0,0,0,0,0,0,0,0,0,0,0,0,0,0,0,0,0,0,0,0,0,0,0,0,0,0,0,0,0,0,0,0,0,0,0,0,0,0,0,0,0,0,0,0,0,0,0,0,0,0,0,0,0,0,0,0,0,0,0,0,0,0,0,0,0,0,0],"sum_hessian":[4.2978473E4,2.6655338E4,1.6323136E4,8.84666E2,2.5770672E4,5.991824E3,1.0331312E4,3.030462E2,5.816198E2,1.6982986E4,8.787685E3,5.932336E3,5.9488274E1,7.0821733E3,3.2491384E3,5.759939E2,5.625894E0,6.5958734E2,1.6323399E4,8.748496E3,3.9189014E1,5.6264595E3,3.0587646E2,9.4652605E0,5.0023014E1,2.5457585E3,4.5364146E3,2.962347E3,2.8679147E2,5.0043945E2,1.591479E2,9.880281E3,6.443118E3,8.733789E3,1.4706483E1,2.8074682E1,1.1114333E1,5.2110923E3,4.153674E2,7.026775E1,2.356087E2,1.0016333E0,8.463628E0,3.6677887E1,1.3345126E1,1.9817677E3,5.6399097E2,3.4058804E3,1.1305342E3,1.0074277E2,2.8616042E3,3.3913102E0,2.8340015E2,4.2254456E2,7.789488E1,1.5311937E2,6.028542E0,9.84366E3,3.662105E1,6.430823E3,1.2295055E1,1.0968887E1,3.737596E0,8.16426E0,2.9500737E0,5.2032812E3,7.811078E0,4.0381115E1,3.749863E2,1.5840343E0,6.879593E0,9.360323E2,1.0457354E3,4.2147927E0,5.597762E2,3.1223923E3,2.8348798E2,4.265992E2,7.0393494E2,1.1477305E0,9.959504E1,2.799825E3,6.1779423E1],"tree_param":{"num_deleted":"0","num_feature":"17","num_nodes":"83","size_leaf_vector":"1"}},{"base_weights":[1.8225257E-1,5.656578E-1,-1.4376901E0,-1.399493E0,8.688102E-1,-1.4738811E0,9.5527816E-1,-6.3692313E-1,-1.4357094E0,-3.418172E-1,8.965333E-1,-1.5528743E0,-1.4406E0,9.935221E-2,-1.17863394E-1,-5.8237005E-2,-1.4081666E-1,-1.4306049E0,-2.3099685E0,-1.714281E0,1.1263528E-1,9.7949374E-1,5.4536146E-1,-1.5940719E0,-1.4312223E-1,-1.4416145E-1,-6.47922E-1,-1.4327689E-1,-9.314073E-1,-2.6055002E-1,-1.2159325E-1,1.1097985E-1,-2.4615257E0,1.0666537E0,7.574249E-1,-1.3858273E0,9.40617E-1,-1.6313063E-1,-1.4508186E-1,-1.370574E-1,6.772261E-2,3.6703203E-2,-1.5349841E-1,-2.840676E-1,-2.1021095E-1,-3.689423E-1,1.0690134E-1,-1.1866452E-1,1.0859107E-1,1.2148646E-1,-1.4431912E-1,9.5521145E-2,-2.7897078E-1],"categories":[],"categories_nodes":[],"categories_segments":[],"categories_sizes":[],"default_left":[0,0,0,0,0,0,0,0,0,0,0,0,0,0,0,0,0,0,0,0,0,0,0,0,0,0,0,0,0,0,0,0,0,0,0,0,0,0,0,0,0,0,0,0,0,0,0,0,0,0,0,0,0],"id":9,"left_children":[1,3,5,7,9,11,13,15,17,19,21,23,25,-1,-1,-1,-1,27,29,31,-1,33,35,37,-1,-1,39,-1,41,-1,-1,-1,43,45,47,49,51,-1,-1,-1,-1,-1,-1,-1,-1,-1,-1,-1,-1,-1,-1,-1,-1],"loss_changes":[2.511129E4,1.9477535E4,6.7152344E2,1.1976465E2,9.509258E2,1.7804688E1,1.0628532E1,7.591049E0,1.5307617E1,1.2810928E3,8.061738E2,8.979004E0,3.3896484E0,0E0,0E0,0E0,0E0,3.147461E0,4.133461E0,6.9595605E2,0E0,4.3270508E2,4.0420547E3,6.5390625E0,0E0,0E0,9.247648E0,0E0,1.6837866E1,0E0,0E0,0E0,2.946997E1,1.8442188E2,4.0349727E3,1.3598865E2,2.4193335E2,0E0,0E0,0E0,0E0,0E0,0E0,0E0,0E0,0E0,0E0,0E0,0E0,0E0,0E0,0E0,0E0],"parents":[2147483647,0,0,1,1,2,2,3,3,4,4,5,5,6,6,7,7,8,8,9,9,10,10,11,11,12,12,17,17,18,18,19,19,21,21,22,22,23,23,26,26,28,28,32,32,33,33,34,34,35,35,36,36],"right_children":[2,4,6,8,10,12,14,16,18,20,22,24,26,-1,-1,-1,-1,28,30,32,-1,34,36,38,-1,-1,40,-1,42,-1,-1,-1,44,46,48,50,52,-1,-1,-1,-1,-1,-1,-1,-1,-1,-1,-1,-1,-1,-1,-1,-1],"split_conditions":[5.7E1,-8.75E-1,5E2,-4.4314817E-2,-4.4311777E-2,6.060606E-1,3.048E3,1E0,-1.25E0,-3.75E-1,1E0,1E0,1.5625E1,9.935221E-2,-1.17863394E-1,-5.8237005E-2,-1.4081666E-1,3.121212E0,1.1E1,-4.431806E-2,1.1263528E-1,1.5897974E0,1.7E0,1E0,-1.4312223E-1,-1.4416145E-1,1E0,-1.4327689E-1,9.272727E0,-2.6055002E-1,-1.2159325E-1,1.1097985E-1,-4.4314817E-2,-1.3E1,1.28619175E1,-4.4307936E-2,2.4484848E1,-1.6313063E-1,-1.4508186E-1,-1.370574E-1,6.772261E-2,3.6703203E-2,-1.5349841E-1,-2.840676E-1,-2.1021095E-1,-3.689423E-1,1.0690134E-1,-1.1866452E-1,1.0859107E-1,1.2148646E-1,-1.4431912E-1,9.5521145E-2,-2.7897078E-1],"split_indices":[0,12,13,16,16,3,0,15,12,12,3,15,4,0,0,0,0,3,1,16,0,16,4,6,0,0,9,0,3,0,0,0,16,0,16,16,3,0,0,0,0,0,0,0,0,0,0,0,0,0,0,0,0],"split_type":[0,0,0,0,0,0,0,0,0,0,0,0,0,0,0,0,0,0,0,0,0,0,0,0,0,0,0,0,0,0,0,0,0,0,0,0,0,0,0,0,0,0,0,0,0,0,0,0,0,0,0,0,0],"sum_hessian":[4.042839E4,3.2691639E4,7.7367495E3,4.3686626E3,2.8322977E4,7.621862E3,1.14887924E2,1.9891412E2,4.1697485E3,6.338167E2,2.768916E4,2.245786E3,5.376076E3,1.1339016E2,1.4977642E0,1.874128E2,1.1501337E1,4.1481655E3,2.1582981E1,3.2749893E2,3.0631778E2,2.2396459E4,5.292701E3,1.6686066E3,5.771793E2,5.368388E3,7.6876354E0,4.1283994E3,1.9766003E1,1.5905012E1,5.677969E0,6.842261E1,2.5907632E2,1.6081005E4,6.3154536E3,8.9878735E2,4.3939136E3,1.3161312E3,3.5247525E2,4.952549E0,2.7350867E0,6.3968153E0,1.3369188E1,1.2271746E2,1.3635886E2,7.199328E0,1.6073806E4,9.124876E2,5.4029663E3,1.8961397E1,8.79826E2,4.377531E3,1.6382643E1],"tree_param":{"num_deleted":"0","num_feature":"17","num_nodes":"53","size_leaf_vector":"1"}},{"base_weights":[1.7451575E-1,5.501793E-1,-1.3749642E0,8.2109815E-1,-1.1027099E0,-1.4090942E0,9.3042344E-1,-3.6067504E-1,8.6020005E-1,-1.369685E0,1.0824257E-1,-1.473911E0,-1.3815051E-1,9.762245E-2,-1.187584E-1,1.10136785E-1,-1.0278916E0,8.892887E-1,-2.7135414E-1,-1.3726924E-1,-7.0391864E-1,-1.5063043E0,-1.3739747E-1,-5.700967E-1,-1.2678694E0,-1.4495517E-1,8.99668E-1,-1.0941225E0,1.0706744E0,6.3217413E-1,-1.4349008E-1,-1.3878758E-1,-1.542491E-1,-5.9319723E-2,1.0277901E-1,-1.8695576E-1,-8.251256E-2,9.350285E-2,3.939787E-2,1.09117545E-1,-1.3978545E-1,-9.522389E-2,1.0839887E-1,-3.485585E-4,9.23728E-2],"categories":[],"categories_nodes":[],"categories_segments":[],"categories_sizes":[],"default_left":[0,0,0,0,0,0,0,0,0,0,0,0,0,0,0,0,0,0,0,0,0,0,0,0,0,0,0,0,0,0,0,0,0,0,0,0,0,0,0,0,0,0,0,0,0],"id":10,"left_children":[1,3,5,7,9,11,13,15,17,19,-1,21,-1,-1,-1,-1,23,25,27,-1,29,31,-1,33,35,-1,37,39,41,43,-1,-1,-1,-1,-1,-1,-1,-1,-1,-1,-1,-1,-1,-1,-1],"loss_changes":[2.1978523E4,1.360954E4,5.810459E2,1.2068906E3,2.4983867E3,1.0949219E1,1.1644867E1,8.176066E2,8.321758E2,6.6713867E0,0E0,4.8999023E0,0E0,0E0,0E0,0E0,6.24718E1,5.994922E2,7.014664E2,0E0,1.9664635E1,4.7824707E0,0E0,7.9791183E0,9.877515E1,0E0,4.3832617E2,2.6282162E2,7.5381165E0,1.3905811E0,0E0,0E0,0E0,0E0,0E0,0E0,0E0,0E0,0E0,0E0,0E0,0E0,0E0,0E0,0E0],"parents":[2147483647,0,0,1,1,2,2,3,3,4,4,5,5,6,6,7,7,8,8,9,9,11,11,16,16,17,17,18,18,20,20,21,21,23,23,24,24,26,26,27,27,28,28,29,29],"right_children":[2,4,6,8,10,12,14,16,18,20,-1,22,-1,-1,-1,-1,24,26,28,-1,30,32,-1,34,36,-1,38,40,42,44,-1,-1,-1,-1,-1,-1,-1,-1,-1,-1,-1,-1,-1,-1,-1],"split_conditions":[5.7E1,1.1E1,5E2,-4.4311777E-2,1.4761905E1,1.904762E-1,3.048E3,-4.431806E-2,4.387344E2,3.121212E0,1.0824257E-1,1E0,-1.3815051E-1,9.762245E-2,-1.187584E-1,1.10136785E-1,1E0,-5.9E1,5.6666665E0,-1.3726924E-1,7.3095236E0,1E0,-1.3739747E-1,1.904762E-1,-4.4314817E-2,-1.4495517E-1,1.2878788E1,1.8333334E0,4.9141727E-2,1.4249032E3,-1.4349008E-1,-1.3878758E-1,-1.542491E-1,-5.9319723E-2,1.0277901E-1,-1.8695576E-1,-8.251256E-2,9.350285E-2,3.939787E-2,1.09117545E-1,-1.3978545E-1,-9.522389E-2,1.0839887E-1,-3.485585E-4,9.23728E-2],"split_indices":[0,1,13,16,2,2,0,16,5,3,0,15,0,0,0,0,11,0,3,0,2,11,0,2,16,0,3,2,16,5,0,0,0,0,0,0,0,0,0,0,0,0,0,0,0],"split_type":[0,0,0,0,0,0,0,0,0,0,0,0,0,0,0,0,0,0,0,0,0,0,0,0,0,0,0,0,0,0,0,0,0,0,0,0,0,0,0,0,0,0,0,0,0],"sum_hessian":[3.7756094E4,3.0389064E4,7.3670283E3,2.6109979E4,4.2790854E3,7.259938E3,1.0709037E2,8.3598126E2,2.5273996E4,3.8135295E3,4.6555582E2,2.1519043E3,5.1080337E3,1.0535127E2,1.7390951E0,2.6175598E2,5.742253E2,2.4640775E4,6.332225E2,3.7953237E3,1.8205791E1,1.6145076E3,5.373967E2,1.986483E2,3.75577E2,1.0825414E2,2.453252E4,3.9266986E2,2.405526E2,6.4859357E0,1.1719854E1,3.8707574E2,1.2274318E3,1.9643718E2,2.211122E0,1.5784422E2,2.1773276E2,2.2928395E4,1.6041263E3,4.7600445E1,3.4506943E2,1.1117913E0,2.3944081E2,2.350125E0,4.135811E0],"tree_param":{"num_deleted":"0","num_feature":"17","num_nodes":"45","size_leaf_vector":"1"}},{"base_weights":[1.7070183E-1,5.342525E-1,-1.3231685E0,-1.2890176E0,8.2365495E-1,-1.3552121E0,9.285152E-2,-8.117772E-2,-1.3271073E0,8.5048604E-1,-2.5992763E-1,-1.4083282E0,-1.3323624E-1,-1.3221962E0,-2.0925944E0,8.840813E-1,3.7326005E-1,-1.0527073E0,1.0587101E0,-1.3208763E-1,-1.4335608E0,-1.3247493E-1,-8.382951E-1,-2.3307331E-1,-1.1119261E-1,1.0765682E0,8.36628E-1,-2.1532226E0,8.840255E-1,1.07591175E-1,-1.3456541E-1,1.0744839E-1,-4.9764544E-2,-1.4616795E-1,-1.3475478E-1,2.7804092E-2,-1.3813724E-1,-2.6643756E-1,1.0801418E-1,6.418686E-2,9.701295E-2,-8.578686E-1,-1.2570113E-1,-2.0374341E-1,9.885373E-2,-8.991836E-2,6.8843655E-2],"categories":[],"categories_nodes":[],"categories_segments":[],"categories_sizes":[],"default_left":[0,0,0,0,0,0,0,0,0,0,0,0,0,0,0,0,0,0,0,0,0,0,0,0,0,0,0,0,0,0,0,0,0,0,0,0,0,0,0,0,0,0,0,0,0,0,0],"id":11,"left_children":[1,3,5,7,9,11,-1,-1,13,15,17,19,-1,21,23,25,27,29,31,-1,33,-1,35,-1,-1,37,39,41,43,-1,-1,-1,45,-1,-1,-1,-1,-1,-1,-1,-1,-1,-1,-1,-1,-1,-1],"loss_changes":[1.9133234E4,1.4951748E4,4.9878418E2,6.94834E1,7.111699E2,6.3759766E0,0E0,0E0,1.0741211E1,3.8225E2,6.196024E2,2.5805664E0,0E0,3.3032227E0,2.3568192E0,2.0272266E2,2.0293296E3,2.3216507E2,3.946289E0,0E0,1.8081055E0,0E0,1.3403601E1,0E0,0E0,6.1768555E1,4.6448242E2,1.5123622E3,4.0126294E2,0E0,0E0,0E0,3.177056E0,0E0,0E0,0E0,0E0,0E0,0E0,0E0,0E0,0E0,0E0,0E0,0E0,0E0,0E0],"parents":[2147483647,0,0,1,1,2,2,3,3,4,4,5,5,8,8,9,9,10,10,11,11,13,13,14,14,15,15,16,16,17,17,18,18,20,20,22,22,25,25,26,26,27,27,28,28,32,32],"right_children":[2,4,6,8,10,12,-1,-1,14,16,18,20,-1,22,24,26,28,30,32,-1,34,-1,36,-1,-1,38,40,42,44,-1,-1,-1,46,-1,-1,-1,-1,-1,-1,-1,-1,-1,-1,-1,-1,-1,-1],"split_conditions":[5.7E1,-8.75E-1,5E2,1E0,4.387344E2,1.904762E-1,9.285152E-2,-8.117772E-2,-1.25E0,1.2878788E1,5.6666665E0,-6.25E-1,-1.3323624E-1,5.8809524E0,1.1E1,-5.7E1,1.3363636E1,1E0,6.25E-1,-1.3208763E-1,-3.75E-1,-1.3247493E-1,7.3095236E0,-2.3307331E-1,-1.1119261E-1,1E0,-2.5E-1,2.375E0,1.6949999E1,1.07591175E-1,-1.3456541E-1,1.0744839E-1,1.150276E1,-1.4616795E-1,-1.3475478E-1,2.7804092E-2,-1.3813724E-1,-2.6643756E-1,1.0801418E-1,6.418686E-2,9.701295E-2,-8.578686E-1,-1.2570113E-1,-2.0374341E-1,9.885373E-2,-8.991836E-2,6.8843655E-2],"split_indices":[0,12,13,15,5,2,0,0,12,3,3,12,0,2,1,0,3,3,12,0,12,0,2,0,0,15,12,12,14,0,0,0,14,0,0,0,0,0,0,0,0,0,0,0,0,0,0],"split_type":[0,0,0,0,0,0,0,0,0,0,0,0,0,0,0,0,0,0,0,0,0,0,0,0,0,0,0,0,0,0,0,0,0,0,0,0,0,0,0,0,0,0,0,0,0,0,0],"sum_hessian":[3.5227527E4,2.8333004E4,6.894523E3,3.8806963E3,2.4452307E4,6.798177E3,9.634615E1,2.8848392E2,3.5922124E3,2.3861672E4,5.906341E2,2.0265745E3,4.771602E3,3.5720232E3,2.0189175E1,2.229156E4,1.5701122E3,3.6899304E2,2.2164105E2,4.6574234E2,1.5608322E3,3.5515479E3,2.0475266E1,1.5136784E1,5.0523906E0,4.404343E3,1.7887217E4,2.6350058E2,1.3066116E3,4.4315273E1,3.2467776E2,2.1856155E2,3.079512E0,1.1642356E3,3.9659656E2,6.8606696E0,1.3614595E1,3.4925227E0,4.4008506E3,7.2769736E3,1.0610244E4,3.1204573E1,2.32296E2,4.44893E1,1.2621223E3,1.3304924E0,1.7490196E0],"tree_param":{"num_deleted":"0","num_feature":"17","num_nodes":"47","size_leaf_vector":"1"}},{"base_weights":[1.6566285E-1,5.186919E-1,-1.2780774E0,-1.2443755E0,8.0010897E-1,-1.3111142E0,8.132067E-1,-4.5358464E-1,-1.2888618E0,-3.292575E-1,8.3077514E-1,-1.3552117E0,-1.2918426E-1,9.3790776E-1,-1.3054739E-1,-4.1062556E-2,-1.2272491E-1,-1.2845978E0,-1.8862842E0,-1.3625633E0,1.1001824E0,9.242565E-1,4.5517042E-1,-1.3774472E0,-1.2845938E-1,9.643197E-2,3.0521613E-1,-1.2867102E-1,-8.317281E-1,-2.0626973E-1,-1.0851486E-1,1.0690291E-1,-1.8332945E-1,1.1058825E-1,8.244417E-3,1.0300738E0,6.566411E-1,-1.3179363E0,8.7369186E-1,-1.2936214E-1,-1.4018296E-1,-1.2228244E-1,1.01200454E-1,1.5945075E-2,-1.311981E-1,-2.995084E-1,1.032987E-1,-1.2845382E-1,1.0571171E-1,-1.7281696E-1,-9.770207E-2,-5.6186295E-3,9.5371686E-2],"categories":[],"categories_nodes":[],"categories_segments":[],"categories_sizes":[],"default_left":[0,0,0,0,0,0,0,0,0,0,0,0,0,0,0,0,0,0,0,0,0,0,0,0,0,0,0,0,0,0,0,0,0,0,0,0,0,0,0,0,0,0,0,0,0,0,0,0,0,0,0,0,0],"id":12,"left_children":[1,3,5,7,9,11,13,15,17,19,21,23,-1,25,-1,-1,-1,27,29,31,33,35,37,39,-1,-1,41,-1,43,-1,-1,-1,-1,-1,-1,45,47,49,51,-1,-1,-1,-1,-1,-1,-1,-1,-1,-1,-1,-1,-1,-1],"loss_changes":[1.6731678E4,1.3088314E4,4.4669336E2,1.2715723E2,7.88084E2,3.6464844E0,2.7889198E1,5.974926E0,6.333008E0,8.9076E2,7.7717676E2,1.230957E0,0E0,1.3081894E0,0E0,0E0,0E0,2.1972656E0,9.0254974E-1,4.0245697E2,1.3774719E0,5.01458E2,3.2777043E3,1.1286621E0,0E0,0E0,6.9679255E0,0E0,9.104719E0,0E0,0E0,0E0,0E0,0E0,0E0,1.5208203E2,3.9095684E3,1.1628894E2,2.659165E2,0E0,0E0,0E0,0E0,0E0,0E0,0E0,0E0,0E0,0E0,0E0,0E0,0E0,0E0],"parents":[2147483647,0,0,1,1,2,2,3,3,4,4,5,5,6,6,7,7,8,8,9,9,10,10,11,11,13,13,17,17,18,18,19,19,20,20,21,21,22,22,23,23,26,26,28,28,35,35,36,36,37,37,38,38],"right_children":[2,4,6,8,10,12,14,16,18,20,22,24,-1,26,-1,-1,-1,28,30,32,34,36,38,40,-1,-1,42,-1,44,-1,-1,-1,-1,-1,-1,46,48,50,52,-1,-1,-1,-1,-1,-1,-1,-1,-1,-1,-1,-1,-1,-1],"split_conditions":[5.7E1,-8.75E-1,1.5625E1,-4.4314817E-2,-4.4311777E-2,4.7619048E-1,3.2938E4,1E0,-1.25E0,-3.75E-1,1E0,1E0,-1.2918426E-1,1.5272727E1,-1.3054739E-1,-4.1062556E-2,-1.2272491E-1,5.8809524E0,1.1E1,-4.431806E-2,1E0,1.5897974E0,1.7E0,1E0,-1.2845938E-1,9.643197E-2,2.8212E4,-1.2867102E-1,7.3095236E0,-2.0626973E-1,-1.0851486E-1,1.0690291E-1,-1.8332945E-1,1.1058825E-1,8.244417E-3,-1.3E1,1.28619175E1,1.1875E0,-4.4221435E-2,-1.2936214E-1,-1.4018296E-1,-1.2228244E-1,1.01200454E-1,1.5945075E-2,-1.311981E-1,-2.995084E-1,1.032987E-1,-1.2845382E-1,1.0571171E-1,-1.7281696E-1,-9.770207E-2,-5.6186295E-3,9.5371686E-2],"split_indices":[0,12,4,16,16,2,0,15,12,12,3,15,0,3,0,0,0,2,1,16,6,16,4,11,0,0,0,0,2,0,0,0,0,0,0,0,16,4,16,0,0,0,0,0,0,0,0,0,0,0,0,0,0],"split_type":[0,0,0,0,0,0,0,0,0,0,0,0,0,0,0,0,0,0,0,0,0,0,0,0,0,0,0,0,0,0,0,0,0,0,0,0,0,0,0,0,0,0,0,0,0,0,0,0,0,0,0,0,0],"sum_hessian":[3.2825367E4,2.637636E4,6.4490103E3,3.6301545E3,2.2746203E4,6.3490845E3,9.992582E1,1.9393564E2,3.436219E3,6.010526E2,2.2145152E4,1.9097814E3,4.4393027E3,9.489765E1,5.028163E0,1.8518373E2,8.7519045E0,3.414995E3,2.122366E1,3.488933E2,2.5215932E2,1.7730807E4,4.4143447E3,1.4383733E3,4.714081E2,9.059171E1,4.30594E0,3.3973079E3,1.7687426E1,1.6103004E1,5.120656E0,5.6381268E1,2.9251205E2,2.5066878E2,1.4905511E0,1.2704495E4,5.0263115E3,8.425692E2,3.5717756E3,3.3628577E2,1.1020875E3,1.1308932E0,3.1750472E0,5.9909253E0,1.16965E1,8.44551E0,1.269605E4,8.5923535E2,4.167076E3,3.8056076E2,4.6200842E2,2.830522E2,3.2887234E3],"tree_param":{"num_deleted":"0","num_feature":"17","num_nodes":"53","size_leaf_vector":"1"}},{"base_weights":[1.6160673E-1,5.049373E-1,-1.2417456E0,-1.2073458E0,7.776175E-1,-1.2718841E0,8.809773E-2,-4.3448576E-1,-1.2525423E0,-2.7620456E-1,8.089952E-1,-1.27281E0,-4.5781243E-1,-4.1978747E-2,-9.7407125E-2,-1.2553548E0,-7.0950484E-1,-1.1226228E0,1.0885276E0,9.0225536E-1,4.407223E-1,-1.3093283E0,-1.2566097E-1,-1.1017326E-1,3.7875466E-2,-1.2520084E-1,-1.7108062E-1,2.4680252E-1,-1.2582216E-1,1.0555804E-1,-1.4735593E0,1.0943582E-1,1.7798884E-2,1.0174274E0,6.1190194E-1,-1.2074603E0,8.5506505E-1,-1.2456968E-1,-1.3263514E0,-5.9051424E-2,8.8981636E-2,-1.6438861E-1,-1.2949094E-1,-2.3863767E-1,1.02008484E-1,-1.3040124E-1,1.0448938E-1,1.2754677E-1,-1.2636122E-1,-6.2330244E-3,9.39996E-2,-1.2599762E-1,-1.34798E-1],"categories":[],"categories_nodes":[],"categories_segments":[],"categories_sizes":[],"default_left":[0,0,0,0,0,0,0,0,0,0,0,0,0,0,0,0,0,0,0,0,0,0,0,0,0,0,0,0,0,0,0,0,0,0,0,0,0,0,0,0,0,0,0,0,0,0,0,0,0,0,0,0,0],"id":13,"left_children":[1,3,5,7,9,11,-1,13,15,17,19,21,23,-1,-1,25,27,29,31,33,35,37,-1,-1,-1,-1,-1,39,-1,-1,41,-1,-1,43,45,47,49,-1,51,-1,-1,-1,-1,-1,-1,-1,-1,-1,-1,-1,-1,-1,-1],"loss_changes":[1.4716914E4,1.1459061E4,3.8522852E2,1.1722656E2,7.0023926E2,3.8798828E0,0E0,1.0805893E0,3.9736328E0,7.091557E2,7.056748E2,1.8535156E0,4.8819323E0,0E0,0E0,2.6855469E0,1.0128489E1,2.9107706E2,1.0534363E0,5.479043E2,2.8392488E3,2.902832E-1,0E0,0E0,0E0,0E0,0E0,4.648305E0,0E0,0E0,7.8097534E0,0E0,0E0,1.0865332E2,3.868086E3,1.1807373E2,2.5887134E2,0E0,3.1030273E-1,0E0,0E0,0E0,0E0,0E0,0E0,0E0,0E0,0E0,0E0,0E0,0E0,0E0,0E0],"parents":[2147483647,0,0,1,1,2,2,3,3,4,4,5,5,7,7,8,8,9,9,10,10,11,11,12,12,15,15,16,16,17,17,18,18,19,19,20,20,21,21,27,27,30,30,33,33,34,34,35,35,36,36,38,38],"right_children":[2,4,6,8,10,12,-1,14,16,18,20,22,24,-1,-1,26,28,30,32,34,36,38,-1,-1,-1,-1,-1,40,-1,-1,42,-1,-1,44,46,48,50,-1,52,-1,-1,-1,-1,-1,-1,-1,-1,-1,-1,-1,-1,-1,-1],"split_conditions":[5.7E1,-8.75E-1,5E2,-4.4314817E-2,-4.4311777E-2,1.5625E1,8.809773E-2,-5.9E1,5.8809524E0,-3.75E-1,1E0,4.7619048E-1,1E0,-4.1978747E-2,-9.7407125E-2,-1.25E0,7.3095236E0,-4.431806E-2,1E0,1.895569E0,1.7777778E0,-8.75E-1,-1.2566097E-1,-1.1017326E-1,3.7875466E-2,-1.2520084E-1,-1.7108062E-1,1.4249032E3,-1.2582216E-1,1.0555804E-1,-4.4314817E-2,1.0943582E-1,1.7798884E-2,-1.3E1,1.28619175E1,7.3259086E-3,-4.4221435E-2,-1.2456968E-1,1E0,-5.9051424E-2,8.8981636E-2,-1.6438861E-1,-1.2949094E-1,-2.3863767E-1,1.02008484E-1,-1.3040124E-1,1.0448938E-1,1.2754677E-1,-1.2636122E-1,-6.2330244E-3,9.39996E-2,-1.2599762E-1,-1.34798E-1],"split_indices":[0,12,13,16,16,4,0,0,2,12,3,2,9,0,0,12,2,16,6,16,4,12,0,0,0,0,0,5,0,0,16,0,0,0,16,5,16,0,11,0,0,0,0,0,0,0,0,0,0,0,0,0,0],"split_type":[0,0,0,0,0,0,0,0,0,0,0,0,0,0,0,0,0,0,0,0,0,0,0,0,0,0,0,0,0,0,0,0,0,0,0,0,0,0,0,0,0,0,0,0,0,0,0,0,0,0,0,0,0],"sum_hessian":[3.0542516E4,2.4539547E4,6.0029683E3,3.370598E3,2.116895E4,5.919326E3,8.364199E1,1.8680658E2,3.1837913E3,6.118584E2,2.0557092E4,5.912038E3,7.288085E0,1.8358374E2,3.2228408E0,3.1660813E3,1.771007E1,3.7775128E2,2.341071E2,1.6402045E4,4.1550464E3,1.7922281E3,4.1198096E3,3.9391127E0,3.3489723E0,3.1467095E3,1.93718E1,6.6575174E0,1.1052551E1,5.2137123E1,3.2561417E2,2.3241693E2,1.6901832E0,1.1741956E4,4.6600894E3,8.343269E2,3.3207197E3,3.9392517E2,1.398303E3,2.9273024E0,3.7302153E0,1.6249136E2,1.631228E2,8.460273E0,1.1733495E4,8.5865894E2,3.8014302E3,1.7970936E1,8.1635596E2,2.8139984E2,3.0393198E3,3.5822232E2,1.0400807E3],"tree_param":{"num_deleted":"0","num_feature":"17","num_nodes":"53","size_leaf_vector":"1"}},{"base_weights":[1.5875433E-1,4.9277675E-1,-1.2090173E0,-1.1713301E0,7.59738E-1,-1.2392883E0,9.0269804E-1,-3.6582667E-1,-1.2228211E0,-2.5470746E-1,7.9158306E-1,-1.2714761E-1,-1.22496024E-1,9.456186E-2,-9.997522E-2,-3.186903E-2,-1.1799836E-1,-1.2257742E0,-6.225932E-1,-9.858386E-1,1.0782621E0,8.861838E-1,4.2254654E-1,-1.2223418E-1,-1.6222173E-1,3.138943E-1,-1.1983414E-1,1.04238085E-1,-1.2717937E0,1.0838288E-1,3.94119E-2,1.0076785E0,5.990486E-1,-1.4191167E0,6.993644E-1,-4.2131092E-2,8.626391E-2,-1.3767008E-1,-1.16528526E-1,-2.08817E-1,1.01106755E-1,-8.313935E-2,1.0599889E-1,-1.6065492E-1,-1.23427704E-1,-5.8521666E-2,9.191542E-2],"categories":[],"categories_nodes":[],"categories_segments":[],"categories_sizes":[],"default_left":[0,0,0,0,0,0,0,0,0,0,0,0,0,0,0,0,0,0,0,0,0,0,0,0,0,0,0,0,0,0,0,0,0,0,0,0,0,0,0,0,0,0,0,0,0,0,0],"id":14,"left_children":[1,3,5,7,9,11,13,15,17,19,21,-1,-1,-1,-1,-1,-1,23,25,27,29,31,33,-1,-1,35,-1,-1,37,-1,-1,39,41,43,45,-1,-1,-1,-1,-1,-1,-1,-1,-1,-1,-1,-1],"loss_changes":[1.2955649E4,1.0125997E4,3.56917E2,1.3025244E2,6.34709E2,9.736328E-1,7.4155197E0,6.944668E0,4.48584E0,5.8440204E2,6.64459E2,0E0,0E0,0E0,0E0,0E0,0E0,2.0253906E0,9.289033E0,2.2581427E2,3.8208008E-1,5.281553E2,1.9829004E3,0E0,0E0,3.2222126E0,0E0,0E0,2.1912231E0,0E0,0E0,1.1384082E2,2.973872E3,1.56276245E1,9.549144E2,0E0,0E0,0E0,0E0,0E0,0E0,0E0,0E0,0E0,0E0,0E0,0E0],"parents":[2147483647,0,0,1,1,2,2,3,3,4,4,5,5,6,6,7,7,8,8,9,9,10,10,17,17,18,18,19,19,20,20,21,21,22,22,25,25,28,28,31,31,32,32,33,33,34,34],"right_children":[2,4,6,8,10,12,14,16,18,20,22,-1,-1,-1,-1,-1,-1,24,26,28,30,32,34,-1,-1,36,-1,-1,38,-1,-1,40,42,44,46,-1,-1,-1,-1,-1,-1,-1,-1,-1,-1,-1,-1],"split_conditions":[5.7E1,-8.75E-1,5E2,-4.4314817E-2,-4.4311777E-2,6.060606E-1,3.048E3,1E0,3.121212E0,-3.75E-1,2.5454545E0,-1.2714761E-1,-1.22496024E-1,9.456186E-2,-9.997522E-2,-3.186903E-2,-1.1799836E-1,-1.25E0,9.272727E0,-4.431806E-2,1E0,1.5897974E0,6.242424E0,-1.2223418E-1,-1.6222173E-1,1.4249032E3,-1.1983414E-1,1.04238085E-1,-4.4314817E-2,1.0838288E-1,3.94119E-2,-1.3E1,1E0,5.19837E2,-4.4221435E-2,-4.2131092E-2,8.626391E-2,-1.3767008E-1,-1.16528526E-1,-2.08817E-1,1.01106755E-1,-8.313935E-2,1.0599889E-1,-1.6065492E-1,-1.23427704E-1,-5.8521666E-2,9.191542E-2],"split_indices":[0,12,13,16,16,3,0,15,3,12,3,0,0,0,0,0,0,12,3,16,6,16,3,0,0,5,0,0,16,0,0,0,15,5,16,0,0,0,0,0,0,0,0,0,0,0,0],"split_type":[0,0,0,0,0,0,0,0,0,0,0,0,0,0,0,0,0,0,0,0,0,0,0,0,0,0,0,0,0,0,0,0,0,0,0,0,0,0,0,0,0,0,0,0,0,0,0],"sum_hessian":[2.8355328E4,2.2790354E4,5.5649746E3,3.150193E3,1.964016E4,5.4867363E3,7.823833E1,1.8976088E2,2.9604321E3,5.9755707E2,1.9042604E4,1.6630283E3,3.823708E3,7.700401E1,1.2343124E0,1.8069104E2,9.06984E0,2.9449019E3,1.5530405E1,3.860628E2,2.1149425E2,1.5156026E4,3.886578E3,2.9236726E3,2.122923E1,6.0859933E0,9.444411E0,4.7377678E1,3.3868512E2,2.0920776E2,2.286488E0,1.0648042E4,4.507984E3,5.0731247E2,3.3792654E3,2.7003317E0,3.3856616E0,1.6461739E2,1.7406773E2,1.0971151E1,1.0637071E4,1.0984244E3,3.4095596E3,2.4807068E2,2.592418E2,4.9347046E2,2.885795E3],"tree_param":{"num_deleted":"0","num_feature":"17","num_nodes":"47","size_leaf_vector":"1"}},{"base_weights":[1.5497096E-1,4.7882837E-1,-1.183241E0,-1.139162E0,7.3865175E-1,-1.2116044E0,8.314096E-1,-5.6307316E-2,-1.194611E0,8.228635E-1,4.070019E-1,-1.2393949E-1,-1.1990779E-1,8.8456005E-2,-1.0241734E-1,-1.198196E0,-5.41633E-1,7.168038E-1,1.0439498E0,-1.3669596E0,7.021853E-1,-1.19514406E-1,-1.522627E-1,4.5623425E-1,-1.1644067E-1,5.1334E-1,9.9296993E-1,1.0517324E0,-6.8367434E-1,8.123014E-2,-1.3823408E0,1.0208939E0,1.9653837E-1,-5.0497367E-3,8.357385E-2,-1.7262682E-1,5.1487114E-2,1.03847764E-1,-3.5922308E-2,1.0523132E-1,-9.108851E-4,-1.5326326E-1,-1.2076507E-1,1.0275145E-1,-5.740439E-1,-2.0135835E-1,7.9151176E-2],"categories":[],"categories_nodes":[],"categories_segments":[],"categories_sizes":[],"default_left":[0,0,0,0,0,0,0,0,0,0,0,0,0,0,0,0,0,0,0,0,0,0,0,0,0,0,0,0,0,0,0,0,0,0,0,0,0,0,0,0,0,0,0,0,0,0,0],"id":15,"left_children":[1,3,5,7,9,11,13,-1,15,17,19,-1,-1,-1,-1,21,23,25,27,29,31,-1,-1,33,-1,35,37,39,-1,-1,41,43,45,-1,-1,-1,-1,-1,-1,-1,-1,-1,-1,-1,-1,-1,-1],"loss_changes":[1.1391148E4,8.897187E3,2.9366113E2,9.287305E1,5.0893555E2,2.7148438E-1,7.9769135E0,0E0,5.602539E0,3.4021582E2,1.935546E3,0E0,0E0,0E0,0E0,8.093262E-1,1.0727163E1,5.518423E2,2.9618555E2,1.880066E1,5.103479E2,0E0,0E0,1.3928155E0,0E0,2.0305176E1,2.5691162E2,2.9111328E0,0E0,0E0,1.1908142E1,9.2875E1,1.6138267E3,0E0,0E0,0E0,0E0,0E0,0E0,0E0,0E0,0E0,0E0,0E0,0E0,0E0,0E0],"parents":[2147483647,0,0,1,1,2,2,3,3,4,4,5,5,6,6,8,8,9,9,10,10,15,15,16,16,17,17,18,18,19,19,20,20,23,23,25,25,26,26,27,27,30,30,31,31,32,32],"right_children":[2,4,6,8,10,12,14,-1,16,18,20,-1,-1,-1,-1,22,24,26,28,30,32,-1,-1,34,-1,36,38,40,-1,-1,42,44,46,-1,-1,-1,-1,-1,-1,-1,-1,-1,-1,-1,-1,-1,-1],"split_conditions":[5.7E1,-8.75E-1,5E2,1E0,2.5454545E0,6.060606E-1,3.048E3,-5.6307316E-2,3.121212E0,1E0,8.481638E0,-1.2393949E-1,-1.1990779E-1,8.8456005E-2,-1.0241734E-1,-1.25E0,9.272727E0,-2.5E-1,6.25E-1,-6.25E-1,1.2878788E1,-1.19514406E-1,-1.522627E-1,1.4249032E3,-1.1644067E-1,-2.7E1,1E0,2E0,-6.8367434E-1,8.123014E-2,4.9292715E2,2E0,1.3363636E1,-5.0497367E-3,8.357385E-2,-1.7262682E-1,5.1487114E-2,1.03847764E-1,-3.5922308E-2,1.0523132E-1,-9.108851E-4,-1.5326326E-1,-1.2076507E-1,1.0275145E-1,-5.740439E-1,-2.0135835E-1,7.9151176E-2],"split_indices":[0,12,13,15,3,3,0,0,3,15,14,0,0,0,0,12,3,12,12,12,3,0,0,5,0,0,6,15,0,0,5,15,3,0,0,0,0,0,0,0,0,0,0,0,0,0,0],"split_type":[0,0,0,0,0,0,0,0,0,0,0,0,0,0,0,0,0,0,0,0,0,0,0,0,0,0,0,0,0,0,0,0,0,0,0,0,0,0,0,0,0,0,0,0,0,0,0],"sum_hessian":[2.628153E4,2.116104E4,5.1204893E3,2.9274753E3,1.8233564E4,5.049794E3,7.069536E1,2.5801138E2,2.6694639E3,1.4540096E4,3.6934688E3,1.538548E3,3.511246E3,6.9235504E1,1.4598529E0,2.6540571E3,1.5406787E1,9.82911E3,4.7109854E3,5.2639075E2,3.1670781E3,2.633963E3,2.0094206E1,6.0232215E0,9.383565E0,5.6611494E3,4.1679604E3,4.7072036E3,3.7820547E0,3.3260934E0,5.230647E2,1.9420116E3,1.2250664E3,2.9505067E0,3.0727148E0,3.098088E0,5.6580513E3,4.0324802E3,1.3548027E2,4.7046357E3,2.5678632E0,2.7698856E2,2.4607613E2,1.9409591E3,1.0525224E0,2.593364E2,9.6573004E2],"tree_param":{"num_deleted":"0","num_feature":"17","num_nodes":"47","size_leaf_vector":"1"}},{"base_weights":[1.5200779E-1,5.7682544E-1,-5.2206653E-1,-5.882639E-1,6.5686935E-1,-1.1573236E0,-1.4858873E-1,-8.8197035E-1,1.0652299E-1,-1.1972455E-1,7.1290857E-1,-1.1883031E0,1.2074488E0,1.9549352E-1,-9.197522E-1,-2.655886E-1,-1.0520744E0,8.9612263E-1,3.031892E-1,-1.17394224E-1,-1.3777835E0,2.2980571E-1,1.32826E-1,-4.8670426E-1,6.0276407E-1,-1.1034681E0,1.0248477E0,-2.553395E-2,-8.14601E-2,-9.020649E-1,-1.1710025E0,9.0387446E-1,-3.021516E0,-1.1641341E0,1.0482704E-1,-1.14134885E-1,-1.4113823E-1,-7.760013E-2,8.147095E-2,8.4461784E-1,-8.717574E-1,9.491372E-1,1.1661502E-1,9.487856E-1,-1.1746931E0,-7.765405E-2,1.0512916E-1,-1.20488666E-1,-8.4759146E-2,-1.3057937E-1,-1.02997996E-1,6.258007E-2,9.6785374E-2,-3.7159398E-1,-1.3022861E-1,-1.6601267E-1,1.0646116E-1,-1.3094342E-1,9.6062034E-2,-5.403961E-3,-1.250098E-1,-8.354484E-2,9.808501E-2,3.2956105E-2,-3.2064435E-1,-9.861477E-2,1.00425296E-1,-1.1907915E-1,-7.130303E-2],"categories":[],"categories_nodes":[],"categories_segments":[],"categories_sizes":[],"default_left":[0,0,0,0,0,0,0,0,0,0,0,0,0,0,0,0,0,0,0,0,0,0,0,0,0,0,0,0,0,0,0,0,0,0,0,0,0,0,0,0,0,0,0,0,0,0,0,0,0,0,0,0,0,0,0,0,0,0,0,0,0,0,0,0,0,0,0,0,0],"id":16,"left_children":[1,3,5,7,9,11,13,15,-1,-1,17,19,21,23,25,27,29,31,33,-1,35,37,-1,39,41,43,45,-1,-1,47,49,51,53,55,-1,-1,-1,-1,-1,57,59,61,63,65,67,-1,-1,-1,-1,-1,-1,-1,-1,-1,-1,-1,-1,-1,-1,-1,-1,-1,-1,-1,-1,-1,-1,-1,-1],"loss_changes":[6.99751E3,1.3982627E3,2.2411309E3,4.691566E2,1.4582168E3,2.576587E2,1.5790669E3,8.561755E1,0E0,0E0,1.0217788E3,7.777832E0,5.0949936E0,1.1436945E3,6.5705347E2,7.9654884E-1,1.039209E1,2.8843213E2,4.6023613E3,0E0,2.7575684E-1,4.3019443E0,0E0,7.8965765E2,4.3388947E2,2.4639221E2,8.390579E0,0E0,0E0,3.7317047E0,5.395294E0,1.664502E2,1.7615753E1,1.5690813E3,0E0,0E0,0E0,0E0,0E0,8.7655136E1,3.6939124E2,8.598865E1,7.606719E2,7.0903397E0,1.1206787E1,0E0,0E0,0E0,0E0,0E0,0E0,0E0,0E0,0E0,0E0,0E0,0E0,0E0,0E0,0E0,0E0,0E0,0E0,0E0,0E0,0E0,0E0,0E0,0E0],"parents":[2147483647,0,0,1,1,2,2,3,3,4,4,5,5,6,6,7,7,10,10,11,11,12,12,13,13,14,14,15,15,16,16,17,17,18,18,20,20,21,21,23,23,24,24,25,25,26,26,29,29,30,30,31,31,32,32,33,33,39,39,40,40,41,41,42,42,43,43,44,44],"right_children":[2,4,6,8,10,12,14,16,-1,-1,18,20,22,24,26,28,30,32,34,-1,36,38,-1,40,42,44,46,-1,-1,48,50,52,54,56,-1,-1,-1,-1,-1,58,60,62,64,66,68,-1,-1,-1,-1,-1,-1,-1,-1,-1,-1,-1,-1,-1,-1,-1,-1,-1,-1,-1,-1,-1,-1,-1,-1],"split_conditions":[6.666667E-1,-4.4311777E-2,5.8809524E0,0E0,-8.75E-1,6.242424E0,2.0030304E1,0E0,1.0652299E-1,-1.1972455E-1,2.3973954E0,1E0,1.875E0,2.3984375E0,9.4125E1,-4.4314817E-2,-4.431806E-2,2E0,1E0,-1.17394224E-1,4.200223E0,1.4107543E-1,1.32826E-1,1E0,1.2878788E1,1.8452381E1,1.9742775E1,-2.553395E-2,-8.14601E-2,-4.432016E-2,-4.4314817E-2,1E0,-4.426347E-2,0E0,1.0482704E-1,-1.14134885E-1,-1.4113823E-1,-7.760013E-2,8.147095E-2,1.9441247E-2,8.666667E0,8.481638E0,2.1676046E1,-4.427005E-2,7.142857E1,-7.765405E-2,1.0512916E-1,-1.20488666E-1,-8.4759146E-2,-1.3057937E-1,-1.02997996E-1,6.258007E-2,9.6785374E-2,-3.7159398E-1,-1.3022861E-1,-1.6601267E-1,1.0646116E-1,-1.3094342E-1,9.6062034E-2,-5.403961E-3,-1.250098E-1,-8.354484E-2,9.808501E-2,3.2956105E-2,-3.2064435E-1,-9.861477E-2,1.00425296E-1,-1.1907915E-1,-7.130303E-2],"split_indices":[3,16,2,12,12,3,3,1,0,0,16,12,12,4,12,16,16,12,6,0,14,16,0,6,3,2,14,0,0,16,16,11,16,12,0,0,0,0,0,5,2,14,5,16,2,0,0,0,0,0,0,0,0,0,0,0,0,0,0,0,0,0,0,0,0,0,0,0,0],"split_type":[0,0,0,0,0,0,0,0,0,0,0,0,0,0,0,0,0,0,0,0,0,0,0,0,0,0,0,0,0,0,0,0,0,0,0,0,0,0,0,0,0,0,0,0,0,0,0,0,0,0,0,0,0,0,0,0,0,0,0,0,0,0,0,0,0,0,0,0,0],"sum_hessian":[2.4434121E4,1.4988289E4,9.445832E3,9.6312036E2,1.4025169E4,3.4964832E3,5.949348E3,8.182441E2,1.4487628E2,4.1086642E2,1.3614302E4,3.4517612E3,4.4722015E1,4.114336E3,1.8350123E3,1.7752684E2,6.407172E2,9.406717E3,4.2075854E3,3.2152683E3,2.3649295E2,5.237849E0,3.9484165E1,1.537969E3,2.5763672E3,1.6770095E3,1.580028E2,1.757117E2,1.8151393E0,2.8713092E2,3.5358633E2,9.388908E3,1.7808496E1,1.4168175E3,2.7907678E3,3.3776516E1,2.0271643E2,1.8058218E0,3.4320276E0,3.4476157E2,1.1932074E3,1.5039064E3,1.0724607E3,5.583641E1,1.6211731E3,1.8755033E0,1.561273E2,4.0556385E1,2.4657452E2,1.765644E2,1.7702191E2,1.7581642E3,7.630744E3,1.1857621E1,5.9508743E0,1.1591185E3,2.5769897E2,1.7091995E1,3.2766956E2,3.7780026E2,8.1540717E2,2.5815947E1,1.4780905E3,1.0087213E3,6.3739372E1,1.0884314E0,5.474798E1,1.5650209E3,5.6152225E1],"tree_param":{"num_deleted":"0","num_feature":"17","num_nodes":"69","size_leaf_vector":"1"}},{"base_weights":[1.439871E-1,5.5576533E-1,-5.068056E-1,-5.480887E-1,6.372409E-1,-1.1370884E0,-1.4394994E-1,-6.843348E-1,1.0369914E-1,8.514503E-1,1.9159488E-1,-1.1635178E0,9.414893E-1,5.7342786E-1,-4.620898E-1,-1.9841452E-1,-8.1385076E-1,-1.1971444E-1,8.6809814E-1,-1.0717853E0,1.0392326E-1,-1.1654912E0,7.01611E-2,1.1770405E0,-5.544062E-1,-1.208666E0,1.0169047E0,-7.987434E-1,7.768779E-1,-1.7301932E-1,-1.0321561E-1,-9.324819E-1,-5.5677827E-2,5.7601744E-1,9.385486E-1,-1.4178326E0,-4.4579116E-1,-1.1483946E0,-1.2700639E0,1.2149086E0,1.8157749E-2,-9.008037E-2,3.476432E-2,-1.2385142E0,-2.2321042E-1,1.0279523E0,-4.347181E-1,-1.2217551E-1,-1.1791286E0,9.346582E-1,-1.3581907E0,-1.6470311E-2,-7.281064E-2,-1.1881919E-1,-9.066024E-2,-9.7133994E-2,1.0435889E-1,9.5084876E-2,-1.3020101E-1,-4.431572E-2,-2.465533E-1,-5.316434E-2,1.0373837E-1,-1.1537307E-1,-1.8691594E-2,-1.3626783E-1,-1.1608499E-1,1.2856483E-1,7.767003E-2,-1.4578839E-1,-1.2042004E-1,6.0610004E-2,-1.03389464E-1,1.0352806E-1,-1.0631187E-1,-1.2921332E-1,5.160085E-2,-1.2018796E-1,-2.6334545E-2,9.768318E-2,-9.27022E-2,-1.4607613E-1,3.437519E-2],"categories":[],"categories_nodes":[],"categories_segments":[],"categories_sizes":[],"default_left":[0,0,0,0,0,0,0,0,0,0,0,0,0,0,0,0,0,0,0,0,0,0,0,0,0,0,0,0,0,0,0,0,0,0,0,0,0,0,0,0,0,0,0,0,0,0,0,0,0,0,0,0,0,0,0,0,0,0,0,0,0,0,0,0,0,0,0,0,0,0,0,0,0,0,0,0,0,0,0,0,0,0,0],"id":17,"left_children":[1,3,5,7,9,11,13,15,-1,17,19,21,23,25,27,29,31,-1,33,35,-1,37,-1,39,41,43,45,47,49,51,-1,53,-1,55,57,59,61,63,65,67,-1,-1,-1,69,71,73,-1,75,77,79,81,-1,-1,-1,-1,-1,-1,-1,-1,-1,-1,-1,-1,-1,-1,-1,-1,-1,-1,-1,-1,-1,-1,-1,-1,-1,-1,-1,-1,-1,-1,-1,-1],"loss_changes":[6.1159824E3,1.2574751E3,2.0225791E3,2.0831866E2,1.2425088E3,1.7860791E2,1.2815674E3,5.5588226E1,0E0,3.0086426E2,4.5279463E3,1.2563477E1,1.5142727E1,1.3647446E3,1.6231068E3,3.7965112E0,2.0800934E1,0E0,1.7891357E2,3.6715796E2,0E0,4.241699E0,0E0,1.1307678E0,2.2736819E0,9.849152E0,8.6368164E1,7.8717554E2,2.8142465E2,7.266722E-1,0E0,2.0785522E0,0E0,1.2290422E3,1.9483301E2,1.1149863E3,7.7701485E1,1.3896484E1,2.854004E0,6.6532135E-2,0E0,0E0,0E0,7.5787354E-1,8.25064E0,2.2247803E1,0E0,8.235529E2,4.04812E1,6.1753784E1,1.05636215E1,0E0,0E0,0E0,0E0,0E0,0E0,0E0,0E0,0E0,0E0,0E0,0E0,0E0,0E0,0E0,0E0,0E0,0E0,0E0,0E0,0E0,0E0,0E0,0E0,0E0,0E0,0E0,0E0,0E0,0E0,0E0,0E0],"parents":[2147483647,0,0,1,1,2,2,3,3,4,4,5,5,6,6,7,7,9,9,10,10,11,11,12,12,13,13,14,14,15,15,16,16,18,18,19,19,21,21,23,23,24,24,25,25,26,26,27,27,28,28,29,29,31,31,33,33,34,34,35,35,36,36,37,37,38,38,39,39,43,43,44,44,45,45,47,47,48,48,49,49,50,50],"right_children":[2,4,6,8,10,12,14,16,-1,18,20,22,24,26,28,30,32,-1,34,36,-1,38,-1,40,42,44,46,48,50,52,-1,54,-1,56,58,60,62,64,66,68,-1,-1,-1,70,72,74,-1,76,78,80,82,-1,-1,-1,-1,-1,-1,-1,-1,-1,-1,-1,-1,-1,-1,-1,-1,-1,-1,-1,-1,-1,-1,-1,-1,-1,-1,-1,-1,-1,-1,-1,-1],"split_conditions":[6.1904764E-1,-4.4311777E-2,5.8809524E0,1.904762E-1,2.3973954E0,8.481638E0,1.0119047E1,0E0,1.0369914E-1,0E0,1E0,5.875E0,1.9397322E0,9.535296E0,6.0238094E1,1E0,-4.4314817E-2,-1.1971444E-1,1E0,1.28619175E1,1.0392326E-1,4.200223E0,7.01611E-2,-3.3651404E-2,2.325E0,1.361337E3,2E0,1.8452381E1,1E0,-4.4314817E-2,-1.0321561E-1,-4.432016E-2,-5.5677827E-2,4.8989794E-1,1E0,6.2171183E0,1.904762E-1,1E0,5.19837E2,1.7875E0,1.8157749E-2,-9.008037E-2,3.476432E-2,1.03125E0,7.3095236E0,1E0,-4.347181E-1,1.565E1,5.0785713E1,2.6110664E1,1.5625E1,-1.6470311E-2,-7.281064E-2,-1.1881919E-1,-9.066024E-2,-9.7133994E-2,1.0435889E-1,9.5084876E-2,-1.3020101E-1,-4.431572E-2,-2.465533E-1,-5.316434E-2,1.0373837E-1,-1.1537307E-1,-1.8691594E-2,-1.3626783E-1,-1.1608499E-1,1.2856483E-1,7.767003E-2,-1.4578839E-1,-1.2042004E-1,6.0610004E-2,-1.03389464E-1,1.0352806E-1,-1.0631187E-1,-1.2921332E-1,5.160085E-2,-1.2018796E-1,-2.6334545E-2,9.768318E-2,-9.27022E-2,-1.4607613E-1,3.437519E-2],"split_indices":[2,16,2,2,16,14,2,1,0,1,6,4,4,14,2,15,16,0,11,16,0,14,0,16,4,5,15,2,15,16,0,16,0,14,15,16,2,6,5,4,0,0,0,4,2,9,0,14,2,14,4,0,0,0,0,0,0,0,0,0,0,0,0,0,0,0,0,0,0,0,0,0,0,0,0,0,0,0,0,0,0,0,0],"split_type":[0,0,0,0,0,0,0,0,0,0,0,0,0,0,0,0,0,0,0,0,0,0,0,0,0,0,0,0,0,0,0,0,0,0,0,0,0,0,0,0,0,0,0,0,0,0,0,0,0,0,0,0,0,0,0,0,0,0,0,0,0,0,0,0,0,0,0,0,0,0,0,0,0,0,0,0,0,0,0,0,0,0,0],"sum_hessian":[2.282029E4,1.3976829E4,8.84346E3,9.6032623E2,1.3016503E4,3.2302898E3,5.61317E3,8.8483795E2,7.548829E1,8.790329E3,4.226174E3,3.1901667E3,4.0123184E1,1.7242758E3,3.8888943E3,1.8674321E2,6.980947E2,7.0286835E1,8.720042E3,1.6968307E3,2.529343E3,3.1871697E3,2.9971368E0,3.484886E1,5.2743235E0,3.4324283E2,1.3810328E3,3.0582568E3,8.306375E2,1.823951E2,4.34811E0,4.7586862E2,2.2222614E2,1.696344E3,7.023698E3,1.0919435E3,6.048872E2,2.7496138E3,4.3755576E2,3.33594E1,1.48946E0,3.8118927E0,1.4624305E0,3.3290283E2,1.034002E1,1.3790011E3,2.0317512E0,1.1011068E3,1.95715E3,7.7400146E2,5.663603E1,1.809804E2,1.4147011E0,3.9607147E1,4.3626147E2,3.933927E2,1.3029513E3,6.985923E3,3.7775387E1,5.664232E2,5.2552026E2,5.723961E2,3.249108E1,2.734239E3,1.5374787E1,2.3056076E2,2.06995E2,2.7057625E1,6.3017764E0,3.9417618E1,2.934852E2,5.2360387E0,5.103982E0,1.3746884E3,4.3128204E0,3.882742E2,7.128326E2,1.9094022E3,4.7747852E1,7.573208E2,1.6680649E1,5.3550426E1,3.0856025E0],"tree_param":{"num_deleted":"0","num_feature":"17","num_nodes":"83","size_leaf_vector":"1"}},{"base_weights":[1.411941E-1,4.4682536E-1,-1.1283712E0,-1.0683912E0,6.8130463E-1,-1.1561114E0,7.726813E-1,-2.7092865E-1,-1.136932E0,-2.4189661E-1,7.1813136E-1,-1.1840057E-1,-1.1428759E-1,8.3852075E-2,-9.89885E-2,-2.3516474E-2,-1.0541618E-1,-1.1407155E-1,-5.227906E-1,-7.5352097E-1,1.0529093E0,8.3277136E-1,4.2217255E-1,3.8402808E-1,-1.0844793E-1,1.0433703E-1,-9.872906E-1,1.0610216E-1,2.98356E-2,9.105124E-1,1.7135862E-1,-5.3818554E-1,1.0155412E0,-1.5999693E-2,8.083206E-2,-1.1050705E-1,-8.696722E-2,9.774271E-2,6.2813126E-2,-2.1975437E-1,6.2653475E-2,-1.4448832E-1,5.0603546E-2,3.9837293E-2,1.02744795E-1],"categories":[],"categories_nodes":[],"categories_segments":[],"categories_sizes":[],"default_left":[0,0,0,0,0,0,0,0,0,0,0,0,0,0,0,0,0,0,0,0,0,0,0,0,0,0,0,0,0,0,0,0,0,0,0,0,0,0,0,0,0,0,0,0,0],"id":18,"left_children":[1,3,5,7,9,11,13,15,17,19,21,-1,-1,-1,-1,-1,-1,-1,23,25,27,29,31,33,-1,-1,35,-1,-1,37,39,41,43,-1,-1,-1,-1,-1,-1,-1,-1,-1,-1,-1,-1],"loss_changes":[8.246749E3,6.086575E3,2.1836377E2,1.25184326E2,5.0452344E2,1.4746094E-1,7.782177E0,4.8789415E0,4.3154297E0,3.7825903E2,4.8366406E2,0E0,0E0,0E0,0E0,0E0,0E0,0E0,7.949175E0,1.7283452E2,6.738434E-1,5.2851416E2,2.2714014E3,1.6054767E0,0E0,0E0,4.059723E0,0E0,0E0,1.732251E2,1.168721E3,1.4422583E3,1.7693115E1,0E0,0E0,0E0,0E0,0E0,0E0,0E0,0E0,0E0,0E0,0E0,0E0],"parents":[2147483647,0,0,1,1,2,2,3,3,4,4,5,5,6,6,7,7,8,8,9,9,10,10,18,18,19,19,20,20,21,21,22,22,23,23,26,26,29,29,30,30,31,31,32,32],"right_children":[2,4,6,8,10,12,14,16,18,20,22,-1,-1,-1,-1,-1,-1,-1,24,26,28,30,32,34,-1,-1,36,-1,-1,38,40,42,44,-1,-1,-1,-1,-1,-1,-1,-1,-1,-1,-1,-1],"split_conditions":[5.7E1,-8.75E-1,2.03E2,-4.4314817E-2,-4.4311777E-2,4.7619048E-1,3.048E3,1E0,5.8809524E0,-3.75E-1,8.364618E-1,-1.1840057E-1,-1.1428759E-1,8.3852075E-2,-9.89885E-2,-2.3516474E-2,-1.0541618E-1,-1.1407155E-1,7.3095236E0,-4.431806E-2,1E0,1.2878788E1,1.28619175E1,1.4249032E3,-1.0844793E-1,1.0433703E-1,-4.4314817E-2,1.0610216E-1,2.98356E-2,6.25E-1,-4.4221435E-2,-3.75E-1,1.4328536E1,-1.5999693E-2,8.083206E-2,-1.1050705E-1,-8.696722E-2,9.774271E-2,6.2813126E-2,-2.1975437E-1,6.2653475E-2,-1.4448832E-1,5.0603546E-2,3.9837293E-2,1.02744795E-1],"split_indices":[0,12,13,16,16,2,0,15,2,12,16,0,0,0,0,0,0,0,2,16,6,3,16,5,0,0,16,0,0,12,16,12,16,0,0,0,0,0,0,0,0,0,0,0,0],"split_type":[0,0,0,0,0,0,0,0,0,0,0,0,0,0,0,0,0,0,0,0,0,0,0,0,0,0,0,0,0,0,0,0,0,0,0,0,0,0,0,0,0,0,0,0,0],"sum_hessian":[2.1251178E4,1.712839E4,4.122788E3,2.294924E3,1.4833466E4,4.0638796E3,5.8908318E1,1.8202637E2,2.1128977E3,5.687988E2,1.4264667E4,1.2792826E3,2.7845972E3,5.729246E1,1.6158583E0,1.7532112E2,6.7052507E0,2.0991086E3,1.3788861E1,4.08001E2,1.6079784E2,1.0280638E4,3.9840295E3,5.395076E0,8.393785E0,4.6570385E1,3.6143063E2,1.5868562E2,2.1122098E0,9.199027E3,1.0816106E3,1.5215375E3,2.4624922E3,2.6369302E0,2.7581456E0,1.7639665E2,1.8503397E2,7.4347773E3,1.7642498E3,1.7371365E2,9.078969E2,8.141912E2,7.0734625E2,4.7260796E1,2.4152314E3],"tree_param":{"num_deleted":"0","num_feature":"17","num_nodes":"45","size_leaf_vector":"1"}},{"base_weights":[1.3770248E-1,4.323453E-1,-1.1108558E0,-1.0492541E0,6.605055E-1,-1.1402502E-1,6.786364E-1,-4.6118714E-2,-1.1210765E0,7.4252117E-1,3.5016662E-1,8.05422E-1,-1.0380918E-1,-1.1244007E-1,-5.523399E-1,6.210489E-1,1.0252285E0,-9.78866E-1,7.401641E-1,-8.096524E-2,8.5274994E-2,1.783034E-2,-1.040402E-1,4.0591744E-1,9.521351E-1,1.0348659E0,-3.3902672E-1,-2.984677E-1,-1.301345E0,9.941351E-1,3.752453E-1,3.9889347E-2,1.1227768E-1,1.0098427E-1,-3.2896068E-2,1.0357481E-1,-1.6584707E-2,1.0018306E-1,-1.336183E-1,-1.2807344E-1,-2.761592E-1,1.0048354E-1,-1.5749753E-1,-1.6725484E-1,8.4887266E-2],"categories":[],"categories_nodes":[],"categories_segments":[],"categories_sizes":[],"default_left":[0,0,0,0,0,0,0,0,0,0,0,0,0,0,0,0,0,0,0,0,0,0,0,0,0,0,0,0,0,0,0,0,0,0,0,0,0,0,0,0,0,0,0,0,0],"id":19,"left_children":[1,3,5,7,9,-1,11,-1,13,15,17,19,-1,-1,21,23,25,27,29,-1,-1,-1,-1,31,33,35,-1,37,39,41,43,-1,-1,-1,-1,-1,-1,-1,-1,-1,-1,-1,-1,-1,-1],"loss_changes":[7.293577E3,5.4229946E3,1.9989062E2,8.990698E1,3.5354346E2,0E0,1.4287617E1,0E0,2.9846191E0,3.769043E2,1.5077699E3,5.1325912E0,0E0,0E0,4.838418E0,5.475134E2,1.4404443E2,1.4444049E2,2.080144E2,0E0,0E0,0E0,0E0,2.3038208E1,2.2425659E2,3.6638184E0,0E0,2.894845E2,9.93219E0,3.8012207E1,8.9789886E2,0E0,0E0,0E0,0E0,0E0,0E0,0E0,0E0,0E0,0E0,0E0,0E0,0E0,0E0],"parents":[2147483647,0,0,1,1,2,2,3,3,4,4,6,6,8,8,9,9,10,10,11,11,14,14,15,15,16,16,17,17,18,18,23,23,24,24,25,25,27,27,28,28,29,29,30,30],"right_children":[2,4,6,8,10,-1,12,-1,14,16,18,20,-1,-1,22,24,26,28,30,-1,-1,-1,-1,32,34,36,-1,38,40,42,44,-1,-1,-1,-1,-1,-1,-1,-1,-1,-1,-1,-1,-1,-1],"split_conditions":[5.7E1,-8.75E-1,1.5625E1,1E0,2.5454545E0,-1.1402502E-1,3.2938E4,-4.6118714E-2,5.8809524E0,1E0,1.84375E0,3.65E2,-1.0380918E-1,-1.1244007E-1,7.3095236E0,-2.5E-1,6.25E-1,1E0,1.2878788E1,-8.096524E-2,8.5274994E-2,1.783034E-2,-1.040402E-1,1E0,1E0,2E0,-3.3902672E-1,8.5E0,1.3299999E1,2E0,1.3363636E1,3.9889347E-2,1.1227768E-1,1.0098427E-1,-3.2896068E-2,1.0357481E-1,-1.6584707E-2,1.0018306E-1,-1.336183E-1,-1.2807344E-1,-2.761592E-1,1.0048354E-1,-1.5749753E-1,-1.6725484E-1,8.4887266E-2],"split_indices":[0,12,4,15,3,0,0,0,2,15,4,0,0,0,2,12,12,15,3,0,0,0,0,7,6,15,0,12,14,15,3,0,0,0,0,0,0,0,0,0,0,0,0,0,0],"split_type":[0,0,0,0,0,0,0,0,0,0,0,0,0,0,0,0,0,0,0,0,0,0,0,0,0,0,0,0,0,0,0,0,0,0,0,0,0,0,0,0,0,0,0,0,0],"sum_hessian":[1.982373E4,1.6039322E4,3.7844087E3,2.1398997E3,1.3899423E4,3.723607E3,6.080158E1,2.337149E2,1.9061848E3,1.0992861E4,2.9065613E3,5.711435E1,3.6872318E0,1.8941367E3,1.2048009E1,7.691301E3,3.3015605E3,6.590709E2,2.2474905E3,1.1674551E0,5.594689E1,5.079107E0,6.9689026E0,4.6633794E3,3.0279216E3,3.2951343E3,6.426391E0,2.125459E2,4.46525E2,1.3241813E3,9.233091E2,4.6196714E3,4.3708168E1,2.8976094E3,1.3031229E2,3.2928518E3,2.282391E0,9.435275E1,1.18193146E2,4.421612E2,4.3638053E0,1.3192953E3,4.885976E0,1.729602E2,7.503489E2],"tree_param":{"num_deleted":"0","num_feature":"17","num_nodes":"45","size_leaf_vector":"1"}},{"base_weights":[1.33042E-1,4.1758868E-1,-1.0960287E0,6.092888E-1,-8.851384E-1,-1.1252127E-1,6.393954E-1,-2.4016988E-1,6.584778E-1,-1.1054076E0,1.0272032E-1,7.5681335E-1,-1.044512E-1,1.03580356E-1,-5.0736153E-1,7.838305E-1,3.474347E-1,-1.1104071E-1,-3.7066022E-1,8.021571E-2,-7.081186E-2,-1.7286322E-1,-6.53035E-1,9.231209E-1,4.3503815E-1,-5.3589803E-1,9.9869823E-1,5.161612E-1,-1.02495365E-1,-1.5075879E-2,-9.4800815E-2,-8.39195E-2,-5.0186295E-2,-1.276234E-1,9.4710425E-2,-7.832584E-2,7.4564576E-2,1.05009815E-2,-1.7865668E-1,1.030213E-1,7.158315E-2,8.4645086E-4,8.138988E-2],"categories":[],"categories_nodes":[],"categories_segments":[],"categories_sizes":[],"default_left":[0,0,0,0,0,0,0,0,0,0,0,0,0,0,0,0,0,0,0,0,0,0,0,0,0,0,0,0,0,0,0,0,0,0,0,0,0,0,0,0,0,0,0],"id":20,"left_children":[1,3,5,7,9,-1,11,13,15,17,-1,19,-1,-1,21,23,25,-1,27,-1,-1,29,31,33,35,37,39,41,-1,-1,-1,-1,-1,-1,-1,-1,-1,-1,-1,-1,-1,-1,-1],"loss_changes":[6.45118E3,3.74109E3,1.7634961E2,5.457505E2,8.1063904E2,0E0,1.2256195E1,2.4444466E2,4.8098193E2,5.92041E0,0E0,4.2074184E0,0E0,0E0,2.8745865E1,4.2697363E2,2.0412136E3,0E0,8.1596985E0,0E0,0E0,2.9589524E0,1.1179398E1,3.3275E2,9.51278E2,1.2073945E3,1.746753E1,9.376168E-1,0E0,0E0,0E0,0E0,0E0,0E0,0E0,0E0,0E0,0E0,0E0,0E0,0E0,0E0,0E0],"parents":[2147483647,0,0,1,1,2,2,3,3,4,4,6,6,7,7,8,8,9,9,11,11,14,14,15,15,16,16,18,18,21,21,22,22,23,23,24,24,25,25,26,26,27,27],"right_children":[2,4,6,8,10,-1,12,14,16,18,-1,20,-1,-1,22,24,26,-1,28,-1,-1,30,32,34,36,38,40,42,-1,-1,-1,-1,-1,-1,-1,-1,-1,-1,-1,-1,-1,-1,-1],"split_conditions":[5.7E1,1.1E1,1.5625E1,-4.4311777E-2,1.8452381E1,-1.1252127E-1,1.01E2,-4.431806E-2,8.364618E-1,3.121212E0,1.0272032E-1,3.2938E4,-1.044512E-1,1.03580356E-1,-5.9E1,1.8333334E0,1.28619175E1,-1.1104071E-1,7.3095236E0,8.021571E-2,-7.081186E-2,1E0,-4.4314817E-2,-2.7E1,2.0625E0,6.2171183E0,-5.7E1,1.4249032E3,-1.02495365E-1,-1.5075879E-2,-9.4800815E-2,-8.39195E-2,-5.0186295E-2,-1.276234E-1,9.4710425E-2,-7.832584E-2,7.4564576E-2,1.05009815E-2,-1.7865668E-1,1.030213E-1,7.158315E-2,8.4645086E-4,8.138988E-2],"split_indices":[0,1,4,16,2,0,2,16,16,3,0,0,0,0,0,2,16,0,2,0,0,15,16,0,4,16,0,5,0,0,0,0,0,0,0,0,0,0,0,0,0,0,0],"split_type":[0,0,0,0,0,0,0,0,0,0,0,0,0,0,0,0,0,0,0,0,0,0,0,0,0,0,0,0,0,0,0,0,0,0,0,0,0,0,0,0,0,0,0],"sum_hessian":[1.8443969E4,1.4977202E4,3.466767E3,1.305644E4,1.9207616E3,3.4097778E3,5.6989273E1,7.144534E2,1.2341987E4,1.7227518E3,1.9800975E2,5.3789146E1,3.2001274E0,1.232061E2,5.912473E2,8.795724E3,3.546264E3,1.7106011E3,1.2150832E1,5.2613052E1,1.1760917E0,1.8003473E2,4.1121262E2,6.2843994E3,2.511324E3,1.5050654E3,2.0411985E3,5.24837E0,6.902462E0,1.7620448E2,3.8302455E0,1.8224127E2,2.2897133E2,6.722696E1,6.2171724E3,5.098839E2,2.00144E3,9.9572174E2,5.0934366E2,1.8342039E3,2.0699466E2,2.3202875E0,2.928083E0],"tree_param":{"num_deleted":"0","num_feature":"17","num_nodes":"43","size_leaf_vector":"1"}},{"base_weights":[1.3303244E-1,4.0845904E-1,-1.0835692E0,-1.0019449E0,6.174983E-1,-1.1118902E-1,6.152146E-1,-1.0352739E-1,-1.0981107E0,-2.2771713E-1,6.5615064E-1,7.345842E-2,-9.8615535E-2,-7.4568423E-3,-9.481567E-2,-1.1016419E-1,-5.518094E-1,-6.347998E-1,1.0454439E-1,7.8730094E-1,3.3900058E-1,1.3537122E-1,-1.005279E-1,1.04092315E-1,-8.1252366E-1,8.7379193E-1,1.0362421E-1,-4.26021E-1,1.0132259E0,-5.1377065E-2,7.63312E-2,-8.730927E-2,-7.4946485E-2,6.237316E-2,9.6539944E-2,-4.1145453E-1,3.3360645E-2,-1.0287763E-1,4.7942556E-2,8.426177E-2,1.0276625E-1],"categories":[],"categories_nodes":[],"categories_segments":[],"categories_sizes":[],"default_left":[0,0,0,0,0,0,0,0,0,0,0,0,0,0,0,0,0,0,0,0,0,0,0,0,0,0,0,0,0,0,0,0,0,0,0,0,0,0,0,0,0],"id":21,"left_children":[1,3,5,7,9,-1,11,13,15,17,19,-1,-1,-1,-1,-1,21,23,-1,25,27,29,-1,-1,31,33,35,37,39,-1,-1,-1,-1,-1,-1,-1,-1,-1,-1,-1,-1],"loss_changes":[5.7565767E3,4.130541E3,1.532622E2,1.561372E2,3.9872754E2,0E0,1.0788237E1,4.2334366E0,2.543335E0,2.7756735E2,4.8501514E2,0E0,0E0,0E0,0E0,0E0,4.0296607E0,1.2159622E2,0E0,4.879292E2,1.7618496E3,2.7762194E0,0E0,0E0,7.479248E-1,1.6722021E2,9.01598E2,8.7396387E2,3.6055908E0,0E0,0E0,0E0,0E0,0E0,0E0,0E0,0E0,0E0,0E0,0E0,0E0],"parents":[2147483647,0,0,1,1,2,2,3,3,4,4,6,6,7,7,8,8,9,9,10,10,16,16,17,17,19,19,20,20,21,21,24,24,25,25,26,26,27,27,28,28],"right_children":[2,4,6,8,10,-1,12,14,16,18,20,-1,-1,-1,-1,-1,22,24,-1,26,28,30,-1,-1,32,34,36,38,40,-1,-1,-1,-1,-1,-1,-1,-1,-1,-1,-1,-1],"split_conditions":[5.7E1,-8.75E-1,1.5625E1,-4.4314817E-2,-4.4311777E-2,-1.1118902E-1,3.2938E4,1E0,3.121212E0,-3.75E-1,8.364618E-1,7.345842E-2,-9.8615535E-2,-7.4568423E-3,-9.481567E-2,-1.1016419E-1,9.272727E0,-4.431806E-2,1.0454439E-1,1.2878788E1,1.4328536E1,1.4249032E3,-1.005279E-1,1.04092315E-1,-4.4314817E-2,-4.4031523E-2,6.25E-1,-3.75E-1,1E0,-5.1377065E-2,7.63312E-2,-8.730927E-2,-7.4946485E-2,6.237316E-2,9.6539944E-2,-4.1145453E-1,3.3360645E-2,-1.0287763E-1,4.7942556E-2,8.426177E-2,1.0276625E-1],"split_indices":[0,12,4,16,16,0,0,15,3,12,16,0,0,0,0,0,3,16,0,3,16,5,0,0,16,16,12,12,15,0,0,0,0,0,0,0,0,0,0,0,0],"split_type":[0,0,0,0,0,0,0,0,0,0,0,0,0,0,0,0,0,0,0,0,0,0,0,0,0,0,0,0,0,0,0,0,0,0,0,0,0,0,0,0,0],"sum_hessian":[1.717716E4,1.4006818E4,3.1703416E3,1.8075236E3,1.2199295E4,3.1186938E3,5.1647507E1,1.7496936E2,1.6325542E3,5.3327246E2,1.1666022E4,4.8568394E1,3.0791137E0,1.7022144E2,4.7479277E0,1.6210594E3,1.1494804E1,4.0445328E2,1.2881918E2,8.252078E3,3.4139443E3,4.8486753E0,6.6461296E0,3.8316612E1,3.661367E2,7.3251104E3,9.269677E2,1.5994587E3,1.8144857E3,2.4734898E0,2.3751853E0,1.8020305E2,1.8593362E2,1.9660923E3,5.359018E3,4.7053596E1,8.7991406E2,9.601507E2,6.39308E2,1.461916E2,1.6682941E3],"tree_param":{"num_deleted":"0","num_feature":"17","num_nodes":"41","size_leaf_vector":"1"}},{"base_weights":[1.2450288E-1,3.8728872E-1,-1.070376E0,-9.8890555E-1,5.8671224E-1,-1.0988821E0,8.0675673E-1,-1.6150218E-1,-1.0856007E0,-2.3392726E-1,6.26111E-1,-1.10031776E-1,-2.3602986E-1,8.683365E-2,-7.598173E-2,-1.5193774E-2,-7.0454046E-2,-1.0907071E-1,-3.631364E-1,-6.0314023E-1,1.0373064E0,7.5762814E-1,3.1993756E-1,4.22008E-2,-9.029474E-2,3.7683558E-1,-9.748559E-2,1.00556664E-1,-7.6029307E-1,1.0429986E-1,3.645277E-2,9.2473847E-1,4.0154254E-1,1.0299617E-1,-3.6260718E-1,3.2662866E-3,7.217931E-2,-8.084864E-2,-7.120337E-2,9.3471244E-2,-4.0293813E-1,-7.375979E-2,6.983781E-2,-8.5015945E-2,4.4790912E-2],"categories":[],"categories_nodes":[],"categories_segments":[],"categories_sizes":[],"default_left":[0,0,0,0,0,0,0,0,0,0,0,0,0,0,0,0,0,0,0,0,0,0,0,0,0,0,0,0,0,0,0,0,0,0,0,0,0,0,0,0,0,0,0,0,0],"id":22,"left_children":[1,3,5,7,9,11,13,15,17,19,21,-1,23,-1,-1,-1,-1,-1,25,27,29,31,33,-1,-1,35,-1,-1,37,-1,-1,39,41,-1,43,-1,-1,-1,-1,-1,-1,-1,-1,-1,-1],"loss_changes":[5.0542505E3,3.6216914E3,1.5616528E2,1.3346265E2,3.727732E2,3.2817383E0,4.902998E0,8.068447E-1,5.1206055E0,2.487698E2,4.4258398E2,0E0,3.0238223E0,0E0,0E0,0E0,0E0,0E0,5.796563E0,1.0450154E2,7.688904E-2,4.5734863E2,1.6026243E3,0E0,0E0,7.064941E-1,0E0,0E0,2.950592E-1,0E0,0E0,2.6241064E2,8.3187134E2,0E0,6.668132E2,0E0,0E0,0E0,0E0,0E0,0E0,0E0,0E0,0E0,0E0],"parents":[2147483647,0,0,1,1,2,2,3,3,4,4,5,5,6,6,7,7,8,8,9,9,10,10,12,12,18,18,19,19,20,20,21,21,22,22,25,25,28,28,31,31,32,32,34,34],"right_children":[2,4,6,8,10,12,14,16,18,20,22,-1,24,-1,-1,-1,-1,-1,26,28,30,32,34,-1,-1,36,-1,-1,38,-1,-1,40,42,-1,44,-1,-1,-1,-1,-1,-1,-1,-1,-1,-1],"split_conditions":[5.7E1,-8.75E-1,3E2,-4.4314817E-2,-4.4311777E-2,1.5625E1,3.048E3,-5.9E1,5.8809524E0,-3.75E-1,8.364618E-1,-1.10031776E-1,1.01E2,8.683365E-2,-7.598173E-2,-1.5193774E-2,-7.0454046E-2,-1.0907071E-1,7.3095236E0,-4.431806E-2,1E0,1.8333334E0,-5.7E1,4.22008E-2,-9.029474E-2,1.4249032E3,-9.748559E-2,1.00556664E-1,-4.4314817E-2,1.0429986E-1,3.645277E-2,2E0,1.153879E-1,1.0299617E-1,-3.75E-1,3.2662866E-3,7.217931E-2,-8.084864E-2,-7.120337E-2,9.3471244E-2,-4.0293813E-1,-7.375979E-2,6.983781E-2,-8.5015945E-2,4.4790912E-2],"split_indices":[0,12,13,16,16,4,0,0,2,12,16,0,2,0,0,0,0,0,2,16,6,2,0,0,0,5,0,0,16,0,0,12,5,0,12,0,0,0,0,0,0,0,0,0,0],"split_type":[0,0,0,0,0,0,0,0,0,0,0,0,0,0,0,0,0,0,0,0,0,0,0,0,0,0,0,0,0,0,0,0,0,0,0,0,0,0,0,0,0,0,0,0,0],"sum_hessian":[1.6094161E4,1.3193282E4,2.9008796E3,1.6693522E3,1.152393E4,2.8578943E3,4.2985226E1,1.74956E2,1.4943962E3,5.2769073E2,1.0996239E4,2.8528723E3,5.0219407E0,4.1788296E1,1.1969264E0,1.7318549E2,1.7704962E0,1.4834021E3,1.0994123E1,4.093314E2,1.1835934E2,7.6910605E3,3.3051782E3,2.7126422E0,2.3092985E0,5.1492543E0,5.8448696E0,3.5948017E1,3.7338336E2,1.1682067E2,1.5386692E0,5.233426E3,2.4576348E3,1.6197292E3,1.6854489E3,3.1255257E0,2.0237284E0,1.789375E2,1.9444586E2,5.2237207E3,9.705398E0,5.0771918E2,1.9499156E3,1.0523667E3,6.3308215E2],"tree_param":{"num_deleted":"0","num_feature":"17","num_nodes":"45","size_leaf_vector":"1"}},{"base_weights":[1.290852E-1,3.8153982E-1,-1.0603225E0,-9.665832E-1,5.72805E-1,-1.0898178E-1,6.0797787E-1,-1.1755817E-1,-1.0759933E0,2.450144E-1,6.6845053E-1,7.333939E-1,-9.062347E-2,-8.685297E-3,-9.515422E-2,-1.0817812E-1,-3.2620335E-1,5.9353197E-1,-3.1159464E-1,8.8861144E-1,3.1147203E-1,7.5380784E-1,3.8645826E-2,3.9432403E-1,-9.5825024E-2,-1.9944188E-1,9.9672973E-1,-1.8624874E0,3.7323838E-1,9.35573E-1,2.0282827E-1,-3.3456865E-1,9.8757106E-1,5.4209974E-2,8.1898816E-2,8.422967E-3,7.1116015E-2,-5.2292194E-2,1.037091E-1,1.01209916E-1,-4.8340628E-1,-4.6850106E-1,-1.3189559E-1,-3.4259003E-2,9.041991E-2,9.3975395E-2,-1.6877513E-1,9.835405E-2,-3.189749E-1,1.4245808E-2,-1.15267746E-1,3.6569256E-2,1.0056535E-1],"categories":[],"categories_nodes":[],"categories_segments":[],"categories_sizes":[],"default_left":[0,0,0,0,0,0,0,0,0,0,0,0,0,0,0,0,0,0,0,0,0,0,0,0,0,0,0,0,0,0,0,0,0,0,0,0,0,0,0,0,0,0,0,0,0,0,0,0,0,0,0,0,0],"id":23,"left_children":[1,3,5,7,9,-1,11,13,15,17,19,21,-1,-1,-1,-1,23,25,27,29,31,33,-1,35,-1,37,39,41,43,45,47,49,51,-1,-1,-1,-1,-1,-1,-1,-1,-1,-1,-1,-1,-1,-1,-1,-1,-1,-1,-1,-1],"loss_changes":[4.5169707E3,3.200129E3,1.3026782E2,1.4312439E2,3.405542E2,0E0,9.476206E0,4.4541044E0,5.574829E0,4.7668686E2,6.6086475E2,1.6080856E-2,0E0,0E0,0E0,0E0,5.794981E0,4.8326483E2,1.00594147E3,1.6736475E2,1.40266E3,1.07154846E-1,0E0,5.558219E-1,0E0,2.0458328E2,9.4667114E1,4.388459E2,2.5016663E2,5.4989746E1,8.8967737E2,6.4117316E2,1.7276001E1,0E0,0E0,0E0,0E0,0E0,0E0,0E0,0E0,0E0,0E0,0E0,0E0,0E0,0E0,0E0,0E0,0E0,0E0,0E0,0E0],"parents":[2147483647,0,0,1,1,2,2,3,3,4,4,6,6,7,7,8,8,9,9,10,10,11,11,16,16,17,17,18,18,19,19,20,20,21,21,23,23,25,25,26,26,27,27,28,28,29,29,30,30,31,31,32,32],"right_children":[2,4,6,8,10,-1,12,14,16,18,20,22,-1,-1,-1,-1,24,26,28,30,32,34,-1,36,-1,38,40,42,44,46,48,50,52,-1,-1,-1,-1,-1,-1,-1,-1,-1,-1,-1,-1,-1,-1,-1,-1,-1,-1,-1,-1],"split_conditions":[5.7E1,-8.75E-1,1.5625E1,-4.4314817E-2,-4.407842E-2,-1.0898178E-1,3.2938E4,1E0,5.8809524E0,2.5E-1,8.364618E-1,5.7777297E-2,-9.062347E-2,-8.685297E-3,-9.515422E-2,-1.0817812E-1,7.3095236E0,-4.4311777E-2,1.1875E0,4.40625E0,1.28619175E1,5.2614793E-2,3.8645826E-2,1.4249032E3,-9.5825024E-2,-3.75E-1,2.3444828E-4,2.3444828E-4,-4.4221435E-2,2E0,-4.298554E-2,6.2171183E0,1.4328536E1,5.4209974E-2,8.1898816E-2,8.422967E-3,7.1116015E-2,-5.2292194E-2,1.037091E-1,1.01209916E-1,-4.8340628E-1,-4.6850106E-1,-1.3189559E-1,-3.4259003E-2,9.041991E-2,9.3975395E-2,-1.6877513E-1,9.835405E-2,-3.189749E-1,1.4245808E-2,-1.15267746E-1,3.6569256E-2,1.0056535E-1],"split_indices":[0,12,4,16,16,0,0,15,2,12,16,5,0,0,0,0,2,16,4,4,16,5,0,5,0,12,5,5,16,15,16,16,16,0,0,0,0,0,0,0,0,0,0,0,0,0,0,0,0,0,0,0,0],"split_type":[0,0,0,0,0,0,0,0,0,0,0,0,0,0,0,0,0,0,0,0,0,0,0,0,0,0,0,0,0,0,0,0,0,0,0,0,0,0,0,0,0,0,0,0,0,0,0,0,0,0,0,0,0],"sum_hessian":[1.5040609E4,1.2407721E4,2.6328892E3,1.5411248E3,1.0866596E4,2.5874897E3,4.539955E1,1.7616385E2,1.3649609E3,2.455347E3,8.411249E3,4.2403133E1,2.9964185E0,1.7097319E2,5.1906614E0,1.3540658E3,1.0895117E1,1.5098787E3,9.4546826E2,5.201696E3,3.2095532E3,3.8939163E1,3.4639707E0,5.266955E0,5.6281624E0,5.091104E2,1.00076825E3,2.8908298E2,6.563853E2,4.867979E3,3.3371692E2,1.641519E3,1.5680342E3,1.1359611E1,2.7579552E1,3.3015256E0,1.9654291E0,4.040001E2,1.0511032E2,9.989615E2,1.8067521E0,4.5449127E1,2.4363383E2,2.7968097E2,3.7670435E2,4.8608735E3,7.1054E0,2.7186456E2,6.1852367E1,1.0374333E3,6.040857E2,4.490535E1,1.5231289E3],"tree_param":{"num_deleted":"0","num_feature":"17","num_nodes":"53","size_leaf_vector":"1"}},{"base_weights":[1.20924026E-1,3.636162E-1,-1.0502131E0,4.9783558E-1,-1.0546637E0,-1.0805247E-1,6.0790735E-1,6.036512E-1,1.6937359E-1,-1.0697428E-1,5.9316736E-2,7.168521E-2,-8.518902E-2,4.641474E-1,9.900788E-1,-1.0337265E0,5.218401E-1,6.19388E-1,-8.9349605E-2,-3.7858576E-1,5.156413E-1,9.996701E-1,-8.35719E-1,-1.1530017E0,1.1128078E-1,8.6319876E-1,3.242255E-2,3.4040518E-2,8.404345E-2,-2.6758507E-2,-1.149856E-1,5.1169883E-2,9.646627E-2,1.00424185E-1,-1.9799678E-1,-1.149251E-1,5.5009216E-2,-1.01972125E-1,-1.2194202E-1,-1.3940668E-1,9.138262E-2,-1.3438027E-1,6.316958E-2],"categories":[],"categories_nodes":[],"categories_segments":[],"categories_sizes":[],"default_left":[0,0,0,0,0,0,0,0,0,0,0,0,0,0,0,0,0,0,0,0,0,0,0,0,0,0,0,0,0,0,0,0,0,0,0,0,0,0,0,0,0,0,0],"id":24,"left_children":[1,3,5,7,9,-1,11,13,15,-1,17,-1,-1,19,21,23,25,27,-1,29,31,33,35,37,-1,39,41,-1,-1,-1,-1,-1,-1,-1,-1,-1,-1,-1,-1,-1,-1,-1,-1],"loss_changes":[3.998606E3,2.2188193E3,1.2203296E2,3.699265E2,1.69917E1,0E0,7.607418E0,4.3360156E2,1.1011533E3,0E0,8.241494E0,0E0,0E0,2.5700977E2,3.8221436E1,1.5193695E2,3.354491E2,3.0987096E-1,0E0,2.8916897E1,9.379883E0,3.0923828E1,5.7162733E0,3.6956177E0,0E0,1.3645691E2,6.8218304E2,0E0,0E0,0E0,0E0,0E0,0E0,0E0,0E0,0E0,0E0,0E0,0E0,0E0,0E0,0E0,0E0],"parents":[2147483647,0,0,1,1,2,2,3,3,4,4,6,6,7,7,8,8,10,10,13,13,14,14,15,15,16,16,17,17,19,19,20,20,21,21,22,22,23,23,25,25,26,26],"right_children":[2,4,6,8,10,-1,12,14,16,-1,18,-1,-1,20,22,24,26,28,-1,30,32,34,36,38,-1,40,42,-1,-1,-1,-1,-1,-1,-1,-1,-1,-1,-1,-1,-1,-1,-1,-1],"split_conditions":[5.7E1,3.3E1,1.5625E1,6.666667E-1,3.121212E0,-1.0805247E-1,3.2938E4,1E0,5.8809524E0,-1.0697428E-1,7.3095236E0,7.168521E-2,-8.518902E-2,1E0,1E0,6.242424E0,1.2878788E1,0E0,-8.9349605E-2,1E0,1E0,2E0,2E0,2.3095238E0,1.1128078E-1,1E0,1.3363636E1,3.4040518E-2,8.404345E-2,-2.6758507E-2,-1.149856E-1,5.1169883E-2,9.646627E-2,1.00424185E-1,-1.9799678E-1,-1.149251E-1,5.5009216E-2,-1.01972125E-1,-1.2194202E-1,-1.3940668E-1,9.138262E-2,-1.3438027E-1,6.316958E-2],"split_indices":[0,13,4,3,3,0,0,15,2,0,2,0,0,11,7,3,3,0,0,10,7,15,15,2,0,4,3,0,0,0,0,0,0,0,0,0,0,0,0,0,0,0,0],"split_type":[0,0,0,0,0,0,0,0,0,0,0,0,0,0,0,0,0,0,0,0,0,0,0,0,0,0,0,0,0,0,0,0,0,0,0,0,0,0,0,0,0,0,0],"sum_hessian":[1.4066067E4,1.1652114E4,2.4139526E3,1.0645339E4,1.00677606E3,2.3709583E3,4.299437E1,8.050872E3,2.5944666E3,9.933693E2,1.3406772E1,4.048213E1,2.5122437E0,5.9169873E3,2.133885E3,5.8742664E2,2.0070398E3,8.66396E0,4.7428107E0,3.4036273E2,5.5766245E3,2.1231838E3,1.0701094E1,5.569422E2,3.0484432E1,1.1819148E3,8.25125E2,4.952889E0,3.7110715E0,2.9871832E2,4.1644398E1,5.530209E3,4.6415707E1,2.120593E3,2.5907013E0,8.865929E0,1.835165E0,1.906743E2,3.662679E2,2.5345139E1,1.1565696E3,2.4992722E2,5.751978E2],"tree_param":{"num_deleted":"0","num_feature":"17","num_nodes":"43","size_leaf_vector":"1"}},{"base_weights":[1.22463405E-1,3.570817E-1,-1.0436133E0,-9.3167406E-1,5.322802E-1,-1.0722827E-1,5.294138E-1,-2.5826422E-2,-1.0586094E0,1.0130751E0,4.6115038E-1,6.4124025E-2,-9.1132864E-2,-1.06660716E-1,-4.553255E-1,1.02346115E-1,-1.5437136E0,2.6198834E-1,6.1197835E-1,-9.394809E-2,8.008393E-2,-1.759113E-1,-3.6310367E-2,2.5097883E-1,1.0887326E-1,9.15673E-1,2.2700246E-1,6.437038E-2,-8.127863E-2,2.5328709E-2,-2.2080319E-1,1.02346E-1,7.549106E-2,-8.385158E-2,6.5454915E-2],"categories":[],"categories_nodes":[],"categories_segments":[],"categories_sizes":[],"default_left":[0,0,0,0,0,0,0,0,0,0,0,0,0,0,0,0,0,0,0,0,0,0,0,0,0,0,0,0,0,0,0,0,0,0,0],"id":25,"left_children":[1,3,5,7,9,-1,11,-1,13,15,17,-1,-1,-1,19,-1,21,23,25,-1,27,-1,-1,29,-1,31,33,-1,-1,-1,-1,-1,-1,-1,-1],"loss_changes":[3.601713E3,2.4750059E3,1.0001636E2,1.11869995E2,3.2950073E2,0E0,7.0515976E0,0E0,4.838623E0,3.457788E1,2.5237537E2,0E0,0E0,0E0,4.2702045E0,0E0,7.4109745E-1,3.2718857E1,5.5901953E2,0E0,4.854155E0,0E0,0E0,2.0870056E1,0E0,4.5554688E1,9.6207587E2,0E0,0E0,0E0,0E0,0E0,0E0,0E0,0E0],"parents":[2147483647,0,0,1,1,2,2,3,3,4,4,6,6,8,8,9,9,10,10,14,14,16,16,17,17,18,18,20,20,23,23,25,25,26,26],"right_children":[2,4,6,8,10,-1,12,-1,14,16,18,-1,-1,-1,20,-1,22,24,26,-1,28,-1,-1,30,-1,32,34,-1,-1,-1,-1,-1,-1,-1,-1],"split_conditions":[5.7E1,-8.75E-1,1.5625E1,1E0,-5.7E1,-1.0722827E-1,1.01E2,-2.5826422E-2,1.361337E3,-3.75E-1,-2.5E-1,6.4124025E-2,-9.1132864E-2,-1.06660716E-1,-1.3E1,1.02346115E-1,1.4214286E1,1E0,4.200223E0,-9.394809E-2,7.3095236E0,-1.759113E-1,-3.6310367E-2,1E0,1.0887326E-1,2.5E-1,2.0625E0,6.437038E-2,-8.127863E-2,2.5328709E-2,-2.2080319E-1,1.02346E-1,7.549106E-2,-8.385158E-2,6.5454915E-2],"split_indices":[0,12,4,15,0,0,2,0,5,12,12,0,0,0,0,0,2,7,14,0,2,0,0,6,0,12,4,0,0,0,0,0,0,0,0],"split_type":[0,0,0,0,0,0,0,0,0,0,0,0,0,0,0,0,0,0,0,0,0,0,0,0,0,0,0,0,0,0,0,0,0,0,0],"sum_hessian":[1.3162614E4,1.0958437E4,2.204178E3,1.3109323E3,9.647504E3,2.1650374E3,3.9140835E1,2.083961E2,1.1025361E3,1.2416246E3,8.405879E3,3.68366E1,2.3042324E0,1.0873533E3,1.5182953E1,1.2371986E3,4.42597E0,3.623688E3,4.7821914E3,7.5767865E0,7.606167E0,3.3286605E0,1.0973097E0,3.577353E3,4.6335052E1,2.672537E3,2.1096543E3,4.833872E0,2.772295E0,3.5748943E3,2.4587255E0,1.5966555E3,1.0758816E3,6.0383484E2,1.5058193E3],"tree_param":{"num_deleted":"0","num_feature":"17","num_nodes":"35","size_leaf_vector":"1"}},{"base_weights":[1.1093648E-1,3.3374768E-1,-1.0368525E0,-9.122143E-1,4.9881503E-1,-1.063161E0,5.670841E-1,-6.762026E-2,-1.0532627E0,6.3599116E-1,1.6985746E-1,-1.06482975E-1,-2.5343463E-1,6.675206E-1,3.2299723E-2,-6.016282E-3,-6.0221877E-2,-1.0600233E-1,-2.3217638E-1,2.0462288E-1,8.53378E-1,1.0215562E-1,-4.349702E-1,-9.993899E-2,1.8370105E-1,4.385302E-2,7.951511E-2,5.6582445E-1,-9.0441056E-2,5.293313E-1,-3.0605748E-1,9.045624E-1,1.4315473E-1,-8.637413E-1,4.1922143E-1,8.236709E-2,-6.540457E-2,8.830928E-2,8.5451605E-4,-2.7265495E-2,9.848468E-2,-1.6623823E-1,3.0762656E-2,-1.6235304E-1,9.0905696E-2,9.5304094E-2,-2.472813E-1,-1.14534E-1,6.664928E-2,1.04957364E-1,-1.1056977E-1],"categories":[],"categories_nodes":[],"categories_segments":[],"categories_sizes":[],"default_left":[0,0,0,0,0,0,0,0,0,0,0,0,0,0,0,0,0,0,0,0,0,0,0,0,0,0,0,0,0,0,0,0,0,0,0,0,0,0,0,0,0,0,0,0,0,0,0,0,0,0,0],"id":26,"left_children":[1,3,5,7,9,11,13,15,17,19,21,-1,23,25,-1,-1,-1,-1,27,29,31,-1,33,-1,35,-1,-1,37,-1,39,41,43,45,47,49,-1,-1,-1,-1,-1,-1,-1,-1,-1,-1,-1,-1,-1,-1,-1,-1],"loss_changes":[3.159168E3,2.1279817E3,8.534277E1,1.4413281E2,4.121101E2,2.4001465E0,5.94862E-1,6.586312E-1,5.5112305E0,6.04323E2,1.38597E3,0E0,1.9368078E0,3.0844116E-1,0E0,0E0,0E0,0E0,5.7424164E0,3.585661E2,1.5567554E2,0E0,5.766493E2,0E0,2.809103E0,0E0,0E0,8.8947284E-1,0E0,4.8308395E2,7.003069E2,4.6900146E1,6.152897E2,4.5233154E2,5.0728278E2,0E0,0E0,0E0,0E0,0E0,0E0,0E0,0E0,0E0,0E0,0E0,0E0,0E0,0E0,0E0,0E0],"parents":[2147483647,0,0,1,1,2,2,3,3,4,4,5,5,6,6,7,7,8,8,9,9,10,10,12,12,13,13,18,18,19,19,20,20,22,22,24,24,27,27,29,29,30,30,31,31,32,32,33,33,34,34],"right_children":[2,4,6,8,10,12,14,16,18,20,22,-1,24,26,-1,-1,-1,-1,28,30,32,-1,34,-1,36,-1,-1,38,-1,40,42,44,46,48,50,-1,-1,-1,-1,-1,-1,-1,-1,-1,-1,-1,-1,-1,-1,-1,-1],"split_conditions":[5.7E1,-8.75E-1,5E2,-4.4314817E-2,8.967538E-1,1.5625E1,5.2614905E-2,-5.9E1,5.8809524E0,-4.407842E-2,-5.7E1,-1.06482975E-1,2.8212E4,5.2614793E-2,3.2299723E-2,-6.016282E-3,-6.0221877E-2,-1.0600233E-1,7.3095236E0,2.5E-1,4.40625E0,1.0215562E-1,-3.75E-1,-9.993899E-2,3.2938E4,4.385302E-2,7.951511E-2,4.1728368E-1,-9.0441056E-2,-4.4311777E-2,1.1875E0,-1.3E1,-4.298554E-2,1.28619175E1,1E0,8.236709E-2,-6.540457E-2,8.830928E-2,8.5451605E-4,-2.7265495E-2,9.848468E-2,-1.6623823E-1,3.0762656E-2,-1.6235304E-1,9.0905696E-2,9.5304094E-2,-2.472813E-1,-1.14534E-1,6.664928E-2,1.04957364E-1,-1.1056977E-1],"split_indices":[0,12,13,16,16,4,5,0,2,16,0,0,0,5,0,0,0,0,2,12,4,0,12,0,0,0,0,16,0,16,4,0,16,16,3,0,0,0,0,0,0,0,0,0,0,0,0,0,0,0,0],"split_type":[0,0,0,0,0,0,0,0,0,0,0,0,0,0,0,0,0,0,0,0,0,0,0,0,0,0,0,0,0,0,0,0,0,0,0,0,0,0,0,0,0,0,0,0,0,0,0,0,0,0,0],"sum_hessian":[1.2350681E4,1.0343489E4,2.0071908E3,1.2094894E3,9.134E3,1.975131E3,3.2059834E1,1.7329337E2,1.036196E3,6.445343E3,2.6886572E3,1.9707544E3,4.3765917E0,2.1484612E1,1.0575222E1,1.7200647E2,1.2868875E0,1.0274454E3,8.750664E0,2.1603755E3,4.2849673E3,1.1161882E3,1.572469E3,1.1418481E0,3.2347436E0,9.276663E0,1.2207949E1,4.0734334E0,4.67723E0,1.3206338E3,8.397417E2,3.9966619E3,2.8830545E2,1.0469364E3,5.2553265E2,1.8433656E0,1.3913782E0,2.2231226E0,1.8503109E0,4.785297E2,8.4210406E2,2.6105838E2,5.786833E2,6.453577E0,3.9902083E3,2.2063425E2,6.767122E1,8.844319E2,1.6250449E2,3.7205066E2,1.5348201E2],"tree_param":{"num_deleted":"0","num_feature":"17","num_nodes":"51","size_leaf_vector":"1"}},{"base_weights":[1.0837584E-1,3.2202536E-1,-1.0260355E0,4.5498946E-1,-8.2411164E-1,-1.0582323E-1,5.4445714E-1,3.8188186E-1,9.8619163E-1,9.622449E-1,-1.0443423E0,6.6439784E-1,-8.514316E-2,5.143357E-1,-1.0392498E0,7.450129E-1,1.0140347E-1,-1.385162E-1,1.0083101E-1,-1.0523196E-1,-4.551201E-1,7.021657E-2,2.8229898E-1,1.3045783E-1,6.76607E-1,-1.3976997E0,1.0566916E-1,9.9994324E-2,2.122755E-1,5.3990465E-2,-7.205078E-1,-9.601523E-2,9.128062E-2,2.592705E-2,-1.5116146E-1,8.0781214E-2,9.949353E-3,-1.7236498E-1,-7.609504E-2,3.0049203E-2,-9.1594376E-2,-2.9342232E-2,-9.1054365E-2],"categories":[],"categories_nodes":[],"categories_segments":[],"categories_sizes":[],"default_left":[0,0,0,0,0,0,0,0,0,0,0,0,0,0,0,0,0,0,0,0,0,0,0,0,0,0,0,0,0,0,0,0,0,0,0,0,0,0,0,0,0,0,0],"id":27,"left_children":[1,3,5,7,9,-1,11,13,15,17,19,21,-1,23,25,27,-1,-1,-1,-1,29,-1,31,33,35,37,-1,-1,39,-1,41,-1,-1,-1,-1,-1,-1,-1,-1,-1,-1,-1,-1],"loss_changes":[2.8016492E3,1.482743E3,9.321362E1,3.381333E2,3.9894098E2,0E0,6.8381977E0,1.4431165E3,6.321533E0,1.3457565E1,3.7559814E0,3.077631E-1,0E0,4.3664563E2,4.9260962E2,1.5113056E1,0E0,0E0,0E0,0E0,4.032393E0,0E0,4.657203E0,4.4127316E2,3.7304517E2,1.1464099E2,0E0,0E0,4.036519E0,0E0,6.516123E-1,0E0,0E0,0E0,0E0,0E0,0E0,0E0,0E0,0E0,0E0,0E0,0E0],"parents":[2147483647,0,0,1,1,2,2,3,3,4,4,6,6,7,7,8,8,9,9,10,10,11,11,13,13,14,14,15,15,20,20,22,22,23,23,24,24,25,25,28,28,30,30],"right_children":[2,4,6,8,10,-1,12,14,16,18,20,22,-1,24,26,28,-1,-1,-1,-1,30,-1,32,34,36,38,-1,-1,40,-1,42,-1,-1,-1,-1,-1,-1,-1,-1,-1,-1,-1,-1],"split_conditions":[5.7E1,1.1E1,1.5625E1,1.4328536E1,1E0,-1.0582323E-1,3.2938E4,6.2171183E0,2.4278978E1,3.7256238E-1,1.361337E3,1.5272727E1,-8.514316E-2,-4.4106975E-2,1E0,-5.7E1,1.0140347E-1,-1.385162E-1,1.0083101E-1,-1.0523196E-1,4.1728368E-1,7.021657E-2,2.8212E4,1E0,8.364618E-1,8.990044E0,1.0566916E-1,9.9994324E-2,1E0,5.3990465E-2,4.9526903E-1,-9.601523E-2,9.128062E-2,2.592705E-2,-1.5116146E-1,8.0781214E-2,9.949353E-3,-1.7236498E-1,-7.609504E-2,3.0049203E-2,-9.1594376E-2,-2.9342232E-2,-9.1054365E-2],"split_indices":[0,1,4,16,15,0,0,16,16,5,5,3,0,16,15,0,0,0,0,0,16,0,0,10,16,16,0,0,6,0,16,0,0,0,0,0,0,0,0,0,0,0,0],"split_type":[0,0,0,0,0,0,0,0,0,0,0,0,0,0,0,0,0,0,0,0,0,0,0,0,0,0,0,0,0,0,0,0,0,0,0,0,0,0,0,0,0,0,0],"sum_hessian":[1.1557196E4,9.726139E3,1.8310575E3,8.715635E3,1.0105035E3,1.7945927E3,3.6464844E1,7.662754E3,1.0528807E3,1.10536835E2,8.999666E2,3.4062115E1,2.402729E0,7.010035E3,6.527189E2,1.11843056E2,9.410377E2,1.5679322E0,1.089689E2,8.8716943E2,1.2797189E1,3.0235851E1,3.8262622E0,2.0833508E3,4.9266846E3,5.576774E2,9.50414E1,7.505166E1,3.6791393E1,2.4767292E0,1.032046E1,1.1120592E0,2.714203E0,1.9325905E3,1.507603E2,4.0137664E3,9.1291815E2,3.677304E2,1.8994704E2,3.480372E1,1.9876766E0,3.961482E0,6.358978E0],"tree_param":{"num_deleted":"0","num_feature":"17","num_nodes":"43","size_leaf_vector":"1"}},{"base_weights":[1.0862438E-1,3.1215385E-1,-1.0205208E0,-8.859962E-1,4.645E-1,-1.0523347E-1,4.92782E-1,-8.962354E-2,-1.0438997E0,9.996846E-1,3.9643353E-1,6.3112205E-1,-8.674232E-2,-6.8399333E-3,-8.69974E-2,-1.0509886E-1,-5.101466E-1,-1.9266114E-1,1.0166252E0,5.409832E-1,-6.9522685E-1,7.737594E-2,3.607653E-1,4.35328E-2,-7.5296754E-1,1.0176124E-1,9.761329E-3,1.7673987E-1,7.101906E-1,-9.8289716E-1,6.5104824E-1,1.930735E-1,8.3312E-2,-1.3150238E-1,-4.6706088E-2,3.055861E-2,-1.24728456E-1,7.797754E-2,-5.589011E-2,-1.2707387E-1,1.0371231E-1,1.5130877E-2,9.72728E-2,4.0971126E-2,-9.235371E-2],"categories":[],"categories_nodes":[],"categories_segments":[],"categories_sizes":[],"default_left":[0,0,0,0,0,0,0,0,0,0,0,0,0,0,0,0,0,0,0,0,0,0,0,0,0,0,0,0,0,0,0,0,0,0,0,0,0,0,0,0,0,0,0,0,0],"id":28,"left_children":[1,3,5,7,9,-1,11,13,15,17,19,21,-1,-1,-1,-1,23,-1,25,27,29,-1,31,-1,33,-1,-1,35,37,39,41,43,-1,-1,-1,-1,-1,-1,-1,-1,-1,-1,-1,-1,-1],"loss_changes":[2.5052908E3,1.6863052E3,8.067407E1,1.3096844E2,2.9812598E2,0E0,7.126169E0,2.8149378E0,2.7544556E0,4.7763733E1,1.1478666E3,9.669285E-1,0E0,0E0,0E0,0E0,3.3909373E0,0E0,7.346802E-1,3.9568652E2,3.3011426E2,0E0,8.71531E-1,0E0,1.1506066E0,0E0,0E0,3.7438486E2,3.8764844E2,4.0911566E2,2.4027351E1,3.0200267E0,0E0,0E0,0E0,0E0,0E0,0E0,0E0,0E0,0E0,0E0,0E0,0E0,0E0],"parents":[2147483647,0,0,1,1,2,2,3,3,4,4,6,6,7,7,8,8,9,9,10,10,11,11,16,16,18,18,19,19,20,20,22,22,24,24,27,27,28,28,29,29,30,30,31,31],"right_children":[2,4,6,8,10,-1,12,14,16,18,20,22,-1,-1,-1,-1,24,-1,26,28,30,-1,32,-1,34,-1,-1,36,38,40,42,44,-1,-1,-1,-1,-1,-1,-1,-1,-1,-1,-1,-1,-1],"split_conditions":[5.7E1,-8.75E-1,1.5625E1,-4.4314817E-2,-5.7E1,-1.0523347E-1,3.2938E4,1E0,1.361337E3,-3.630245E-2,4.8963447E0,5.2614905E-2,-8.674232E-2,-6.8399333E-3,-8.69974E-2,-1.0509886E-1,4.1728368E-1,-1.9266114E-1,2.0833333E-1,-4.407842E-2,1.28619175E1,7.737594E-2,2.8212E4,4.35328E-2,1.4249032E3,1.0176124E-1,9.761329E-3,1E0,3.6727493E2,-3.75E-1,2.4278978E1,5.7777297E-2,8.3312E-2,-1.3150238E-1,-4.6706088E-2,3.055861E-2,-1.24728456E-1,7.797754E-2,-5.589011E-2,-1.2707387E-1,1.0371231E-1,1.5130877E-2,9.72728E-2,4.0971126E-2,-9.235371E-2],"split_indices":[0,12,4,16,0,0,0,15,5,16,16,5,0,0,0,0,16,0,4,16,16,0,0,0,5,0,0,10,5,12,16,5,0,0,0,0,0,0,0,0,0,0,0,0,0],"split_type":[0,0,0,0,0,0,0,0,0,0,0,0,0,0,0,0,0,0,0,0,0,0,0,0,0,0,0,0,0,0,0,0,0,0,0,0,0,0,0,0,0,0,0,0,0],"sum_hessian":[1.0898981E4,9.235074E3,1.6639072E3,1.0412429E3,8.193832E3,1.6299458E3,3.396141E1,1.7255318E2,8.6868976E2,9.2298834E2,7.2708433E3,3.1312748E1,2.6486626E0,1.6904315E2,3.5100348E0,8.563474E2,1.2342349E1,4.6636763E0,9.1832465E2,6.4211113E3,8.497319E2,1.9279238E1,1.203351E1,2.3600802E0,9.982268E0,9.172321E2,1.0925388E0,2.0373872E3,4.383724E3,7.0035156E2,1.493803E2,9.920393E0,2.113117E0,2.1520758E0,7.8301926E0,1.8690594E3,1.6832776E2,4.1562227E3,2.2750171E2,6.133269E2,8.702467E1,5.9075314E1,9.0304985E1,8.83865E0,1.0817432E0],"tree_param":{"num_deleted":"0","num_feature":"17","num_nodes":"45","size_leaf_vector":"1"}},{"base_weights":[1.01387516E-1,3.7861142E-1,-4.0832195E-1,5.6590486E-1,-9.783976E-4,-9.4046605E-1,-3.6729198E-2,-3.583875E-1,7.442791E-1,-6.126763E-1,1.0085225E0,-1.0673068E0,1.0036402E-1,6.9941306E-1,-5.2754766E-1,-4.9483013E-1,1.0058575E-1,7.74074E-1,-7.170199E-1,-8.401596E-1,1.0223653E0,-9.018036E-2,1.0156979E-1,-1.0336438E0,-1.122319E0,-1.0043496E0,8.091121E-1,5.5614986E-2,-8.6235964E-1,-2.2309082E-2,-6.561247E-1,-1.0483204E0,7.986335E-1,-3.9777784E0,8.6503184E-1,-1.0766622E0,-2.6669043E-1,1.0349227E0,-5.2926805E-2,-1.04042225E-1,1.648388E-1,-1.1644892E0,-9.6416295E-1,9.131803E-2,-1.0627123E0,9.139414E-1,4.44313E-1,4.342664E-1,-2.1368437E0,-1.2193507E0,4.7701707E-1,-1.9540827E-4,-8.532247E-2,-4.8713073E-2,-7.064677E-2,-1.090914E-1,4.8936434E-2,4.34686E-2,8.725784E-2,-5.645786E-1,-2.3881109E-1,1.0140689E-1,-7.1179286E-2,-5.8394413E-2,-1.4179246E-1,-5.4762404E-2,1.6505666E-2,1.04372025E-1,8.380982E-3,-7.1968995E-2,8.862828E-2,-1.1532531E-1,-1.7290501E-1,5.5840295E-2,-1.0353925E-1,-1.2283988E-1,-5.021813E-2,9.351314E-2,-1.04195215E-1,-1.3720706E-1,1.019034E-1,-1.3035768E-1,7.633268E-2,-2.6165205E-1,9.310846E-2,-2.2664933E-1,-1.0793475E-1,8.875766E-2,-1.5332688E-1],"categories":[],"categories_nodes":[],"categories_segments":[],"categories_sizes":[],"default_left":[0,0,0,0,0,0,0,0,0,0,0,0,0,0,0,0,0,0,0,0,0,0,0,0,0,0,0,0,0,0,0,0,0,0,0,0,0,0,0,0,0,0,0,0,0,0,0,0,0,0,0,0,0,0,0,0,0,0,0,0,0,0,0,0,0,0,0,0,0,0,0,0,0,0,0,0,0,0,0,0,0,0,0,0,0,0,0,0,0],"id":29,"left_children":[1,3,5,7,9,11,13,15,17,19,21,23,-1,25,27,29,-1,31,33,35,37,-1,-1,39,41,43,45,47,49,51,53,55,57,59,61,63,65,67,-1,-1,69,71,73,-1,75,77,79,81,83,85,87,-1,-1,-1,-1,-1,-1,-1,-1,-1,-1,-1,-1,-1,-1,-1,-1,-1,-1,-1,-1,-1,-1,-1,-1,-1,-1,-1,-1,-1,-1,-1,-1,-1,-1,-1,-1,-1,-1],"loss_changes":[1.4570957E3,4.748371E2,7.1831433E2,7.3761035E2,1.3638702E3,3.69396E2,7.736192E2,1.3528955E2,1.637898E2,5.123968E2,1.2338989E1,1.4373779E0,0E0,1.6090024E2,2.5086203E2,5.020877E1,0E0,1.6530591E2,3.9258167E2,1.6353381E2,3.8294678E0,0E0,0E0,7.343506E0,2.350891E0,6.818901E0,3.03891E1,3.9066574E2,3.908045E2,2.8521276E0,3.835144E0,3.7625237E0,9.721509E1,5.2333282E1,1.2851032E1,1.4291406E2,4.302983E1,1.313324E0,0E0,0E0,4.3571134E0,5.8374023E-1,1.3098923E1,0E0,4.136139E0,2.6860168E1,1.9107526E2,2.303981E2,1.0443005E2,9.206183E1,1.4370442E2,0E0,0E0,0E0,0E0,0E0,0E0,0E0,0E0,0E0,0E0,0E0,0E0,0E0,0E0,0E0,0E0,0E0,0E0,0E0,0E0,0E0,0E0,0E0,0E0,0E0,0E0,0E0,0E0,0E0,0E0,0E0,0E0,0E0,0E0,0E0,0E0,0E0,0E0],"parents":[2147483647,0,0,1,1,2,2,3,3,4,4,5,5,6,6,7,7,8,8,9,9,10,10,11,11,13,13,14,14,15,15,17,17,18,18,19,19,20,20,23,23,24,24,25,25,26,26,27,27,28,28,29,29,30,30,31,31,32,32,33,33,34,34,35,35,36,36,37,37,40,40,41,41,42,42,44,44,45,45,46,46,47,47,48,48,49,49,50,50],"right_children":[2,4,6,8,10,12,14,16,18,20,22,24,-1,26,28,30,-1,32,34,36,38,-1,-1,40,42,44,46,48,50,52,54,56,58,60,62,64,66,68,-1,-1,70,72,74,-1,76,78,80,82,84,86,88,-1,-1,-1,-1,-1,-1,-1,-1,-1,-1,-1,-1,-1,-1,-1,-1,-1,-1,-1,-1,-1,-1,-1,-1,-1,-1,-1,-1,-1,-1,-1,-1,-1,-1,-1,-1,-1,-1],"split_conditions":[6.666667E-1,2.3973954E0,6.969697E0,-4.4311777E-2,1E0,3.590238E2,1.2878788E1,0E0,1.25E0,0E0,-6.25E-1,2.3095238E0,1.0036402E-1,1.3125E0,1.8452381E1,0E0,1.0058575E-1,-6.25E-1,-4.407842E-2,1.0859223E1,1E0,-9.018036E-2,1.0156979E-1,1E0,2.375E0,5.904762E0,1.0119047E1,2.1676046E1,6.4958334E0,1E0,-4.431806E-2,1.4232967E0,1E0,2E0,-4.4012338E-2,6.2171183E0,2.4278978E1,1.9718359E1,-5.2926805E-2,-1.04042225E-1,1.5151515E0,6.242424E0,5.8809524E0,9.131803E-2,-4.4240203E-2,2E0,3.74375E0,2.640625E0,3.125E0,1.5545455E1,2.1484848E1,-1.9540827E-4,-8.532247E-2,-4.8713073E-2,-7.064677E-2,-1.090914E-1,4.8936434E-2,4.34686E-2,8.725784E-2,-5.645786E-1,-2.3881109E-1,1.0140689E-1,-7.1179286E-2,-5.8394413E-2,-1.4179246E-1,-5.4762404E-2,1.6505666E-2,1.04372025E-1,8.380982E-3,-7.1968995E-2,8.862828E-2,-1.1532531E-1,-1.7290501E-1,5.5840295E-2,-1.0353925E-1,-1.2283988E-1,-5.021813E-2,9.351314E-2,-1.04195215E-1,-1.3720706E-1,1.019034E-1,-1.3035768E-1,7.633268E-2,-2.6165205E-1,9.310846E-2,-2.2664933E-1,-1.0793475E-1,8.875766E-2,-1.5332688E-1],"split_indices":[3,16,3,16,6,2,3,12,12,12,12,2,0,4,2,1,0,12,16,16,8,0,0,10,12,2,2,5,4,15,16,5,11,12,16,16,16,16,0,0,3,3,2,0,16,15,4,4,12,3,3,0,0,0,0,0,0,0,0,0,0,0,0,0,0,0,0,0,0,0,0,0,0,0,0,0,0,0,0,0,0,0,0,0,0,0,0,0,0],"split_type":[0,0,0,0,0,0,0,0,0,0,0,0,0,0,0,0,0,0,0,0,0,0,0,0,0,0,0,0,0,0,0,0,0,0,0,0,0,0,0,0,0,0,0,0,0,0,0,0,0,0,0,0,0,0,0,0,0,0,0,0,0,0,0,0,0,0,0,0,0,0,0,0,0,0,0,0,0,0,0,0,0,0,0,0,0,0,0,0,0],"sum_hessian":[1.0309713E4,6.6779346E3,3.6317788E3,4.471273E3,2.2066619E3,1.4926621E3,2.1391167E3,7.231378E2,3.748135E3,1.3743064E3,8.323554E2,